<?xml version="1.0"?>
<opencv_storage>
<opencv_ml_ann_mlp>
  <format>3</format>
  <layer_sizes>
    1764 48 5</layer_sizes>
  <activation_function>SIGMOID_SYM</activation_function>
  <f_param1>6.6666666666666663e-01</f_param1>
  <f_param2>1.7159000000000000e+00</f_param2>
  <min_val>-9.4999999999999996e-01</min_val>
  <max_val>9.4999999999999996e-01</max_val>
  <min_val1>-9.7999999999999998e-01</min_val1>
  <max_val1>9.7999999999999998e-01</max_val1>
  <training_params>
    <train_method>BACKPROP</train_method>
    <dw_scale>1.0000000000000001e-01</dw_scale>
    <moment_scale>0.</moment_scale>
    <term_criteria>
      <epsilon>1.0000000000000000e-03</epsilon></term_criteria></training_params>
  <input_scale>
    2.2277166468526350e+01 -8.9772527765451327e-01
    1.2789997359865707e+01 -1.2355872497326856e+00
    9.4785601763560656e+00 -1.4858198979042034e+00
    1.4118797215895036e+01 -9.7896805485852934e-01
    8.0360096079037184e+00 -1.0164935830925554e+00
    1.4498637728568129e+01 -6.3376563885956860e-01
    2.2499778066196043e+01 -6.5243236011281225e-01
    3.1560020218060622e+01 -6.2367546988154998e-01
    2.2098869889058754e+01 -6.8471450156907510e-01
    1.0400189338030374e+01 -1.0538128944534981e+00
    8.1738734245906421e+00 -2.2592174489830827e+00
    8.4959204190489306e+00 -2.5386206590959937e+00
    1.1862987548176624e+01 -1.1012395811604601e+00
    7.6486630374107625e+00 -9.2325315616595183e-01
    1.3604691815963324e+01 -6.2185158884302638e-01
    1.7548256720652219e+01 -6.5042951245599978e-01
    2.1824711379071857e+01 -6.6123727085929207e-01
    1.5517299679527111e+01 -8.1614202117103629e-01
    1.7893537042238645e+01 -9.2265241106003670e-01
    1.0977078219414278e+01 -1.7675680257196662e+00
    8.5052739823617376e+00 -2.6597860305543057e+00
    1.0739370449282081e+01 -1.6749719109442742e+00
    8.2654401543561189e+00 -1.0320028039534512e+00
    1.5827883250648391e+01 -6.5577445973165638e-01
    1.9762187378913548e+01 -6.3953791651438474e-01
    2.8985450835931733e+01 -6.7839418647704075e-01
    1.9794118528940167e+01 -7.6811851002192533e-01
    9.5379951800389087e+00 -1.0442577760997533e+00
    9.6840315999515418e+00 -3.2086425842627033e+00
    1.1954121491295934e+01 -4.1735994044595257e+00
    9.1689667780095530e+00 -1.6660710733017130e+00
    8.3843690560658359e+00 -9.1968081988922601e-01
    1.4096682880423270e+01 -6.5651024222178322e-01
    1.5567996188098375e+01 -6.8566878656021524e-01
    1.9860410606306367e+01 -7.4081910594625011e-01
    1.1670887053398509e+01 -8.2043003482137722e-01
    9.1637548580809103e+00 -1.0239283186921189e+00
    8.5798536597933470e+00 -2.1002070705521056e+00
    8.5148584319414216e+00 -1.8682999541989314e+00
    1.8417011344801097e+01 -9.4439426033571838e-01
    1.1639594161729301e+01 -7.4038249903639386e-01
    1.9954105710747136e+01 -4.8741712234506707e-01
    3.4271118601591056e+01 -5.9921717009763575e-01
    3.9615624258605784e+01 -6.9732015799335267e-01
    1.4130646266136093e+01 -7.1925212141425721e-01
    9.9778427899071342e+00 -1.8885798436242309e+00
    9.6625329005916800e+00 -2.4663007594435933e+00
    7.8233650188334378e+00 -1.8769948542969299e+00
    1.2179144196055127e+01 -8.8156224101496006e-01
    1.2397531853130078e+01 -8.2199519708528901e-01
    2.0372861001203788e+01 -5.8685690148334380e-01
    2.9619143063254892e+01 -7.0335524566396790e-01
    2.4716076582260442e+01 -7.7456641556152039e-01
    9.2558891772916905e+00 -9.4054108996660823e-01
    9.1510653439405427e+00 -1.0334508668587510e+00
    1.0968979324518022e+01 -2.9847171524701532e+00
    1.1160078242006586e+01 -3.2680779730486496e+00
    1.3044173115210056e+01 -1.2046111161612172e+00
    1.4698865827598279e+01 -7.3243625004479163e-01
    2.2307158007102085e+01 -5.3153877699003460e-01
    3.2852949725264118e+01 -6.9285239178354652e-01
    2.5609926774539673e+01 -6.5953994371603919e-01
    1.0868615671500915e+01 -7.4075536738447112e-01
    9.5327689143393730e+00 -1.5938968459323899e+00
    9.6003952876655188e+00 -2.8289365414601200e+00
    7.7596144346816160e+00 -2.0910641276409536e+00
    7.8028669349105382e+00 -9.2619324448225571e-01
    9.9335375839092972e+00 -8.3328755536572918e-01
    2.0397220669166252e+01 -6.3491324286525097e-01
    2.0501240981977769e+01 -6.4356676235403010e-01
    1.3455916789024325e+01 -6.9564760550943316e-01
    8.2767115517667769e+00 -9.8555760229744560e-01
    8.6165484980251144e+00 -1.9628912175012008e+00
    8.8370613605732053e+00 -1.7804741961041897e+00
    8.8228234297578023e+00 -1.5058027227497546e+00
    1.6737426988969379e+01 -1.0542039008023665e+00
    1.7422531204345155e+01 -9.2940503052563916e-01
    2.5164795491340563e+01 -7.0947266152520772e-01
    3.4302407815309664e+01 -9.2922510003802228e-01
    2.3319975451737296e+01 -9.8215211348158393e-01
    8.7271036867900946e+00 -1.1131288406223754e+00
    8.9622737690076271e+00 -2.1901973132320176e+00
    9.1837493978630231e+00 -1.8117841693025993e+00
    7.7295417183219488e+00 -1.0042555034193337e+00
    9.4683868539411868e+00 -7.7410466321431648e-01
    1.3646809791677473e+01 -8.9541332513025274e-01
    1.8893511259507047e+01 -8.2399141167979217e-01
    2.0299160344234863e+01 -9.7612564607648034e-01
    1.5789187183907664e+01 -1.0414853640682920e+00
    8.5548904086636242e+00 -1.4719056022784918e+00
    8.3796551578275480e+00 -1.5290914745286084e+00
    8.9878753497461545e+00 -1.8444515214457384e+00
    7.4888450788713614e+00 -1.4827638197555340e+00
    1.0551663468072736e+01 -9.9843894383375476e-01
    9.1671042914537146e+00 -7.4535674052412459e-01
    1.8234720009109932e+01 -7.1944033222268999e-01
    1.7411766688037236e+01 -8.0280378255458040e-01
    1.2250735595580483e+01 -8.8713108345409231e-01
    8.1166061966482737e+00 -1.1721683696439251e+00
    8.3619867168224253e+00 -1.5571929500032557e+00
    8.6858186676697002e+00 -1.4599680799645163e+00
    7.3952127166573387e+00 -9.9693159985862201e-01
    8.3418260005133487e+00 -9.0598538678117979e-01
    9.0106496304270323e+00 -9.1368755765874332e-01
    1.1873796245123065e+01 -9.5539319053817551e-01
    9.3898237295708746e+00 -1.0439106750880798e+00
    9.4083841626516147e+00 -1.1964113534851235e+00
    8.0529488681415859e+00 -1.4166799390566673e+00
    8.7206527080546756e+00 -2.2438645550037468e+00
    1.0672207972268822e+01 -1.4826832840386004e+00
    8.2210727400602899e+00 -7.5722759931592898e-01
    8.8208791279292296e+00 -6.5894405287754287e-01
    1.2777914784384562e+01 -7.9769438311761487e-01
    2.1152869823043556e+01 -8.2061142162958578e-01
    2.1241389393946125e+01 -9.5687319225562217e-01
    1.6564577105262281e+01 -1.1550498639661750e+00
    8.1064036439666332e+00 -1.9129702028544511e+00
    8.8518674039167493e+00 -2.1634671773018108e+00
    1.3415558790629706e+01 -9.8586310229402263e-01
    8.7288984025866831e+00 -6.7565393376244787e-01
    8.8737263751811124e+00 -6.4349660263939146e-01
    1.1942450503037753e+01 -7.5992851707140563e-01
    2.4602839853971684e+01 -7.9260102883183725e-01
    2.2692417929348288e+01 -9.5940616162085923e-01
    1.0576730134573820e+01 -1.3606969108151346e+00
    8.1676630263386354e+00 -2.0816761349023527e+00
    8.6879229251780465e+00 -1.6249875572309458e+00
    1.2252451751797755e+01 -1.2400128634663152e+00
    8.1188798213454731e+00 -8.1893143277672009e-01
    8.7035606322323726e+00 -9.2515483606636717e-01
    8.8892025062193856e+00 -9.2329783672066990e-01
    1.0020691469025259e+01 -9.1849717153541832e-01
    8.1901618583281302e+00 -9.6429351258299101e-01
    7.8376062031556488e+00 -1.2019935146030511e+00
    8.2660826327887875e+00 -1.6730777854829118e+00
    8.3546085234778982e+00 -1.4105050524065843e+00
    1.4271873052104867e+01 -9.2785847410453615e-01
    8.8540958256958415e+00 -7.4783021997502974e-01
    1.0577659594741373e+01 -8.6185805892943401e-01
    9.4686932806001884e+00 -7.9655381625887867e-01
    1.3293695520919357e+01 -8.5968074111985615e-01
    1.1839078109571815e+01 -1.1125105948715339e+00
    8.9722773092407930e+00 -1.3945142512414954e+00
    7.8833115624407748e+00 -1.6092448955599739e+00
    1.1030754664221678e+01 -1.7212247601570501e+00
    1.5093507696087412e+01 -8.3323710870398116e-01
    9.6121652571975478e+00 -6.5418000076308158e-01
    9.0865248112946713e+00 -6.4072877937492956e-01
    9.8106360982323082e+00 -7.6745502839434043e-01
    1.9116844141907929e+01 -8.7828836264751964e-01
    1.6351029025654796e+01 -1.2314014323612894e+00
    7.6333997604673254e+00 -1.5897270436010245e+00
    7.7521792740334758e+00 -2.0541070272696453e+00
    1.1317731262074526e+01 -1.2463283688373767e+00
    1.7376472486172400e+01 -8.9070233900663265e-01
    9.8919343113704805e+00 -6.9044682185641604e-01
    1.0491787389358763e+01 -7.0732405197878023e-01
    1.0819908901942327e+01 -9.2602721523780329e-01
    1.3323586671641232e+01 -9.8851900495166078e-01
    7.7393659910280750e+00 -1.3269595232180271e+00
    7.6516336738562316e+00 -1.8323838167237176e+00
    7.6384283982986574e+00 -1.9403561217910155e+00
    9.8522826336628206e+00 -1.2277303114746798e+00
    1.4238632769772087e+01 -8.2243192339884597e-01
    8.5116926881369750e+00 -6.7547121061094373e-01
    1.0336891873054102e+01 -7.3889509367621664e-01
    1.0164173853056058e+01 -8.1872583562471157e-01
    1.3816207799125880e+01 -8.1545511198745779e-01
    1.4040915423748400e+01 -1.1444531977451911e+00
    8.9539835262364971e+00 -1.3717116071086803e+00
    7.8239511552817369e+00 -1.4850980588927174e+00
    1.0873014047304565e+01 -1.2582758093708108e+00
    1.1088199403561466e+01 -8.5426045233084669e-01
    7.6784053709908378e+00 -7.0833433154779435e-01
    8.5038095786775436e+00 -7.3665097884812858e-01
    1.2671761300967303e+01 -9.1143699782920118e-01
    1.8096677460429113e+01 -1.0566392913252747e+00
    8.6564102376802055e+00 -1.3684896286902415e+00
    7.6077356119333661e+00 -1.7940762601913209e+00
    8.3284374587210834e+00 -1.7140108768679960e+00
    1.3488986532197384e+01 -8.2298825902797113e-01
    2.1477663548770970e+01 -7.1631393582986602e-01
    1.0652308118434616e+01 -6.0621654288076166e-01
    1.3399172118304447e+01 -6.6409088272891459e-01
    1.1087623313721659e+01 -7.3974326911865640e-01
    1.5486307229759012e+01 -9.4028048473242742e-01
    7.5177978646848276e+00 -1.4476164088605452e+00
    7.4929143503048499e+00 -1.8496574961398053e+00
    9.6545550626642491e+00 -1.4377376049888149e+00
    1.6390919303456563e+01 -7.5686406860534017e-01
    1.3472404969134869e+01 -6.3233670802353648e-01
    7.5252089418198977e+00 -5.9825928184646016e-01
    9.1571699938480968e+00 -6.8891704275063004e-01
    9.6433928330268763e+00 -8.8078383879154509e-01
    1.3030393823872679e+01 -1.0159905721902824e+00
    7.8060948317456047e+00 -1.6881482200193700e+00
    7.7614366196050515e+00 -1.8728816243953808e+00
    9.6312437114948111e+00 -9.8076643934957131e-01
    1.2601479410214498e+01 -9.4936725668814215e-01
    1.2851983273395133e+01 -7.2222253551295967e-01
    7.3219962780672647e+00 -6.3696234536085505e-01
    9.9153500174957490e+00 -6.8298783018187326e-01
    1.6891823365655846e+01 -7.8453814549696754e-01
    1.7262687638462889e+01 -9.5019391376093165e-01
    7.2849025579859346e+00 -1.5260508235245953e+00
    7.6381498429646992e+00 -1.8995562015115999e+00
    8.5976627301290396e+00 -1.2970392078976771e+00
    1.4532576483083544e+01 -7.7115827032548212e-01
    1.0296700663336251e+01 -6.4630142883072483e-01
    7.1507741797045199e+00 -6.1728865309809133e-01
    7.9811552493744395e+00 -6.5073279579027477e-01
    1.5632279047035976e+01 -8.6887481114970633e-01
    1.3105742121407840e+01 -1.2063482379368562e+00
    7.6995932912134739e+00 -1.9239153176758323e+00
    7.7330509709156718e+00 -2.0344434816942707e+00
    9.3025692705239535e+00 -9.7307341318243690e-01
    1.8613838808861320e+01 -7.8583692380091241e-01
    1.3395876299273928e+01 -6.5473683197532462e-01
    8.4414949472365208e+00 -6.6555715339211241e-01
    9.5447620267827240e+00 -7.8197437550338400e-01
    9.0676982808133904e+00 -1.0326844256732577e+00
    1.1572346131630450e+01 -1.2002000322145534e+00
    6.9829176531538675e+00 -1.7361972306774280e+00
    7.5892455703200090e+00 -1.7066443854825430e+00
    1.1143572598609600e+01 -9.2413234695488100e-01
    2.0771678654836450e+01 -7.1676206441387336e-01
    1.3026325280757153e+01 -5.8508097259316327e-01
    8.4769527614873770e+00 -6.4507445085151816e-01
    8.8586514750433203e+00 -7.3752271711901163e-01
    8.7697641565755777e+00 -1.0741484739853913e+00
    1.1785335330617295e+01 -1.1218621950354222e+00
    9.6174245664739679e+00 -1.3209963806043081e+00
    1.3571391167869436e+01 -1.1601261985702676e+00
    2.3233537051504403e+01 -9.3804005669260826e-01
    1.7616753055791513e+01 -7.3264420619108417e-01
    1.2401896772693741e+01 -6.7405424448523710e-01
    8.0434338276101336e+00 -6.6498932210821060e-01
    8.8501836336683457e+00 -7.5524857449281013e-01
    1.0614997664204511e+01 -9.1268554121057854e-01
    8.3709666306909529e+00 -1.4486858131040801e+00
    6.6042591972372851e+00 -1.9412021139940241e+00
    6.5532751863196363e+00 -1.8822729013672095e+00
    1.0869249768758262e+01 -8.9484725170292811e-01
    3.1155026812164529e+01 -8.5491830412392600e-01
    1.5741918792219540e+01 -6.2479474878574537e-01
    8.5911621668534632e+00 -6.3308104509163365e-01
    9.5546331859614924e+00 -7.5154184663989343e-01
    9.7998590288659084e+00 -1.0506993318023534e+00
    9.0176044845187242e+00 -1.6281223388755401e+00
    6.5031233031904829e+00 -1.8056236675249551e+00
    9.4589444488490475e+00 -1.4434772795365385e+00
    2.4731836617108389e+01 -9.8719643448720240e-01
    2.1505145229640135e+01 -7.4215952995191381e-01
    1.3284065633669444e+01 -1.3334260116854066e+00
    7.7045175901078267e+00 -1.9720726545456531e+00
    9.8388253596711372e+00 -1.9354716366069438e+00
    1.0274332073699542e+01 -9.5662769625244670e-01
    2.3526091406938743e+01 -6.3119217793722060e-01
    3.7337479141133350e+01 -6.7034075203459498e-01
    3.6877954582089096e+01 -6.1911495476555245e-01
    2.3905330009951012e+01 -6.4512860077424750e-01
    1.1097986846064508e+01 -7.8560960779729450e-01
    1.1222857426087486e+01 -2.2817304784394290e+00
    1.1123462962152656e+01 -3.5316340248910083e+00
    1.1344002528312574e+01 -2.1566766004868043e+00
    1.1149607504910113e+01 -8.9125019021654828e-01
    1.9972886222749047e+01 -6.5951146366854096e-01
    2.2098846559395628e+01 -6.8255614732429126e-01
    1.9796016982107055e+01 -6.9938218208203573e-01
    1.0839123029493232e+01 -6.5881302240531625e-01
    1.8193405299977314e+01 -8.1431425370334198e-01
    1.3393743283578324e+01 -1.3034070026135434e+00
    8.1781985987652970e+00 -2.3084888696286172e+00
    9.8965676142083936e+00 -2.7635805047737341e+00
    1.0398269094259687e+01 -1.3546562395957000e+00
    1.9202611016327946e+01 -8.3499790681700270e-01
    3.0412486434182728e+01 -7.9491985859783754e-01
    2.0760860490583397e+01 -6.3115607289768560e-01
    1.3836012232096570e+01 -6.1617901863230273e-01
    9.9537815539234735e+00 -8.8812091640557456e-01
    7.7833180519044589e+00 -1.3385227052938100e+00
    8.3093090455833547e+00 -2.5765670162318020e+00
    8.9991874709169135e+00 -2.3709737718719417e+00
    1.1226365312894817e+01 -1.2310063952453947e+00
    1.7370967464182861e+01 -8.5655428631099617e-01
    1.9257052533209777e+01 -8.3518224983074363e-01
    9.7811248592158737e+00 -7.6815633098734470e-01
    9.2954059160649845e+00 -8.0938721244874900e-01
    8.7692182455263961e+00 -8.0958486117595541e-01
    9.6197783132931196e+00 -1.9679869445839662e+00
    9.0701879586396075e+00 -2.4497986710550506e+00
    1.2115604979619855e+01 -1.4497564471890385e+00
    1.5941276932457328e+01 -9.4420953712003219e-01
    3.3060549631663456e+01 -7.1481892523062163e-01
    3.2665580046656814e+01 -6.5940633298353168e-01
    1.9815410854694324e+01 -6.4067496436228788e-01
    8.3846588994810105e+00 -6.8696235381706050e-01
    8.3094951453645702e+00 -1.0899905856248018e+00
    8.6116495233719164e+00 -1.8852091427258810e+00
    7.2798077624210356e+00 -1.8571609283090631e+00
    9.2963593981385326e+00 -1.2364345210240466e+00
    6.8028215610931033e+00 -9.3138072148198892e-01
    2.4407862760871257e+01 -7.3162806926867441e-01
    2.2053963175332520e+01 -6.0146340017791089e-01
    1.1614130981969865e+01 -6.3391192524364326e-01
    7.2473856963790668e+00 -8.6733141188747231e-01
    9.3731008278526229e+00 -7.8854724495714368e-01
    1.0549833262070244e+01 -1.2622643177550261e+00
    7.0734330066538176e+00 -1.6177558900486770e+00
    9.1298784276046785e+00 -1.4683645705515558e+00
    8.6039377873119420e+00 -9.2558400206794988e-01
    3.3311785829334021e+01 -1.0048839799633549e+00
    2.0725262965815283e+01 -6.8765393696106292e-01
    9.4583723349043982e+00 -7.8356199867320131e-01
    7.3789662729632566e+00 -7.9403844396719714e-01
    8.8958256004515768e+00 -8.5803325191125490e-01
    9.3114933566407903e+00 -1.1413819667635625e+00
    7.0936882033678135e+00 -1.2042449007666089e+00
    7.0883430564590828e+00 -1.1703857067834615e+00
    6.3944295844811290e+00 -9.7192673998162793e-01
    2.0352593151769316e+01 -7.8969167871846457e-01
    1.9580814838093961e+01 -6.3517222390915495e-01
    8.9343694905944897e+00 -8.1345571473985023e-01
    7.0138103728753425e+00 -8.5261607531416106e-01
    7.8407215243032438e+00 -1.0545788595785419e+00
    8.4272254353219793e+00 -1.1017993511688413e+00
    7.1293189497121556e+00 -1.0917307769263189e+00
    9.9612755321363480e+00 -9.9784657629118245e-01
    6.1957913201899082e+00 -7.7746462964449470e-01
    1.9837137795786408e+01 -6.6795227888847630e-01
    1.6509155683561385e+01 -6.4385299035450416e-01
    9.2665421025589225e+00 -6.5938737638086964e-01
    6.5870178778361499e+00 -9.2339509664750596e-01
    7.6442553062467180e+00 -1.0213971328426690e+00
    8.7098158011678137e+00 -9.3479827750101674e-01
    7.1591422479449056e+00 -8.5163648093760380e-01
    8.5920446505983818e+00 -9.8579649979916484e-01
    5.9959612067551031e+00 -8.2866244547388168e-01
    1.2866228925699298e+01 -8.6386503712706486e-01
    9.3866006897701393e+00 -8.7583270848364492e-01
    8.3642866789788304e+00 -9.2745173823690075e-01
    6.6284488137866191e+00 -1.0121540380310678e+00
    9.0863522594314645e+00 -8.2689990559751891e-01
    8.6813324040611324e+00 -8.8309813147732519e-01
    6.7005975304188494e+00 -9.3335536069156488e-01
    8.0017934613243913e+00 -1.0155424126759058e+00
    5.7767937542988594e+00 -8.6328163465277907e-01
    1.9384247062313005e+01 -6.0880934664340713e-01
    1.8563029522974237e+01 -5.6718140625436586e-01
    8.6909838612382941e+00 -7.5375789953482752e-01
    6.4082852093174179e+00 -8.4112408914459580e-01
    8.6828365495431967e+00 -8.5794121918588007e-01
    8.7170746558664813e+00 -8.3324452861035614e-01
    6.4925111363422658e+00 -8.9879141636736437e-01
    7.9937415043133528e+00 -1.0318014133139841e+00
    5.9678052571028362e+00 -8.0307263735689294e-01
    1.6219250970321504e+01 -6.8115539844575279e-01
    1.3641296828061007e+01 -6.7381072683550425e-01
    8.4579283142017676e+00 -8.1686477346436193e-01
    6.2702447066244824e+00 -8.6622962891432931e-01
    8.1271548824614737e+00 -9.7942086046753440e-01
    1.0511001337162748e+01 -9.2839011278252315e-01
    7.0256531369269126e+00 -8.0548700137638873e-01
    8.1067502680729149e+00 -9.6013743870537105e-01
    6.1746243755407297e+00 -8.7365766977245385e-01
    1.2064515948026797e+01 -8.9721266430763447e-01
    8.5925526407105064e+00 -8.8226530697500749e-01
    7.5560520696840552e+00 -1.0332497852637448e+00
    6.9166287396719408e+00 -1.0684022903269585e+00
    8.4289761257275195e+00 -1.0099252255314832e+00
    1.4154155854599352e+01 -9.0705330962217512e-01
    7.9331300225173944e+00 -7.3153691068364957e-01
    1.0625694325888844e+01 -9.2988744720625138e-01
    6.4618328415834743e+00 -7.3275551443453391e-01
    1.5305453388077927e+01 -9.5682222015701368e-01
    1.2227006805916242e+01 -1.0349234735344659e+00
    9.3283424054339505e+00 -1.1326604778903895e+00
    6.8780347532133010e+00 -1.0902263074455547e+00
    9.3459628777240162e+00 -9.5382149375395586e-01
    8.3049199831172267e+00 -8.7135757224794697e-01
    6.2505320584101707e+00 -8.9890593298181187e-01
    8.4261786813525852e+00 -1.0657485691658566e+00
    6.1985290395301362e+00 -8.5693412668995983e-01
    1.6804459101935375e+01 -8.4408524906435378e-01
    1.2889794789823000e+01 -8.4291846849983498e-01
    8.6418499307687178e+00 -9.3217218980477390e-01
    6.5037083824503963e+00 -9.1777283784631458e-01
    8.8383307562627671e+00 -1.1258742669048796e+00
    8.0868287634014848e+00 -9.6181541340057530e-01
    6.7171051200498111e+00 -9.5266394138189869e-01
    8.5695540707443296e+00 -9.8478075889042183e-01
    6.4521334727078834e+00 -7.5776364616380820e-01
    1.6350019241440769e+01 -8.7708668044503058e-01
    1.1645265459339448e+01 -9.0493017559564859e-01
    8.4351770327135682e+00 -9.4511912559702926e-01
    6.6749129617097624e+00 -1.0666477358710915e+00
    9.9325227941231891e+00 -1.0613489964279257e+00
    1.8738352041920589e+01 -9.2046284306573090e-01
    8.8689675245267381e+00 -6.6341323101650329e-01
    1.2624708599717740e+01 -8.5859698664077955e-01
    7.0556568343059176e+00 -6.9015563469155738e-01
    1.4525407903113102e+01 -8.1761803104577446e-01
    1.5223516979615409e+01 -1.0340736562984394e+00
    9.2035724294720200e+00 -1.0224292320417794e+00
    7.1860638155324912e+00 -1.1565123235837873e+00
    1.0671612045420501e+01 -1.1244113983321087e+00
    1.3018454931966675e+01 -8.6907532846863511e-01
    6.8680623983232643e+00 -6.9121890936961639e-01
    9.3642290811504250e+00 -8.5782893718915443e-01
    7.1453425882430555e+00 -7.0158103728968346e-01
    1.5388638297176271e+01 -8.0953277856249584e-01
    1.1397544878353967e+01 -1.0593217011122364e+00
    8.8992180790116837e+00 -1.2870292580273128e+00
    7.5959775959514788e+00 -1.2861830306030477e+00
    8.0352984985087232e+00 -1.1503213373877177e+00
    8.2915769514049238e+00 -1.0097296947281562e+00
    6.5844430765277879e+00 -1.0063453532216573e+00
    8.8173285254486977e+00 -1.0403910139722747e+00
    6.9811381355769413e+00 -7.7953013842929286e-01
    1.1199977632738177e+01 -8.3061536083590759e-01
    7.8245817914949942e+00 -8.9437136477944956e-01
    7.0914495953067886e+00 -1.0591630808903896e+00
    6.5834425015347930e+00 -1.2629561792531270e+00
    9.9228012428536765e+00 -1.1050717701915711e+00
    1.0896911503366647e+01 -1.0569148075524546e+00
    7.1213037927010037e+00 -9.0321993563832015e-01
    6.9641069436775140e+00 -9.7922364938788631e-01
    7.2162151528587817e+00 -8.3213018017006268e-01
    1.1630618521285946e+01 -9.5937319940459120e-01
    7.9556297562268963e+00 -1.0344122993362073e+00
    7.1828590332375484e+00 -1.2336114703649912e+00
    7.1636174789999769e+00 -1.2468030839649786e+00
    1.3598806475028580e+01 -1.0371374017858381e+00
    1.2911824016380969e+01 -7.1730243861537990e-01
    7.4806279461222296e+00 -6.6003952871808702e-01
    1.0859664358962752e+01 -8.2915745949694919e-01
    8.5564612189374856e+00 -6.9346674246755624e-01
    1.4384851392181751e+01 -8.7048894987772629e-01
    7.9205337647009397e+00 -1.3495321777533114e+00
    8.2241851010814369e+00 -1.6481537563760911e+00
    8.5178987026590018e+00 -1.2060982278508956e+00
    1.6450150832601501e+01 -8.7018403967046731e-01
    1.2933608574783708e+01 -6.8126292611220451e-01
    7.2563458239491005e+00 -6.4219593881417092e-01
    8.9470660315514987e+00 -7.3774509404044364e-01
    1.3830004822643094e+01 -9.6293568347543523e-01
    1.0695646837685834e+01 -1.2734980686986281e+00
    5.9704658868429341e+00 -1.5288183852179416e+00
    6.2042498531129828e+00 -1.6057882671530170e+00
    9.1716083752004085e+00 -9.4800358505157767e-01
    1.1091526792908429e+01 -9.1382713530077986e-01
    1.3450614763871533e+01 -9.1672886325766911e-01
    7.5532896995237406e+00 -7.9113687009111322e-01
    7.9160132678807722e+00 -9.6495713214047685e-01
    8.3756073318192552e+00 -8.2163937477740445e-01
    1.2415121804420721e+01 -9.1304277339169326e-01
    9.6242077646338160e+00 -1.0263405786534314e+00
    7.9967352693899691e+00 -1.1346167095351862e+00
    7.7708088796432184e+00 -1.0077116361645320e+00
    1.0819193123614495e+01 -8.5451870464664703e-01
    1.3595922323283705e+01 -9.6390011075262105e-01
    7.8690929025179130e+00 -7.9271358752600551e-01
    8.7191047509225044e+00 -9.5290703113680109e-01
    8.9446946377264549e+00 -9.9056290585037543e-01
    1.0536462251948429e+01 -1.3087144508313662e+00
    6.2919063962409059e+00 -1.3309257979723961e+00
    8.6164549037061562e+00 -1.3022451200872824e+00
    8.3721397872146426e+00 -9.2644163120749834e-01
    1.5098914192238253e+01 -6.5032569385112771e-01
    1.0234471837795768e+01 -6.1174796525480035e-01
    6.7667187346127813e+00 -6.2486388981730567e-01
    7.3025777885014351e+00 -6.9434249305332718e-01
    1.2974546800529923e+01 -1.0051582668888126e+00
    9.4456381357954609e+00 -1.5728082153912668e+00
    7.4944920330505012e+00 -1.9780200268409682e+00
    9.7786976764423823e+00 -1.8700186371049323e+00
    1.2312486049322292e+01 -7.7336209017720992e-01
    2.8871884491142200e+01 -7.0171327171323683e-01
    1.6193617276593976e+01 -5.5936476172772909e-01
    7.6026647978548922e+00 -5.7247027314357612e-01
    9.7342110193769606e+00 -6.9332787122952222e-01
    1.0643751548091290e+01 -1.0782417123748496e+00
    9.4903960426384160e+00 -1.8942617144759131e+00
    7.4619603375856771e+00 -1.8826259960809069e+00
    1.3913610383665024e+01 -1.3398498346830594e+00
    2.7028383295450773e+01 -8.2900532002710148e-01
    1.2252633922128862e+01 -7.7579525444257114e-01
    1.2526140895550826e+01 -8.5810061330450627e-01
    7.3509452446567654e+00 -7.3970986226136914e-01
    8.1340589069495248e+00 -8.5663367029708393e-01
    1.0581102589628388e+01 -1.2783029826148586e+00
    8.7485599832811278e+00 -1.8001891187830594e+00
    7.1796059385316120e+00 -1.7363285665304502e+00
    9.5662406908647739e+00 -1.2270324295319774e+00
    1.1079844069138462e+01 -8.4952119740183618e-01
    2.2590155876168424e+01 -7.4171686320185326e-01
    2.8827781151867349e+01 -7.9872617046218664e-01
    1.3974651866556117e+01 -6.7743161804340724e-01
    1.4998737362149706e+01 -9.3460499800512120e-01
    1.0052699041305086e+01 -1.4557990214864411e+00
    7.8127908962480834e+00 -2.0913421332837596e+00
    6.9801964388776261e+00 -1.6842820386584150e+00
    1.3914337099161466e+01 -1.1454005434581582e+00
    1.9987230191047310e+01 -8.1332471094250369e-01
    2.3179586808036849e+01 -8.5662618385062816e-01
    1.5301649501244139e+01 -1.0593946998097361e+00
    7.5235051771392838e+00 -1.8719595028187526e+00
    8.5330803050276760e+00 -2.2753067391239914e+00
    9.1263304819866029e+00 -1.6973234804989521e+00
    1.6600768566788076e+01 -8.2553939415770905e-01
    3.7132177218552684e+01 -8.0448601809469633e-01
    2.0033709427543780e+01 -5.6130289718036619e-01
    1.3018240493476608e+01 -5.8093881186570850e-01
    1.2408713555811499e+01 -8.9415998381625950e-01
    1.1319413482764178e+01 -1.2099972207182175e+00
    8.7776402099298707e+00 -2.1511909060687029e+00
    1.0020503438195488e+01 -2.3366778760464415e+00
    1.0203660728603307e+01 -1.3365821237256281e+00
    1.7287197209817982e+01 -8.9797698229190248e-01
    1.9683684558905860e+01 -7.6243855858787468e-01
    8.9368157500861933e+00 -7.3028442902234381e-01
    7.9278199022404570e+00 -7.9501254554669853e-01
    2.4964670135796194e+01 -7.8697040521888817e-01
    1.2536550983639055e+01 -7.5316457032820550e-01
    7.8110898639650319e+00 -1.3492050686573724e+00
    1.0715680052186430e+01 -3.1604884700893252e+00
    8.2792550022269396e+00 -2.3696437300652207e+00
    1.7598828048496980e+01 -1.1411712148873936e+00
    4.1808970077538000e+01 -8.4425492273376279e-01
    2.0004705948264888e+01 -4.9420641351032096e-01
    1.7263695442113917e+01 -5.8244850083350930e-01
    1.4945016959924512e+01 -9.3986184365393521e-01
    1.0367366287751697e+01 -9.6558767086490549e-01
    7.1441583579285268e+00 -1.2320689491570302e+00
    8.6734607289897987e+00 -1.9556870536876609e+00
    8.5664777226994531e+00 -1.7165331305370022e+00
    1.4352613481851332e+01 -9.8653618967113621e-01
    1.8589378460344157e+01 -7.6375740624869648e-01
    1.1391898667186295e+01 -7.0534432832719407e-01
    9.5782918632382472e+00 -8.0701699039639951e-01
    1.3151849270864981e+01 -9.3501611095188053e-01
    1.3888001195561388e+01 -9.9998686898952083e-01
    7.8148169316835441e+00 -1.1661192562340472e+00
    1.0874047095230944e+01 -1.3817183355774978e+00
    8.6222613053038497e+00 -1.0343543611490940e+00
    2.9317329401905116e+01 -1.1050666916622707e+00
    1.8369965511386692e+01 -7.2394802878527043e-01
    7.2881544498546784e+00 -8.3417973046284422e-01
    6.2437289359678205e+00 -8.6403579878334058e-01
    1.4676772727079483e+01 -1.2054140176212864e+00
    9.7685546015073683e+00 -9.6570426296531620e-01
    7.0440206655004420e+00 -1.0148961688716736e+00
    7.7486722107608648e+00 -1.0946991553745671e+00
    7.0555718845409920e+00 -9.8334138164921592e-01
    1.3771866072461089e+01 -8.5949293895151269e-01
    1.4867726004393067e+01 -8.2097997137938117e-01
    6.9681836732102740e+00 -9.6584038477890855e-01
    6.4226525556192042e+00 -9.9968605370038421e-01
    1.3382465491580923e+01 -1.1695619994190287e+00
    1.1371509197082082e+01 -1.0324512506117898e+00
    7.1717546142835111e+00 -1.0673315117524640e+00
    8.8684461173218043e+00 -1.2326590204219556e+00
    1.0374737459949024e+01 -1.3684308703752672e+00
    2.1066704353742889e+01 -1.1918056651280589e+00
    1.4591918004054442e+01 -9.1254679492756141e-01
    9.7816267173189502e+00 -9.7627971915462552e-01
    7.7782146326200650e+00 -1.1153336519613419e+00
    8.7865703981222136e+00 -1.4039801954235673e+00
    8.1099917200482903e+00 -1.1121539235384408e+00
    6.8449001111491352e+00 -1.2063241134297509e+00
    7.8423671460303401e+00 -9.6480361933552794e-01
    7.3516617121514933e+00 -1.1247002912270074e+00
    1.0811106068574269e+01 -9.9572386883505704e-01
    9.4335722367875121e+00 -1.0573468141314271e+00
    8.7488912415738174e+00 -1.4490747120191378e+00
    7.4216172558837856e+00 -1.6271031559240579e+00
    1.7959904137336672e+01 -1.1587394950700713e+00
    8.0592714394530951e+00 -8.4865218752348937e-01
    6.2516327384904899e+00 -9.1762011304585966e-01
    7.3259175983750238e+00 -8.3337287412339045e-01
    7.4563507068917190e+00 -9.4671645505212421e-01
    1.9469750282043368e+01 -6.9318552335589156e-01
    1.5746906391209802e+01 -6.4470606254621521e-01
    7.2849359569545680e+00 -8.8829563100777509e-01
    6.2896556796628040e+00 -9.0850143836602626e-01
    1.6083917352072081e+01 -1.1637656522922912e+00
    8.3347286501694740e+00 -8.6857087112057818e-01
    6.3306764137031788e+00 -9.3844071512653626e-01
    8.4915230903099630e+00 -9.0058937915733583e-01
    8.1986734459117390e+00 -7.0636207803413265e-01
    1.9118465292435364e+01 -6.1974821362132160e-01
    1.6243620646333003e+01 -6.4432549360951530e-01
    6.7289642397109279e+00 -8.5825027543039523e-01
    6.2172811547280098e+00 -8.7819207377524511e-01
    9.4015831072148615e+00 -1.3799317405333156e+00
    8.5304610273244901e+00 -1.0003793150522216e+00
    6.4266402890396082e+00 -9.9725358875832859e-01
    7.6613754934270890e+00 -7.8290556195528127e-01
    8.6380125210299052e+00 -9.4513162666363704e-01
    1.7911940557888300e+01 -9.0266227004587285e-01
    1.1740547607776687e+01 -8.5230191725597193e-01
    8.4364857090573686e+00 -1.1521923377881327e+00
    6.7935235108185195e+00 -1.3881191790730547e+00
    9.6287880720107299e+00 -1.3757365113024229e+00
    8.5869672767274725e+00 -1.0659918719903754e+00
    7.5238275072492744e+00 -1.0607107626181556e+00
    1.0743205108045311e+01 -1.0325364392267267e+00
    8.6670757594196282e+00 -9.0916423045902639e-01
    1.9586902093380036e+01 -8.4922959610224025e-01
    1.2101556394427178e+01 -7.5106482709198841e-01
    6.8025345933208765e+00 -9.9031428149901601e-01
    6.3935773837438408e+00 -1.2845412219656176e+00
    1.6907098716491248e+01 -1.2176848981880979e+00
    8.0309843844649720e+00 -8.5396424727195763e-01
    6.8176191524568637e+00 -9.0949929709328159e-01
    1.0499117738088970e+01 -9.2146809147342590e-01
    7.9524223314990143e+00 -6.8639758336008516e-01
    2.1296959474214898e+01 -6.5699658259055416e-01
    1.7810374709132848e+01 -7.3659494127917691e-01
    7.5317534741297507e+00 -8.8225697927275215e-01
    7.3644585270590976e+00 -9.1266470831392243e-01
    1.2425562938096357e+01 -1.2408629390826389e+00
    8.1129483193873089e+00 -1.1891251199774675e+00
    6.4333112124961982e+00 -1.1108529442465267e+00
    8.4767570047368572e+00 -9.7675505107381433e-01
    8.0607249380776267e+00 -7.1744051528567931e-01
    1.9352935006598347e+01 -7.8658901546766868e-01
    1.3455391637487795e+01 -9.1003458927279313e-01
    8.0595493332296542e+00 -9.5877114739479985e-01
    7.7009494620696444e+00 -1.0086688799469661e+00
    9.8604897441882038e+00 -1.2297627818176353e+00
    8.2094952581416543e+00 -1.1350954935703730e+00
    6.7020065403644526e+00 -1.0834258801725547e+00
    9.5625590187841674e+00 -1.0410700129998691e+00
    8.6448019373781584e+00 -9.2123006408543551e-01
    2.1210193521392160e+01 -1.0309170438795192e+00
    1.2159571480094524e+01 -8.9590950770082889e-01
    7.5587405605208220e+00 -1.0386310615095353e+00
    7.3493720319532461e+00 -1.2882975587573147e+00
    8.4193410489259009e+00 -1.1692856406306280e+00
    8.1451372176126480e+00 -1.5419160814812398e+00
    7.0306456050637376e+00 -1.4048036574361520e+00
    7.7784328708441990e+00 -1.0339808750714741e+00
    8.3776723655717245e+00 -1.0363951036827610e+00
    1.3440169604838252e+01 -1.0251742372935722e+00
    9.2381754811115400e+00 -9.1152650887759867e-01
    7.8580243347745151e+00 -1.0195614232961945e+00
    7.8273128987293950e+00 -1.2274128602664667e+00
    1.2223857663599933e+01 -1.2001834299111769e+00
    9.5032877025296933e+00 -1.3786528740994457e+00
    8.2147616806826171e+00 -1.4358635729860398e+00
    1.0267265204702898e+01 -1.0868538750017886e+00
    1.0020347034129948e+01 -8.2413044523057233e-01
    2.0578294542060252e+01 -9.7351122611965879e-01
    1.0466795489815803e+01 -1.0141144758481850e+00
    8.8322141239530332e+00 -1.1504238190326139e+00
    9.5715701467541141e+00 -1.1365895425650248e+00
    1.1613034682665305e+01 -1.1869038224368540e+00
    1.3123050278017647e+01 -2.0096307190156169e+00
    8.7578094095475887e+00 -1.6467990165709605e+00
    8.6519864903526500e+00 -1.2245894587917259e+00
    1.0643224595800701e+01 -1.0584563975731516e+00
    1.7780561350281264e+01 -1.1272304473696635e+00
    8.9376280939034842e+00 -9.7859952559048902e-01
    8.0712491795943588e+00 -1.1478522709738574e+00
    9.4546527428000378e+00 -1.1090722309340009e+00
    9.6175827319231360e+00 -1.2600739652294770e+00
    9.8014075142878134e+00 -1.7206051777094364e+00
    9.4564529416299354e+00 -2.0860879591659147e+00
    9.5518578522324873e+00 -1.3153399002738928e+00
    1.0573095414355667e+01 -1.1771347818713491e+00
    1.2912797343694400e+01 -9.3359517194692421e-01
    1.0369743597250224e+01 -9.3994063359997182e-01
    1.0461756515090185e+01 -1.1058402472716833e+00
    1.0028531784046232e+01 -1.1594186634669761e+00
    9.4708800431528761e+00 -1.5460502054958474e+00
    1.1621290406999776e+01 -2.6249421555604822e+00
    1.3199587848493838e+01 -3.5173226724898847e+00
    9.0082599078559085e+00 -1.6481109876401401e+00
    1.2726543243574511e+01 -1.5367607724542702e+00
    1.9556789390525385e+01 -1.2586925658111032e+00
    1.6595820371573826e+01 -1.1974158427315289e+00
    1.3071930475773788e+01 -1.2291666986760932e+00
    9.4957928552357060e+00 -1.1417491845152485e+00
    1.1701403747552551e+01 -1.2416318641360939e+00
    1.1425526500213033e+01 -1.6143840811532855e+00
    8.5715279471885317e+00 -1.4906548066023528e+00
    7.9700661988143908e+00 -1.2462606448771447e+00
    1.0417137938760701e+01 -1.2043392682612912e+00
    1.5787017314613857e+01 -1.1708284271636931e+00
    1.1110360970930131e+01 -9.9387051578008390e-01
    9.4517918723796157e+00 -1.1202890509587700e+00
    1.0510236298326049e+01 -1.1309573163906541e+00
    1.0851987665651272e+01 -1.1262970609533878e+00
    1.0771633596082703e+01 -1.2028653289010625e+00
    8.6122541927098144e+00 -1.1093097129179172e+00
    9.0734120237251989e+00 -1.1069017201224360e+00
    1.1052737081303990e+01 -1.2286906867436058e+00
    1.3416277418598595e+01 -1.2033174962390905e+00
    1.1673516841566736e+01 -1.1173414179557035e+00
    1.1242925387589155e+01 -1.0951469722810521e+00
    1.0905272994977910e+01 -1.1508150665750003e+00
    1.0259569747202855e+01 -2.0362466624898907e+00
    1.1935127073494264e+01 -2.7855200788672430e+00
    1.2678719360872977e+01 -3.3554177349469687e+00
    9.0453348991393341e+00 -1.7037042332060679e+00
    1.2210016476190436e+01 -1.5233192319759108e+00
    1.7768302756027047e+01 -1.1766525742141303e+00
    1.3803514516641437e+01 -9.6363602123009939e-01
    1.1704602062280300e+01 -1.0402566188695412e+00
    1.0243172569093874e+01 -1.4428101657549113e+00
    1.0245192160778815e+01 -1.7933319287663976e+00
    1.0592231932247326e+01 -2.0116991457934836e+00
    1.0519903780544858e+01 -2.0112054149605698e+00
    1.0055920052978577e+01 -1.3007242857205232e+00
    1.1594465705979898e+01 -1.4406760822430476e+00
    1.2989764121690165e+01 -1.2457858961128814e+00
    9.7594102156014326e+00 -1.0412194579557001e+00
    9.4736667826416383e+00 -1.0751359177862074e+00
    1.1113419755329325e+01 -1.5499250725999474e+00
    1.1207337617924020e+01 -1.0118909054683063e+00
    9.6564017965611892e+00 -1.0274409349830624e+00
    7.7668238779275214e+00 -8.5698127604576757e-01
    7.9722252304002268e+00 -9.3417456233916574e-01
    1.0048145985368590e+01 -1.6736544021100748e+00
    9.5966681884733411e+00 -1.9586994193522311e+00
    1.0793924040944447e+01 -1.8483783229138273e+00
    1.3380861165735277e+01 -1.2312587118321299e+00
    1.2031322395515607e+01 -1.0684897868453955e+00
    1.6278762250558053e+01 -8.1507418247662122e-01
    1.9451102787525304e+01 -8.0628353157941168e-01
    1.3639834752578427e+01 -7.6026297542121901e-01
    1.3310780929962290e+01 -1.0655389726390423e+00
    1.1893512766794123e+01 -2.7234043730240125e+00
    8.3778611104479310e+00 -2.2385440699756662e+00
    7.3855647888982068e+00 -1.5917837313026011e+00
    1.8469096553660215e+01 -1.1637495554780575e+00
    1.8069248164712938e+01 -9.4071966976989352e-01
    1.1091949636286541e+01 -1.2139099786306495e+00
    1.0786425516277161e+01 -1.1687600751849496e+00
    8.6408249385540881e+00 -9.9334650438018268e-01
    9.3800379336649549e+00 -1.1857382196557174e+00
    9.8281255934214915e+00 -2.2348047604580024e+00
    9.5594160133228545e+00 -1.7932478700214645e+00
    1.5354922335238539e+01 -1.7297572182169363e+00
    1.5079504620376293e+01 -1.3901662513832176e+00
    1.4472050410733603e+01 -1.3513370737893282e+00
    1.9640284003274424e+01 -8.7480090376351416e-01
    2.2764999625359486e+01 -8.1555190347033524e-01
    1.9642002157334367e+01 -8.9870194990280139e-01
    1.3724052296591079e+01 -1.3446523311814418e+00
    1.1955991112750686e+01 -3.6646116179800039e+00
    8.0496594657366725e+00 -2.1044211947190146e+00
    1.1549615744598826e+01 -1.4999112101705725e+00
    2.7016696550170675e+01 -1.1692619237476549e+00
    2.2434432173194050e+01 -9.9166440404193046e-01
    2.9954000613614440e+01 -6.6969684625639958e-01
    1.8279444865420203e+01 -6.5778729789957524e-01
    9.9092785384067756e+00 -8.5779458783567120e-01
    8.7801175238888636e+00 -2.3725226488029478e+00
    8.4959875671646490e+00 -2.8212608345699333e+00
    1.3491303914744105e+01 -1.7309065117974689e+00
    1.9361633259642502e+01 -7.2138958060194336e-01
    2.7105534898957892e+01 -6.0489475737431520e-01
    2.3798994120291788e+01 -5.7169940171838807e-01
    1.6676514289779234e+01 -8.2072747599057183e-01
    1.5293596445503297e+01 -9.6131385517949863e-01
    8.2727142040295245e+00 -1.0724005592730486e+00
    9.5262455455419293e+00 -1.7829301272053952e+00
    7.8726653603861978e+00 -2.0340253466255049e+00
    1.3268647320752315e+01 -1.4279140222425455e+00
    1.5870555025520053e+01 -9.0238609555079996e-01
    1.4066369201642781e+01 -7.4686948749562365e-01
    1.2872995370645762e+01 -7.5291659394322696e-01
    1.9376191613301348e+01 -5.5755118011729410e-01
    2.0524071146992167e+01 -5.6086179983867168e-01
    1.9842677318973124e+01 -7.3487049257313886e-01
    1.3535057221660374e+01 -1.7187714984201106e+00
    8.3996128784259820e+00 -2.7797671967977187e+00
    9.3307099871079391e+00 -2.7166893846716804e+00
    9.1299135027447562e+00 -9.6909616492458139e-01
    1.6895469256850021e+01 -7.0091741617914716e-01
    2.4771038303690862e+01 -6.5869431993867500e-01
    1.1539402523941053e+01 -8.5230146897937620e-01
    1.2129643648898810e+01 -7.6332987351838000e-01
    1.5406819988739555e+01 -1.1009907265819401e+00
    1.1911242449061994e+01 -1.4172096168586288e+00
    8.1663672179346936e+00 -2.1632949239976655e+00
    1.0021725937430626e+01 -2.0386430873519616e+00
    9.0001069471146025e+00 -9.9755589841381331e-01
    1.4748204533276803e+01 -9.3513204034146358e-01
    1.4310147070956802e+01 -9.3832104343392753e-01
    1.1757977496296796e+01 -1.0831974022198581e+00
    1.5240416762461393e+01 -1.2486611413900308e+00
    8.9281622528511786e+00 -1.1983903117868735e+00
    9.8276029897258272e+00 -1.4404417773074865e+00
    8.1901671693688858e+00 -1.4398942945701263e+00
    1.1693418901990933e+01 -1.1485496617434627e+00
    1.7225609328401305e+01 -1.2230019053970300e+00
    1.1675369034705872e+01 -9.6141912222936021e-01
    9.4178369264172161e+00 -1.0388810789897085e+00
    9.1378899106726248e+00 -1.6145135181424630e+00
    8.4337117751128527e+00 -1.2822660996633277e+00
    8.0132482689238493e+00 -1.3411939684875123e+00
    8.8664870800798106e+00 -1.0999695774993419e+00
    8.3725612012105586e+00 -1.1665506862766404e+00
    1.4236111701696501e+01 -1.1041482229977926e+00
    1.2775045202884968e+01 -1.2814637089660128e+00
    9.3668293951176089e+00 -1.2237921508365617e+00
    8.0632008379259972e+00 -1.4017955917871268e+00
    7.9008134004832380e+00 -1.0664679238518537e+00
    9.8354760096783131e+00 -9.6755100906461866e-01
    1.4495083671273346e+01 -1.3629943729884495e+00
    1.0953996482767572e+01 -1.3524038100706435e+00
    7.7245509833562398e+00 -1.6971730026792462e+00
    8.6821994064256955e+00 -1.2496582114730757e+00
    9.3473225882313056e+00 -9.4049091616924951e-01
    1.5678625469883968e+01 -1.0489243892344420e+00
    9.1468893158331497e+00 -9.9010579758200168e-01
    7.8119049177561237e+00 -1.3295358843387750e+00
    9.1060165242042999e+00 -1.4684433691056207e+00
    1.0309666629151627e+01 -1.4072453112356282e+00
    8.8120295754356359e+00 -1.0704220357575791e+00
    7.8483090576275405e+00 -1.2035490729293175e+00
    9.1493414980644108e+00 -9.7211011197821295e-01
    9.6901595951372563e+00 -9.3047087288990127e-01
    1.3659049867397787e+01 -1.1269010253392242e+00
    8.3078881627484478e+00 -1.1479955805970026e+00
    9.2344972000194474e+00 -1.6435148973869196e+00
    9.8064470945074600e+00 -1.3043459408161426e+00
    8.4151653343438326e+00 -1.1364377151478207e+00
    9.4762684987351911e+00 -8.8196211322391505e-01
    1.2351371935729045e+01 -1.1907145370078183e+00
    1.5660288410854568e+01 -9.2547873777569967e-01
    1.4941384702923948e+01 -1.1195329854455456e+00
    9.7636150458100168e+00 -1.1536652697516347e+00
    7.3596369687685561e+00 -1.3811746826621178e+00
    9.3265090143655680e+00 -1.5662505067799291e+00
    1.0178651776116467e+01 -1.3400569112524552e+00
    1.0209191666985745e+01 -1.2478804258021152e+00
    1.1152803409156412e+01 -1.1464034599689239e+00
    1.0514914150521300e+01 -1.3074956718777193e+00
    1.6121375303082601e+01 -1.1668469616913590e+00
    1.3093705559711017e+01 -9.9369628044221692e-01
    7.4636865071742626e+00 -9.8118466265298154e-01
    6.8788619661485342e+00 -1.3006299633182947e+00
    7.3533388624373996e+00 -1.4146955811358863e+00
    9.0685876744992626e+00 -1.4984360378125445e+00
    9.8874845043186337e+00 -1.2431732639882211e+00
    1.4905937041214845e+01 -1.1928911901887616e+00
    9.0627519933119789e+00 -1.1717184445421474e+00
    8.7532689537802568e+00 -8.1759178702001789e-01
    9.0838745794827105e+00 -8.4057727601148258e-01
    1.3635878994012154e+01 -1.1337899484657732e+00
    8.3755741518211408e+00 -1.1656274419085786e+00
    7.0002695026435253e+00 -1.3687672818912324e+00
    7.7726497761131794e+00 -1.4667720323437157e+00
    9.4101074787756644e+00 -1.3238682016703491e+00
    1.2671757777690381e+01 -1.2545984006231787e+00
    1.0411886955843690e+01 -1.4130813580526926e+00
    1.0644787247802729e+01 -1.0162524194540941e+00
    1.0815458795311745e+01 -9.1419237104152007e-01
    1.5260705546967523e+01 -1.1847222005391782e+00
    8.1714504542482427e+00 -1.1770641396202728e+00
    8.5785017566015398e+00 -1.0202446737386686e+00
    8.4887525984921641e+00 -1.0883655568938424e+00
    8.4502650635177528e+00 -1.1287284375635758e+00
    1.1499753359346848e+01 -1.1090094574019891e+00
    1.1963835531562770e+01 -1.2994357243565626e+00
    1.8857430734460479e+01 -1.2693416940397193e+00
    1.4913029464115400e+01 -1.0611903451643356e+00
    9.4742050651295227e+00 -1.0241096605864337e+00
    7.8114630554429807e+00 -1.1755407691532163e+00
    8.3568522947491868e+00 -1.0732233152499506e+00
    8.4570171948954727e+00 -1.3353739159256228e+00
    8.1004472640485190e+00 -1.3703474730013492e+00
    9.9709425575263868e+00 -1.1667118373951144e+00
    9.3308355746099974e+00 -1.2275339496130502e+00
    9.5352419648447455e+00 -1.0903172129872234e+00
    9.4106208848280524e+00 -1.0213315745350784e+00
    9.0528325129892924e+00 -1.0315890305342501e+00
    7.8859585904731500e+00 -1.1046477080318662e+00
    8.0972948194204566e+00 -1.3259884820447645e+00
    8.2566517138904221e+00 -1.4439368873581375e+00
    8.5747520868246614e+00 -1.2570452977368858e+00
    1.5124593403308550e+01 -1.3597595820793473e+00
    1.1727764891346615e+01 -1.3882983791529653e+00
    1.0450010230732232e+01 -9.2319062218279124e-01
    1.0193034935380064e+01 -8.3067578581865520e-01
    1.4202718102399624e+01 -9.3526844111675367e-01
    8.2599185940645583e+00 -9.2214400913583072e-01
    8.5952932530554378e+00 -1.3228362800123523e+00
    8.4552002266768156e+00 -1.5122348144450173e+00
    8.4484388651883489e+00 -1.4865450675492005e+00
    9.8402615300073695e+00 -1.1861737751365966e+00
    9.0456741003266288e+00 -1.2846470973380999e+00
    8.9744130493005692e+00 -1.1049298607039386e+00
    8.8304679220379150e+00 -1.0451807938448763e+00
    1.0463125964762087e+01 -1.0508582500105741e+00
    7.6113115034237611e+00 -9.7429897791877662e-01
    8.2763263094009858e+00 -1.0163756284990735e+00
    7.9487086288500270e+00 -1.1818313775414231e+00
    8.3439986831005140e+00 -1.3589521229239996e+00
    1.0386435512284327e+01 -1.1378803700967006e+00
    9.3043545724683394e+00 -1.0713489954745481e+00
    1.0430210600780383e+01 -9.6921407884606947e-01
    1.2256979588766375e+01 -9.3888514904998388e-01
    1.2666808501657748e+01 -9.3235629544165100e-01
    8.1835891827593716e+00 -8.9334326045768730e-01
    8.3310917396333135e+00 -1.1969846748936543e+00
    8.4844351608285571e+00 -1.5119601532488876e+00
    8.7393805204694086e+00 -1.7165118275840434e+00
    9.1954604860412399e+00 -1.2437382439120224e+00
    8.9389157804331756e+00 -1.1175859247619095e+00
    1.1758298033086067e+01 -9.8612575303543903e-01
    1.5357279562135664e+01 -9.3245913850914008e-01
    1.2209914604196102e+01 -8.4524764108310546e-01
    7.9372326126734798e+00 -9.3824213944770063e-01
    8.4426459765078814e+00 -1.0028158222280601e+00
    8.2308101577089783e+00 -1.1182583335420282e+00
    8.2755877468086521e+00 -1.1700225849387524e+00
    1.1117642142173251e+01 -1.1499453849671111e+00
    9.3241733977475167e+00 -1.1797454569637502e+00
    8.7555800650887612e+00 -1.0890104296417569e+00
    9.1198876805869915e+00 -1.0268803567225708e+00
    1.0120080061094914e+01 -9.1685378515933569e-01
    7.3964115437658506e+00 -9.0585738409307770e-01
    8.2129667033664919e+00 -1.0146885843330207e+00
    7.8288568700445111e+00 -1.0561961022700050e+00
    8.1560957505909677e+00 -1.0565408903263702e+00
    1.3597287039772864e+01 -1.3151328661229564e+00
    9.4121036081549416e+00 -1.3161468759599424e+00
    8.2665631793074201e+00 -1.2255423199682616e+00
    8.8787096865537904e+00 -1.2989596740225082e+00
    1.0054816703139377e+01 -1.2203501031256412e+00
    7.6792951313081748e+00 -1.0389219306654991e+00
    1.0054148359856059e+01 -1.6926955707967983e+00
    1.0370134295919964e+01 -2.1481542862981708e+00
    9.9738325352048456e+00 -2.1896863791666665e+00
    8.8301817373433629e+00 -1.3365497184174813e+00
    9.0894434441593042e+00 -1.1632095891450054e+00
    1.2171330335973042e+01 -1.0487449178478878e+00
    1.6576814276025761e+01 -1.2228774722564570e+00
    1.3242746693561962e+01 -1.1107845072845275e+00
    9.7597096767220872e+00 -1.2705887704433432e+00
    1.0657832120832369e+01 -1.4930065610089913e+00
    1.0731131682513224e+01 -1.7410777042882268e+00
    1.1444032909063045e+01 -1.7518373212825773e+00
    1.2302007668769194e+01 -1.3773785610541289e+00
    1.0877155562315307e+01 -1.4516113086308267e+00
    1.7164330233908252e+01 -1.4736709621628878e+00
    1.1572777476600166e+01 -1.1241703619610379e+00
    9.9777789405666582e+00 -1.1167681792055550e+00
    1.1981361494033296e+01 -1.3640455836176140e+00
    1.0236590813345591e+01 -1.3217672233367941e+00
    8.7504134542717544e+00 -1.1478095918903681e+00
    8.8951335441161969e+00 -1.1152525035858638e+00
    1.3209638064687892e+01 -1.2406883165002893e+00
    9.3010245243885556e+00 -1.3458432467350945e+00
    8.1252239153578802e+00 -1.3380559200406485e+00
    8.7384077182879292e+00 -1.5381810966471523e+00
    9.9413234357656588e+00 -1.5818026266734786e+00
    9.0090458750313065e+00 -1.4378226470087641e+00
    1.1469422823572568e+01 -1.4517844218523130e+00
    9.0574715432279724e+00 -1.1602061312432388e+00
    1.0184329992088037e+01 -1.2187077754414370e+00
    1.3482147003025528e+01 -1.3573428680200443e+00
    1.0767646337639160e+01 -1.4623144776410673e+00
    1.1447491141185649e+01 -1.2762872947285595e+00
    1.2107958589309423e+01 -1.4974365187330396e+00
    1.1867619792621312e+01 -1.6338629031178784e+00
    9.6087120885231734e+00 -1.3980176115336722e+00
    1.4275010077618687e+01 -1.1137601536389590e+00
    1.3554577870448789e+01 -1.1791014046848034e+00
    1.2086515541561745e+01 -1.1120949320171643e+00
    1.1161690506498010e+01 -1.5515183410423676e+00
    9.4278480756887006e+00 -2.5378736552740104e+00
    1.1637531222694093e+01 -1.7880588288209582e+00
    1.5467911137242638e+01 -1.4181464083950892e+00
    1.2584290910590152e+01 -1.1237028370112356e+00
    1.7337271025242096e+01 -1.1965319157773482e+00
    2.2192752934809015e+01 -7.4008681718641711e-01
    2.9729307822133546e+01 -8.8206590158428000e-01
    2.0441034939859438e+01 -9.7761632583421987e-01
    1.2661905297609335e+01 -1.9747609302488465e+00
    1.4272870081660164e+01 -4.7872250345300875e+00
    8.4719744618341117e+00 -2.1052714018103766e+00
    2.0136263429006025e+01 -1.2639029642316004e+00
    2.6238867675615452e+01 -9.3004038265672317e-01
    2.2664279251577494e+01 -7.5678758078155850e-01
    1.4553404258399878e+01 -1.3433569292950280e+00
    1.0349143676832522e+01 -1.1979096117246040e+00
    1.3764475534271917e+01 -1.6832069203622293e+00
    1.0078364051959383e+01 -1.9361225803428042e+00
    9.7619524577367791e+00 -2.6373824309072247e+00
    1.0899007437204782e+01 -1.4037017621151378e+00
    1.1808384415090945e+01 -1.1255354250117218e+00
    1.2100313040218404e+01 -1.1686873061446830e+00
    1.1631928613966759e+01 -1.1307609722874317e+00
    1.9031514910915853e+01 -8.5693332362731933e-01
    2.0008605134548198e+01 -1.0161179571245584e+00
    1.4937531929698066e+01 -1.4154684963131441e+00
    8.5855045040840317e+00 -2.3911450921149453e+00
    1.5380982592909159e+01 -5.2015370789541038e+00
    1.3029760684232269e+01 -1.8064243551853165e+00
    1.7529378965758180e+01 -9.6947799389772549e-01
    2.0211718779823443e+01 -8.1582967951489815e-01
    1.7528636597707944e+01 -7.9416370332187824e-01
    1.7220029773332076e+01 -5.6860220014265939e-01
    2.0459763192646022e+01 -4.8849218158062918e-01
    3.0539468501901933e+01 -6.5209160279855116e-01
    1.7247466146927287e+01 -1.0327353956805494e+00
    8.0073642007942816e+00 -2.1634533963357248e+00
    1.0437386627712625e+01 -2.9326117477015416e+00
    7.6321669233269054e+00 -1.3265817144629568e+00
    1.5469464364470861e+01 -8.1010743221034875e-01
    2.2931498842603247e+01 -7.1196776073103085e-01
    1.0613248053339717e+01 -8.7937567822557827e-01
    1.1279547508408788e+01 -6.9312788202955300e-01
    1.9044605930115679e+01 -7.8433273937240233e-01
    1.6255127959039477e+01 -9.9323940307691960e-01
    8.5243365424338577e+00 -1.6430525375612457e+00
    8.7055484731374388e+00 -1.9020115087545326e+00
    7.2911931671757184e+00 -1.0777408985577515e+00
    1.1610419377442774e+01 -8.9728231536285474e-01
    1.7096065537722009e+01 -1.0396744300281830e+00
    1.3585093834550419e+01 -6.2606411806149598e-01
    2.2783791658485935e+01 -6.0108243532458006e-01
    2.9769756213677375e+01 -7.8593658000901845e-01
    1.4167106023701969e+01 -8.8982691305709760e-01
    8.4248476224138624e+00 -1.7410841154047652e+00
    9.1133793328346098e+00 -2.4511597719721374e+00
    7.9649663096628514e+00 -2.0383986169863348e+00
    1.5831377982061504e+01 -1.1304269498775084e+00
    1.8255537834956797e+01 -8.2401421408825082e-01
    8.0131859099083567e+00 -8.1909788773214598e-01
    9.8103928761449772e+00 -7.8703586898753586e-01
    1.7189447656222313e+01 -8.0896688547068962e-01
    1.6163302747534864e+01 -9.7942196185273978e-01
    9.9895961016973942e+00 -1.4974405069560011e+00
    9.8225938461550246e+00 -2.4597152050873925e+00
    9.4075838327592827e+00 -2.3849044053407487e+00
    1.0213082541662898e+01 -1.2250685310083842e+00
    1.0622540083839347e+01 -8.8766600918925809e-01
    7.9750778561092277e+00 -1.0860584697099118e+00
    9.3909716837029897e+00 -8.1135854067871194e-01
    1.4399998233688521e+01 -7.1725291444051065e-01
    2.0855016096557982e+01 -1.1537099848667707e+00
    8.3804440048566580e+00 -1.2663329703067676e+00
    9.8616533636722927e+00 -1.2583541566593666e+00
    7.5562117368758344e+00 -8.6421837465554352e-01
    1.8707961891710926e+01 -1.0116071275017138e+00
    1.1967427259489384e+01 -9.4881885127983090e-01
    6.6785761360275400e+00 -1.2795255814932442e+00
    9.2826498142392477e+00 -1.5055034762346577e+00
    9.6333979645627750e+00 -1.0803227228793784e+00
    1.0343278337486256e+01 -9.2600083431021529e-01
    7.3094674547443201e+00 -1.0527890213085171e+00
    7.6729498569006722e+00 -1.1126468525555147e+00
    7.3838644913016003e+00 -9.4246121873367572e-01
    1.2374443059674821e+01 -9.3019369693727361e-01
    9.4535788376803485e+00 -9.8603835592502143e-01
    6.1296675881843941e+00 -8.3571568690414300e-01
    7.7591909694159709e+00 -8.7179634450630450e-01
    1.5043734292128661e+01 -7.2035138159427425e-01
    2.8302767253323715e+01 -1.1799394743395544e+00
    1.1381029333903038e+01 -1.2264619236695284e+00
    9.8799043436627567e+00 -1.4258374584035205e+00
    7.9016612296260353e+00 -1.3295825791137577e+00
    1.3015145066183347e+01 -1.1178828387309092e+00
    1.0866647156540228e+01 -8.8351238689563905e-01
    6.4092048590474544e+00 -1.2332830503694876e+00
    6.6251249279174242e+00 -1.2957622027042361e+00
    7.7562581540320057e+00 -8.9223885484963550e-01
    1.1336520154185601e+01 -8.2036376658940691e-01
    7.1258720839891661e+00 -9.7185098457988395e-01
    7.4942690753236754e+00 -1.2265752168080650e+00
    7.4499797722829575e+00 -1.1797564808633001e+00
    1.2345779541312547e+01 -1.1763771455145089e+00
    1.1578863152322700e+01 -1.2634610400810540e+00
    6.4030903717840655e+00 -1.2192962375100298e+00
    7.6893087006911873e+00 -1.3069096588867171e+00
    7.6748376678597330e+00 -9.0979369281227340e-01
    1.8518233379130347e+01 -8.8276770102435476e-01
    8.4412496124812204e+00 -9.9872372649253627e-01
    7.6117796519638281e+00 -8.0548257545386204e-01
    7.0715706520539445e+00 -7.6301646978179760e-01
    1.4562843852389284e+01 -8.6789653613461082e-01
    9.0920132068678257e+00 -8.9909389446557086e-01
    6.4256561828958390e+00 -1.2043613962035464e+00
    7.1505346939795222e+00 -1.3361149872440050e+00
    7.4967267535819442e+00 -9.0466536226464034e-01
    1.5673961520440614e+01 -8.7111156989990912e-01
    8.1505525720763856e+00 -7.6996078666584633e-01
    1.0993259397157917e+01 -7.7375338433820029e-01
    9.7202506458104896e+00 -6.7009844970522547e-01
    1.7852672841388959e+01 -8.1249270227109738e-01
    9.8332496050548013e+00 -9.2388312462589839e-01
    6.4411494781266789e+00 -1.1707911068326604e+00
    6.7496674953937958e+00 -1.2458200263676764e+00
    7.6572988339614048e+00 -8.2085037265612948e-01
    1.2184859151642462e+01 -6.7223349764008167e-01
    8.0964832361728583e+00 -8.1042051885389632e-01
    7.1639199300911685e+00 -8.1591130749673646e-01
    6.8955337230129894e+00 -7.7944995678784201e-01
    1.3079529927458079e+01 -7.9001959049561143e-01
    1.5074263095878537e+01 -1.1351832415628198e+00
    6.3618275490430340e+00 -1.0724765083616379e+00
    6.5981860623051150e+00 -1.2494364115747629e+00
    7.8121639910721274e+00 -8.3168715677735416e-01
    1.0391028347922632e+01 -7.4099079066278850e-01
    7.9761622725547996e+00 -7.4167279591856838e-01
    8.3548996247086400e+00 -7.3241431077061425e-01
    6.9922054665515221e+00 -6.0678288632152078e-01
    1.6857764530957873e+01 -6.5755945592141429e-01
    1.4374013376248463e+01 -9.5686894970203185e-01
    8.0350209513716386e+00 -1.3354789768200581e+00
    7.1138293810924864e+00 -1.4027924494624433e+00
    7.8650643775427636e+00 -1.0081102803195690e+00
    1.6175023581089594e+01 -9.6953457947188393e-01
    7.7670599633429536e+00 -7.5254185174594257e-01
    9.4355999838399409e+00 -7.1717541680160390e-01
    7.7908768147755536e+00 -6.5047444797145015e-01
    1.6735320216191369e+01 -8.4513851315871036e-01
    1.1404557813071548e+01 -9.5918591996804670e-01
    8.5392730365461151e+00 -1.3470726969201026e+00
    6.9421319716673535e+00 -1.3689212114176950e+00
    7.4925718632303138e+00 -1.1770866436760752e+00
    1.2081186430623909e+01 -1.0725927960704911e+00
    7.7255075989901396e+00 -8.8574814667540103e-01
    7.3878268760139889e+00 -8.1525505581530067e-01
    7.0014486548439576e+00 -8.2174368542742648e-01
    9.4305156154592034e+00 -9.3524842521872764e-01
    8.7951908836647288e+00 -9.6184358044553553e-01
    7.3388579092843091e+00 -1.0859952469767216e+00
    6.7571358089348648e+00 -1.2780386093838729e+00
    7.4279517223789266e+00 -8.6440064496023417e-01
    1.1017389304073383e+01 -7.9575282950233539e-01
    7.4806480346556876e+00 -7.2014237132443215e-01
    1.0732950888520529e+01 -7.1556426458768996e-01
    8.5534498952596287e+00 -5.8997334723704931e-01
    1.9694669147883477e+01 -7.1741864758852891e-01
    1.6622751936151765e+01 -9.9555518351187700e-01
    7.0153874251090622e+00 -1.0219275724516164e+00
    6.6471663671699819e+00 -1.2862877311141963e+00
    7.5840494615270533e+00 -1.0297859924651378e+00
    1.0736244828869221e+01 -8.2892916985273890e-01
    7.5042353755439146e+00 -7.2352986702835775e-01
    7.8533547504653560e+00 -8.1058908303314270e-01
    6.9341250708601008e+00 -7.2102604167266615e-01
    1.3234756099249195e+01 -8.3667951693475040e-01
    1.3295682066921476e+01 -9.8202792354602575e-01
    1.1354404189209395e+01 -1.3010279116469656e+00
    7.7788392964512649e+00 -1.2612630453632105e+00
    7.7292677396142748e+00 -1.1299009148185404e+00
    1.1522288215309093e+01 -1.0931275910918865e+00
    9.8357674853080237e+00 -1.0828923731786415e+00
    9.0425755142214861e+00 -1.1486517014133371e+00
    8.2244341437287041e+00 -1.1252961695656742e+00
    1.1276971054649199e+01 -1.0360870973047296e+00
    9.8417620103973800e+00 -9.9629192621758622e-01
    1.0882700759531366e+01 -1.2064320000592794e+00
    7.6759887126794757e+00 -1.0634721810778349e+00
    8.0946157152766371e+00 -9.9554815112386996e-01
    1.6861449655997422e+01 -1.2302189855959322e+00
    1.0994029007637399e+01 -1.3338535152395978e+00
    8.0840898220151924e+00 -1.4236433397003192e+00
    8.2133617596313258e+00 -1.5734496888127538e+00
    9.4108524515969716e+00 -1.3606360990983670e+00
    9.3675752013354678e+00 -1.2107823993697298e+00
    8.1728418263978728e+00 -1.0731688466084390e+00
    7.1228301646793906e+00 -1.2284028579071034e+00
    7.5988243848863473e+00 -1.0107177742226690e+00
    1.5137381895883676e+01 -9.8005904755808537e-01
    1.0117270589219077e+01 -8.0586875747353415e-01
    8.7088442099620060e+00 -9.6742747125672968e-01
    7.4088977361571233e+00 -9.8840815420228390e-01
    1.4283297726348827e+01 -1.0179894098840909e+00
    1.4761947299539401e+01 -1.0015937072891006e+00
    8.4847800737720434e+00 -1.1413568171097590e+00
    7.1185945582040837e+00 -1.2112385283466516e+00
    7.5276959901436351e+00 -1.0129258710671820e+00
    1.5920488803435134e+01 -1.0531672094435767e+00
    1.0492193658658739e+01 -9.4355883705740851e-01
    7.5647876829675091e+00 -1.0955651578763210e+00
    7.5571573185565963e+00 -1.2232765095593288e+00
    1.1583451033914336e+01 -1.2771886985459637e+00
    1.2150678958412803e+01 -1.0579238220001868e+00
    1.2049718349566882e+01 -1.3461160932321989e+00
    7.6155305978531986e+00 -9.5491971516474605e-01
    7.8913096646650418e+00 -8.7172367229530101e-01
    1.9870079331599978e+01 -1.1301325389051142e+00
    1.1443511545807382e+01 -1.2516254002942120e+00
    7.7326969428231607e+00 -1.3201591012596148e+00
    8.0999917465603826e+00 -1.5304490159172490e+00
    9.6087661139427780e+00 -1.4676540813270316e+00
    8.9929319602003304e+00 -1.3217177805689728e+00
    1.2621190074077086e+01 -1.5661732901761045e+00
    8.0079388106442444e+00 -1.0978354841542948e+00
    7.9077922431060763e+00 -1.0454276835169261e+00
    1.4065888728793956e+01 -1.1724620230707274e+00
    1.3131132632869759e+01 -1.2358975685712272e+00
    1.0596641091848946e+01 -1.1095269781071382e+00
    1.0266661353286592e+01 -1.1943923688284281e+00
    1.0492854766143431e+01 -1.2631268853288631e+00
    9.4805265901157068e+00 -1.2992364065367870e+00
    9.1473465182074296e+00 -1.1882186015391170e+00
    7.1505485162885778e+00 -1.2066132397093874e+00
    7.4093655095600877e+00 -1.0510339530817892e+00
    1.4564491993471700e+01 -1.0843409501250281e+00
    1.0426802234148653e+01 -1.0228470476978693e+00
    7.0484034486339429e+00 -1.0687114659892181e+00
    7.1026170850773944e+00 -1.1494910153887041e+00
    1.0357455069242913e+01 -1.1591087711346111e+00
    1.1094313427802877e+01 -1.0684675314381726e+00
    9.8696383916771371e+00 -1.2578063550829386e+00
    8.1174194517608687e+00 -1.3727937190529267e+00
    8.9493537713352129e+00 -1.3727133148731778e+00
    1.1540046235673538e+01 -1.3360887274262416e+00
    1.1935808720194077e+01 -1.2838518488904407e+00
    8.6403239827542588e+00 -1.1088515182457606e+00
    8.1129946312126116e+00 -1.0281772955648942e+00
    1.2815010494681598e+01 -1.1754970688972639e+00
    1.0522123093938966e+01 -1.0687293913624782e+00
    1.4802446425507846e+01 -1.3537510226783247e+00
    1.3938870508520470e+01 -1.4673765528088343e+00
    1.3797490003534367e+01 -1.7556046219182952e+00
    9.7250653742784365e+00 -1.7075637024138763e+00
    9.8320036222133673e+00 -1.8170694096929976e+00
    1.0062610915748300e+01 -1.0034935056643912e+00
    9.2661408182378722e+00 -8.3063998416695484e-01
    1.3556454990137780e+01 -1.0846222758091670e+00
    1.1112094476289631e+01 -1.0743380739585349e+00
    2.3527388110541075e+01 -9.7518618169358207e-01
    2.3067770643053070e+01 -1.1805029369778299e+00
    1.0750598588776635e+01 -1.5937042234471088e+00
    8.1143215434439693e+00 -2.1078265051839793e+00
    1.1867955073347723e+01 -3.4400805424027343e+00
    1.6787310203121208e+01 -1.2166301892731681e+00
    2.3002423412479754e+01 -8.8739800378300970e-01
    2.4144282982713534e+01 -7.6676338538848676e-01
    2.0149694064914428e+01 -8.4258863182534882e-01
    1.1397381986946215e+01 -1.1200309538727213e+00
    1.1040541523386558e+01 -1.4055125182997690e+00
    9.4369785188301236e+00 -2.0442597406618650e+00
    9.6807136408474825e+00 -2.2236140241781670e+00
    1.0329795880872600e+01 -1.6437673265906350e+00
    7.4365678057437883e+00 -8.8822819007906062e-01
    7.3032254242670076e+00 -7.9011773410252872e-01
    1.0166961528241478e+01 -9.3776392461273339e-01
    1.1097303217701411e+01 -9.8125040157777021e-01
    1.7261312229038200e+01 -9.3175773425567543e-01
    1.3678477329044398e+01 -1.1870089965447099e+00
    7.5306614445230684e+00 -1.7696392900358802e+00
    8.7511317646848958e+00 -2.3905055445160950e+00
    1.1664994421547464e+01 -2.5230541858306412e+00
    1.3264199080577265e+01 -1.0790539368220455e+00
    1.2726956282065780e+01 -7.5622475327292971e-01
    2.2473458247266421e+01 -8.5592714328673480e-01
    1.7522275323331371e+01 -8.4075714160779647e-01
    1.8302597269619589e+01 -6.2768035325663540e-01
    3.4447870497040689e+01 -6.9267839380497198e-01
    3.1290917797767300e+01 -7.4497599442793716e-01
    1.8138736543620169e+01 -7.7234283294089745e-01
    1.0844288334896344e+01 -1.2804646415248750e+00
    8.9566001475205059e+00 -2.2819877823618828e+00
    7.4942644482502851e+00 -2.0669024645679213e+00
    1.4051056834218270e+01 -1.1853736194794975e+00
    2.1557008446329885e+01 -8.1967701563803652e-01
    1.0145692154673501e+01 -7.7435327431685563e-01
    1.3899985697270649e+01 -7.9077298411520380e-01
    2.0972873030227600e+01 -8.4204405364253898e-01
    1.6460390240748637e+01 -8.0339515507734172e-01
    1.1454756184654295e+01 -1.1482071951354322e+00
    8.5938123333712984e+00 -2.0037204793775270e+00
    8.0012640878930661e+00 -2.4140911998386327e+00
    7.9817562083540992e+00 -1.2682468471659447e+00
    1.0830587350620190e+01 -8.7518038149409816e-01
    2.2774582828187430e+01 -6.5193767106395828e-01
    3.4510799769358108e+01 -6.4170391303040486e-01
    2.7384934571456149e+01 -6.7508715531132835e-01
    1.7199497074644622e+01 -6.9944072507313626e-01
    9.1007257035107134e+00 -9.5913894141482803e-01
    9.6554151537783230e+00 -1.9124440500672548e+00
    7.9044138203146366e+00 -2.1006324601030619e+00
    1.1188063653858823e+01 -1.3488324133100265e+00
    1.9653633418251594e+01 -7.5891525705247342e-01
    1.1523636038468135e+01 -7.0720846745863364e-01
    1.9044893059750432e+01 -6.9468836992084149e-01
    1.8235710478059886e+01 -7.0995292950795685e-01
    1.4078584834462744e+01 -7.1372164253539960e-01
    9.8096205862705101e+00 -9.4859533173989374e-01
    1.0652286463700655e+01 -2.1559741274195332e+00
    1.1920573472334720e+01 -3.9450521954807440e+00
    1.1179611658469874e+01 -2.7348522619318145e+00
    1.1281808808763424e+01 -9.0424150987047269e-01
    7.9516442037690327e+00 -7.7106893742110949e-01
    1.3283460611684555e+01 -8.8780169168918266e-01
    2.3513516888773459e+01 -8.5377724232681007e-01
    3.2068318613888472e+01 -9.9869306575774663e-01
    1.7824925234783230e+01 -1.0608863040403906e+00
    9.9928968807896812e+00 -1.2913224577113664e+00
    7.2119967522068329e+00 -1.6409188097102463e+00
    1.1148411188020862e+01 -1.2673528116682429e+00
    9.5646571318954088e+00 -7.8283012193862844e-01
    7.3381125319536009e+00 -1.1241544321765482e+00
    7.7153106521053711e+00 -1.0283278358573140e+00
    8.6573368601342047e+00 -7.3512754435514671e-01
    1.2496073246225555e+01 -7.3933654016467831e-01
    7.7753072645950825e+00 -8.2128746920758322e-01
    7.9783354746787793e+00 -9.5318107347806014e-01
    6.8050617271389235e+00 -1.1283684521222690e+00
    8.8279488534115043e+00 -1.1633962159422964e+00
    9.4864144716443004e+00 -1.0027312811314772e+00
    8.5573397483293547e+00 -6.9749158306113879e-01
    2.2157645675467375e+01 -7.8757354707172256e-01
    3.1372278179557672e+01 -8.6001666798223175e-01
    2.3965123690821805e+01 -7.8522023668656871e-01
    1.5390976151534616e+01 -9.6991338509521552e-01
    1.1659237314731557e+01 -1.4970077467544722e+00
    9.7701041124847716e+00 -2.7178731114684793e+00
    9.7512935172486159e+00 -2.2211172433909265e+00
    8.5932670716309651e+00 -8.6223613366855467e-01
    7.7604504859473833e+00 -1.0038417246235360e+00
    9.5305611487942006e+00 -9.2338570629515049e-01
    1.2679085751922758e+01 -8.0720678567191184e-01
    1.2531450843820716e+01 -7.6047170607925063e-01
    7.8675340431933867e+00 -8.3560437980495095e-01
    9.2902712873160809e+00 -1.1545835591628306e+00
    7.5003853936880462e+00 -1.9739900215933197e+00
    9.0438862535984281e+00 -2.0402581783473090e+00
    8.4457217992425715e+00 -1.1959472367160802e+00
    6.6552019876864525e+00 -1.1017115645887374e+00
    7.8716812990143508e+00 -1.0321765231215032e+00
    1.0154519718462799e+01 -7.6173547145458798e-01
    1.1745602447234237e+01 -6.6056581697779770e-01
    6.6849264397505115e+00 -7.0272565025959066e-01
    8.5342404189013141e+00 -7.4287035751096053e-01
    6.9909214670912982e+00 -7.4986981021042831e-01
    1.2480879750190738e+01 -8.7549768508207471e-01
    9.8723630537010667e+00 -8.5721157874553378e-01
    6.6758942280075155e+00 -1.0379548655634860e+00
    7.6167677817648567e+00 -1.0555570563628667e+00
    9.9916003040768846e+00 -8.3195862679336907e-01
    9.7111333133100786e+00 -8.1198745992303600e-01
    6.3558214670012907e+00 -8.4796720738514519e-01
    9.3108195385778121e+00 -7.5340419664305347e-01
    7.2231065545464039e+00 -6.0678511199603224e-01
    1.6567617011772718e+01 -6.3372936615817554e-01
    1.0163382592171551e+01 -7.9773047056307234e-01
    6.8807750580250575e+00 -1.0410416743833095e+00
    9.1994704588964407e+00 -9.8589602450899350e-01
    1.2762449900205427e+01 -9.1386608775236577e-01
    1.1062207141877044e+01 -7.5977112121581647e-01
    6.7531691447177487e+00 -7.6843299864824710e-01
    9.6965499687617651e+00 -8.8852929060610120e-01
    7.0415657113010361e+00 -1.1399618156061382e+00
    8.5999316072819507e+00 -1.2036239005873093e+00
    7.6826129942930326e+00 -1.0615500752971703e+00
    6.8785152719563989e+00 -1.0895691016070981e+00
    8.3242361092698669e+00 -1.0863128931029467e+00
    8.6898926874883813e+00 -9.8978148129147581e-01
    8.6212951217539011e+00 -9.4400951981052961e-01
    6.4742071827362935e+00 -9.3913442870019959e-01
    8.5112176723844772e+00 -8.6725988607273585e-01
    7.2497013871528511e+00 -8.3442629953767766e-01
    9.8671952404045005e+00 -1.0020840572932852e+00
    7.7194146352896222e+00 -1.0152276437230598e+00
    6.5141752722030386e+00 -9.8393896532364233e-01
    7.1724901135705457e+00 -1.0675143571412660e+00
    8.0022437143919483e+00 -8.5458815639381402e-01
    1.0267815338830488e+01 -8.7482141412108416e-01
    6.6974218662072778e+00 -8.7902720166064530e-01
    9.9863146808645986e+00 -7.7537568713860305e-01
    7.1882060216099823e+00 -5.9594287648930755e-01
    1.7594120957119816e+01 -6.6278081878931205e-01
    1.1018101042086235e+01 -8.2957488546315261e-01
    6.3926943588746887e+00 -9.7992111577478203e-01
    7.1528862694383140e+00 -1.0970783935056878e+00
    7.5716652876144730e+00 -8.9554981255153687e-01
    1.0768389380562205e+01 -7.4015451106296226e-01
    6.9078877951035746e+00 -6.7994212134117382e-01
    9.6441110424012013e+00 -7.1320092983697059e-01
    7.8552851728466564e+00 -6.1911583795292102e-01
    1.6318753439753834e+01 -6.7365917004501841e-01
    1.0440841689369385e+01 -8.4137850383878354e-01
    7.0219306775507544e+00 -1.2157770550713367e+00
    7.7299157697688505e+00 -1.1933255022468248e+00
    7.9669804669261115e+00 -1.0066593338557808e+00
    9.4484314578068247e+00 -9.4921208389683731e-01
    6.7783137248342422e+00 -9.4086424977785632e-01
    7.7714948018594416e+00 -7.8676118521521166e-01
    6.8738571098199541e+00 -6.5033744497983703e-01
    1.0630770012438765e+01 -7.3818087400523846e-01
    8.2579084486401353e+00 -1.0380106358017189e+00
    6.7836936073654241e+00 -1.1730196144370930e+00
    7.8826183874293196e+00 -1.3183225970564267e+00
    8.5989489007165272e+00 -1.1480793280521695e+00
    9.5267079510131651e+00 -7.2418435679096205e-01
    6.9626607982013615e+00 -6.8803372851937983e-01
    1.0093459702024319e+01 -7.1164736998694356e-01
    7.4832310894372602e+00 -6.1764248581080072e-01
    1.2991622387937884e+01 -6.8748563066393920e-01
    8.2354636407469144e+00 -1.0107167439325917e+00
    6.5967733544662064e+00 -1.0729962360037439e+00
    6.4069756876834942e+00 -1.0892901321002255e+00
    6.6918575026001363e+00 -8.5309260140831700e-01
    1.2073273926928515e+01 -8.0704013927773111e-01
    8.6801181472227977e+00 -7.1186001340952476e-01
    9.8047702541854136e+00 -8.5815677799980228e-01
    7.0495797362640085e+00 -7.9958468083177014e-01
    1.7168445075897353e+01 -8.4675386557538779e-01
    1.1982680273679305e+01 -9.1569087713099651e-01
    6.8339667536344715e+00 -1.1330371164031934e+00
    6.6116119279377319e+00 -1.2855172825540042e+00
    6.9709029587044240e+00 -9.9468090746563542e-01
    1.1218833259398675e+01 -8.5774905615456143e-01
    8.8431688188095414e+00 -7.7751570057533803e-01
    7.0005021737920261e+00 -8.8855005964984657e-01
    6.4768795930715690e+00 -8.7037013587773615e-01
    1.2686334535868816e+01 -8.9544422990487604e-01
    1.2837840994948888e+01 -1.0038955900567625e+00
    6.6576685719134243e+00 -1.1607805737606800e+00
    6.8794336697002070e+00 -1.1852508344387231e+00
    9.0820867255170405e+00 -1.0273327654357385e+00
    1.1324614053982831e+01 -7.5564305630571893e-01
    8.7754509998682426e+00 -7.2119553568762684e-01
    1.2105712946487188e+01 -7.5009964877780899e-01
    8.3715573042767524e+00 -6.5204044357734592e-01
    1.9155446176978035e+01 -8.3843694130626167e-01
    9.7882668798286314e+00 -1.0264340133360992e+00
    7.1351827447609901e+00 -1.4282881745901055e+00
    8.5953812326720804e+00 -1.5902552483259882e+00
    9.5647083300390587e+00 -1.1854699592694904e+00
    1.2048731433817084e+01 -8.6957207302420114e-01
    9.0560665755342207e+00 -7.9469330243747316e-01
    8.3010690451054501e+00 -8.0699515737695982e-01
    6.9294739036635695e+00 -7.2401864159652696e-01
    1.3469492972946419e+01 -9.1248287822369945e-01
    1.2068743741999532e+01 -1.2872501374700882e+00
    8.0213651456374322e+00 -9.3028787621108278e-01
    7.7048524298254160e+00 -1.1932880018330032e+00
    9.2792803043068091e+00 -1.0150441492004241e+00
    1.2036960458616850e+01 -7.8622917502826328e-01
    9.5182558872968510e+00 -7.2073488283965259e-01
    8.3353462066199491e+00 -8.4497339612657285e-01
    7.3636200493628481e+00 -7.5075827005248164e-01
    1.7935768678212458e+01 -8.0877642198663613e-01
    1.3850958484675731e+01 -7.8326887777598997e-01
    8.6900230633986855e+00 -8.7895309529625920e-01
    8.4581008724624063e+00 -1.3550541987829208e+00
    6.6141466665263771e+00 -1.4256334855649395e+00
    1.0999920475801265e+01 -1.2742622588633867e+00
    1.1511421596483201e+01 -9.7832953239674414e-01
    9.0448824295313361e+00 -8.4646114225159574e-01
    7.8346467047093675e+00 -7.4567557039858290e-01
    1.8321201239270401e+01 -8.8636403958391641e-01
    1.2997880731537407e+01 -7.5609447319701983e-01
    8.2056697513689940e+00 -1.2233252151125835e+00
    8.0819007616385363e+00 -1.8205254993415827e+00
    7.3843294296719240e+00 -1.4328492707720042e+00
    1.2237606511174032e+01 -8.5758275002499995e-01
    1.0823957364648225e+01 -7.3583711521382233e-01
    9.3226423666139731e+00 -7.0846534620489232e-01
    7.3387163214063271e+00 -6.4353813382134617e-01
    1.3736052734304939e+01 -6.9102395587059995e-01
    1.4567682589547116e+01 -9.7853020251701639e-01
    8.9510609199830267e+00 -9.6448494216695801e-01
    6.1098702529939413e+00 -1.7266772073104146e+00
    5.9718141516132004e+00 -1.6272125816041947e+00
    9.9856072581413180e+00 -1.2843994119425330e+00
    1.5316279567490309e+01 -1.0446112791038802e+00
    8.3938654122401637e+00 -7.2841883379999417e-01
    7.2188633430161460e+00 -6.6069332356687593e-01
    1.2233818454509546e+01 -6.7448422283584020e-01
    1.6374961611235836e+01 -8.0241094803440671e-01
    1.2983314005241111e+01 -8.1182083308896735e-01
    9.3986300915836551e+00 -1.2532657710297308e+00
    6.9843110573992693e+00 -1.6726842192168592e+00
    8.9469104544844331e+00 -1.7020287855267173e+00
    1.2150389260021779e+01 -1.1710231273701768e+00
    8.3368002116972217e+00 -7.8130570713735259e-01
    7.3769787016248545e+00 -6.8019562540311074e-01
    1.7439046776532550e+01 -8.2762673027927736e-01
    1.5101003384312822e+01 -7.0113251243219465e-01
    2.6244217645750890e+01 -7.9988135435406349e-01
    1.4511217601209367e+01 -1.1784876068740606e+00
    6.6862688215771851e+00 -1.5852179543153384e+00
    7.8278517904822005e+00 -2.0023518396045112e+00
    1.0129158209415358e+01 -1.2319269784770130e+00
    1.7233014595195971e+01 -8.9519829509091464e-01
    1.6382156970687166e+01 -6.4011163957620487e-01
    4.0039418918054885e+01 -8.3315099593785402e-01
    3.4358776479823227e+01 -7.9110466376131272e-01
    1.2607255490168457e+01 -8.0875969170768169e-01
    8.4192425140576308e+00 -1.9293400003948535e+00
    7.5804069293785661e+00 -2.0655274026225645e+00
    9.0453875286858469e+00 -1.5288399898980021e+00
    1.1470862870378367e+01 -1.0063113099238958e+00
    7.1175799015704202e+00 -7.2879002444846785e-01
    6.5498631022000442e+00 -6.3880251421046019e-01
    9.4102772797610701e+00 -6.0496796798300556e-01
    1.4904989249435806e+01 -6.4452854913613078e-01
    2.1969381644580288e+01 -7.6200949547741714e-01
    1.1386597097279219e+01 -1.3545665183097826e+00
    7.6107919308192669e+00 -1.9585124445774473e+00
    9.4840818565074674e+00 -1.7690585845035667e+00
    9.9321203103983517e+00 -1.0805088236342022e+00
    8.9725614111829639e+00 -7.3566564122431932e-01
    7.3950098975958323e+00 -5.9811443125799824e-01
    1.3478251584747779e+01 -5.4818903442933187e-01
    2.0558094078711100e+01 -6.1098061974367879e-01
    2.2976355346234666e+01 -8.0908248052820853e-01
    3.0907949424125349e+01 -7.3154880484702045e-01
    2.1095475779328645e+01 -6.8790057759379220e-01
    1.7701152749168109e+01 -7.9482746470914745e-01
    7.9450759973089440e+00 -1.0649856556128061e+00
    1.1090470696381862e+01 -1.6166249156798409e+00
    8.2051617754763075e+00 -2.3738241443655173e+00
    1.1178079817724708e+01 -1.7724382341005100e+00
    1.9956215306162846e+01 -1.0110395072139267e+00
    1.4166802386559230e+01 -8.5697714380649914e-01
    1.9479524112851735e+01 -7.0505441488459797e-01
    1.6126806947957270e+01 -7.1029487558185667e-01
    1.3389085886136021e+01 -7.3772477855969865e-01
    8.2173739314284067e+00 -1.0069484837244700e+00
    9.8186668895266127e+00 -1.6879160865771565e+00
    1.1973881661797707e+01 -4.0268106369756280e+00
    9.9270258197633865e+00 -3.1750737286551183e+00
    1.0355275183865885e+01 -1.1558867010448843e+00
    2.1330816563315366e+01 -7.8523027407763468e-01
    2.8511049145407135e+01 -7.0534794240478049e-01
    2.1110023396606987e+01 -7.2169097473790933e-01
    1.5326366051183870e+01 -7.5934915080313059e-01
    7.6421906822629815e+00 -1.1368946264949440e+00
    1.3046273408280625e+01 -1.0848856424338524e+00
    9.5447454692314082e+00 -1.5396893312963185e+00
    1.0520612985035669e+01 -1.1985414105798484e+00
    1.8879268796209018e+01 -9.6389536180976887e-01
    1.4395029382926541e+01 -8.6813697701049508e-01
    1.9501997043809073e+01 -6.9610418612409919e-01
    1.5897430115855572e+01 -7.0017654941666052e-01
    1.1557943238376096e+01 -6.7878820739365542e-01
    7.1937215549633118e+00 -1.0568089251337085e+00
    1.0988563268891639e+01 -1.1746887938107524e+00
    8.3360750936495922e+00 -2.3856114789470522e+00
    7.7594750522475859e+00 -2.1214770082227181e+00
    1.0140462418098506e+01 -1.1567398723423765e+00
    1.4235804494383427e+01 -7.7537766465597868e-01
    2.9898951773297561e+01 -6.6501262756809898e-01
    3.5417002407168717e+01 -6.8941345484787553e-01
    2.4318811065427159e+01 -6.1148634292758153e-01
    1.4594889428823013e+01 -7.9950080637193932e-01
    1.3929145601051765e+01 -1.2172280151106787e+00
    1.1208364645056102e+01 -3.2470617649236564e+00
    1.0644450379429736e+01 -2.8477469120451331e+00
    9.0390194240516717e+00 -9.9027659506331300e-01
    8.8143000028858101e+00 -9.7732603760954917e-01
    1.6719181702169305e+01 -8.0143412990713325e-01
    2.4435657700067551e+01 -7.7352906555749723e-01
    2.0334660121979706e+01 -7.5429041853910417e-01
    9.5719355471478913e+00 -8.4623002664457103e-01
    7.8608292934673551e+00 -9.0095075526904933e-01
    7.9928942800026492e+00 -2.1223105174539234e+00
    9.9150642521455250e+00 -2.8561233871229592e+00
    9.1635395661665360e+00 -1.5041553880476031e+00
    1.2754061834251791e+01 -7.2989706973589841e-01
    3.2345765074101998e+01 -6.5830983537891907e-01
    3.3063265845529529e+01 -6.3178408769946981e-01
    2.0250540878013457e+01 -5.8098660721640349e-01
    1.0267133120493705e+01 -8.0508499416219148e-01
    1.6475655037545700e+01 -9.2687971187230012e-01
    8.5363449713719586e+00 -1.7891155351181309e+00
    8.4005783700119583e+00 -2.0162878106930644e+00
    9.2264293549754175e+00 -1.0656375134222726e+00
    9.2831519114870673e+00 -9.9531189026490141e-01
    2.1984188719723015e+01 -8.4289620370202312e-01
    2.5797352253504421e+01 -7.4115648406082157e-01
    1.7617267607297038e+01 -6.4556073065397512e-01
    1.0643043136284760e+01 -8.6627137083494987e-01
    1.0742753868513091e+01 -8.8198830550653973e-01
    7.6158449197569000e+00 -1.8389709134373275e+00
    9.6478455196508470e+00 -2.4780888582353691e+00
    9.9526601296529495e+00 -2.0821915199110603e+00
    8.4466472362448410e+00 -1.1757645122527098e+00
    1.3232875935048462e+01 -1.0214145935644081e+00
    1.7080450436813052e+01 -9.7613306017628998e-01
    1.5182475023185811e+01 -7.7292429773664517e-01
    9.8003277954246588e+00 -7.6097640538148703e-01
    1.1992973675613039e+01 -9.4833930943806133e-01
    7.8336324569053586e+00 -1.4664073346059090e+00
    9.1515180795306499e+00 -1.8781426870741911e+00
    8.8656179472091985e+00 -1.5760240533781229e+00
    8.3514516433790451e+00 -1.4078664182180884e+00
    9.9473475067079651e+00 -1.1976159215955773e+00
    9.4130889808908140e+00 -1.0522754231117197e+00
    1.2175886926923145e+01 -9.7595738400923204e-01
    9.8618587366873705e+00 -9.4139736926376127e-01
    8.7767957315534613e+00 -8.0571712901226500e-01
    7.5986883974750787e+00 -9.6292416530273983e-01
    9.6070185098440302e+00 -1.5074164827553973e+00
    8.6580862260033840e+00 -1.5906674672883971e+00
    8.8709965679487741e+00 -1.2354136245669576e+00
    1.9131222384544230e+01 -1.0255074141984004e+00
    2.8469580397896383e+01 -9.3502667962760011e-01
    2.3049917107244084e+01 -7.5719737601019366e-01
    1.5316788336880045e+01 -9.2760576773896730e-01
    1.4095671153518129e+01 -9.1772086810467035e-01
    8.8833046553020623e+00 -1.4839622248167399e+00
    8.7570691550450661e+00 -1.8287645659474927e+00
    8.4335245100479668e+00 -2.0517030372241063e+00
    8.7744044538351247e+00 -1.6304362562776180e+00
    1.6673700281718070e+01 -1.1850674348351840e+00
    2.2898417656689322e+01 -1.0883216157027442e+00
    1.6625881813275818e+01 -7.6566538767834968e-01
    1.0626769193696765e+01 -8.5290693224643699e-01
    8.4893909043047664e+00 -7.3302069809252357e-01
    7.8491107012339514e+00 -1.0079486088310161e+00
    9.0459885725368849e+00 -1.8697908269763479e+00
    8.7361844409849532e+00 -2.2030275300861355e+00
    8.0838619120632327e+00 -1.6205496561994264e+00
    8.0935375599379249e+00 -1.2163004727914435e+00
    8.4651574914765852e+00 -9.8700684370964864e-01
    1.1934348294022564e+01 -9.2277579780952745e-01
    1.0065037833057939e+01 -9.0511781659415935e-01
    9.2093158130683488e+00 -7.9928860383140488e-01
    8.2353171223348607e+00 -7.6530575393646694e-01
    1.2191025438417650e+01 -1.0759840217966992e+00
    8.8049496310411826e+00 -1.5678384586319851e+00
    7.6521927656956388e+00 -1.5619989214301968e+00
    8.9301015159498132e+00 -1.3502630152728758e+00
    1.2124425521051966e+01 -1.0795760237580601e+00
    1.3513459712863666e+01 -7.6001381304076876e-01
    1.1573852845498834e+01 -7.7945611250202240e-01
    1.1809324356762565e+01 -7.1979030506124697e-01
    9.5000897986975357e+00 -6.8601686697267861e-01
    1.5161273712063098e+01 -8.5346253269539085e-01
    8.6106616052488540e+00 -1.3066719200219972e+00
    7.8362907960559651e+00 -1.9800995101765098e+00
    1.4899108098266460e+01 -1.2242626368714640e+00
    2.1790992762472388e+01 -1.0067528485114046e+00
    1.8115125121796822e+01 -7.7293695895062653e-01
    9.9322405451512914e+00 -8.1397287094399606e-01
    8.7089426011322857e+00 -6.9547905748609495e-01
    8.6739980272309918e+00 -8.3338118141172524e-01
    1.0353251853541709e+01 -1.5193274448046028e+00
    8.3712531638521526e+00 -2.1848565042071986e+00
    7.7622140546361083e+00 -2.0066636774664244e+00
    9.1131545568702954e+00 -1.5092069273456714e+00
    2.0022209947925901e+01 -9.7997561837184655e-01
    1.8781827197684695e+01 -8.0510387986683740e-01
    9.3359677963108165e+00 -8.0605174507312216e-01
    8.9817092661395392e+00 -6.7541907131012480e-01
    9.9770289317586336e+00 -7.2067936229317742e-01
    1.4627382682266939e+01 -1.0574327242669592e+00
    8.2761847367893644e+00 -2.0351954034163264e+00
    7.3155918973177734e+00 -1.3379433836480237e+00
    8.9662555401992776e+00 -1.2830719955835452e+00
    1.6582653065923804e+01 -1.0757033133883769e+00
    1.9361986406799989e+01 -8.3484798528215798e-01
    1.3599255515762740e+01 -8.0338922156810888e-01
    9.8858700386024196e+00 -6.3294418779152706e-01
    8.7017946907084109e+00 -6.2805908244189224e-01
    1.6115336646729990e+01 -7.6064318782207618e-01
    9.9219199029331939e+00 -1.0924539712992560e+00
    7.8318223625932415e+00 -1.6356543003094413e+00
    7.1795761188153957e+00 -1.6865240859686270e+00
    8.6850703687702282e+00 -1.2733967540253739e+00
    2.0400842002450613e+01 -9.6160318816183843e-01
    1.5408348466727460e+01 -8.7329243699072068e-01
    8.1763797284870794e+00 -6.6146304026772340e-01
    7.7245881459671164e+00 -6.6350381845707740e-01
    1.3139081827898043e+01 -7.9946392086427132e-01
    1.1313902059515742e+01 -1.1624804737549190e+00
    7.2370437100395097e+00 -1.9950878795697200e+00
    7.1874866470156533e+00 -1.6367945234295942e+00
    1.4988104114550193e+01 -1.1860536337092165e+00
    1.6238766328924104e+01 -8.3937500712071977e-01
    8.7538925807531580e+00 -7.7875202713715608e-01
    8.8526436699746132e+00 -6.3677236132283710e-01
    1.1186805036477528e+01 -6.5266529084700042e-01
    1.6803594426313804e+01 -8.1646576409140781e-01
    1.0467797630722213e+01 -1.4931147595720624e+00
    7.2853956478974622e+00 -1.9491338479241274e+00
    7.2464324857072517e+00 -1.8078746038630600e+00
    7.3965026108299572e+00 -1.2949859543549322e+00
    1.5111303514239598e+01 -1.0106949719279754e+00
    9.9214288580108239e+00 -9.0946309920130275e-01
    9.1841185860427057e+00 -6.8306011136287759e-01
    9.4744968746307094e+00 -6.5591681961921544e-01
    1.8928794258942066e+01 -8.5476634843383381e-01
    1.1204501792505489e+01 -1.1740372975040168e+00
    8.0302425307406917e+00 -1.2039099723176010e+00
    7.5218275325685013e+00 -1.8492616718012549e+00
    7.1876943255182812e+00 -1.4264961875848865e+00
    2.0966797310959009e+01 -9.3248155552573564e-01
    2.1526205398857918e+01 -7.7631338895105151e-01
    9.4942195523445463e+00 -6.2592709640395294e-01
    7.6129852204415522e+00 -6.0946630311629657e-01
    1.5812374773948738e+01 -6.7120848925633636e-01
    1.4326525709451918e+01 -9.0793550696135406e-01
    8.6087654332735326e+00 -9.2817785808581454e-01
    7.6566953516020684e+00 -2.0362800971268693e+00
    7.5440284357238916e+00 -1.8644853618712891e+00
    1.3776216590663811e+01 -1.0615678078951645e+00
    1.3792116951580537e+01 -7.5479571973670989e-01
    7.9656780284744801e+00 -6.4346514491521112e-01
    7.3158983526344654e+00 -6.0790008049097655e-01
    1.1429519505450912e+01 -6.0187884718722584e-01
    1.7236089135912497e+01 -7.5456134557663990e-01
    8.8350942085823245e+00 -1.3886390035303844e+00
    7.4387289182003489e+00 -1.8416534788950449e+00
    7.2786704571085643e+00 -1.3544408361550255e+00
    1.5689006552604045e+01 -8.4186411259868410e-01
    1.0040329770081103e+01 -7.7124560779211293e-01
    1.0252020675985436e+01 -6.4012080491363510e-01
    9.9485544497587224e+00 -6.1061260838780651e-01
    2.3867550246515400e+01 -7.5375595934284478e-01
    1.4210253887521786e+01 -8.5793677119756218e-01
    8.7856817755795902e+00 -9.5654255118533182e-01
    7.5724032578323079e+00 -1.8159070106919057e+00
    7.4799380787792806e+00 -1.4949595227111601e+00
    1.2659245851678262e+01 -9.3197228841836344e-01
    8.8466876495556495e+00 -9.1875356997667357e-01
    7.8868253575212153e+00 -6.8316214925719843e-01
    7.5657060664306632e+00 -6.1574504196584645e-01
    1.3711143162186683e+01 -6.3372772573451108e-01
    1.6402733696756115e+01 -7.7966833846364703e-01
    1.0623170431226036e+01 -9.1258529432925994e-01
    6.5934431701513203e+00 -1.8561272575148073e+00
    6.6003178732145766e+00 -1.9102410029932966e+00
    8.6916246671448896e+00 -1.2788866080667287e+00
    9.2182795779545597e+00 -8.4340890441250416e-01
    8.9871535323858804e+00 -7.5568097701518011e-01
    8.3397774794062229e+00 -6.6437713119523190e-01
    1.3279297697019855e+01 -6.5605042375840894e-01
    1.9131624406327269e+01 -7.6696270178828241e-01
    2.0411025682617378e+01 -8.4186584291963862e-01
    9.1846576278579146e+00 -1.3636367971255121e+00
    6.5474620613413439e+00 -1.6789634653989651e+00
    9.5417332640185482e+00 -1.4190841434160677e+00
    9.0179893898014747e+00 -1.0152576219918579e+00
    9.5900923545260230e+00 -7.7076263228246467e-01
    8.9435824341463004e+00 -6.4712854034337974e-01
    1.6866334819800670e+01 -6.2736061511778851e-01
    2.6463257972182596e+01 -7.5600999404810532e-01
    1.0144152365715270e+01 -9.2983318714890240e-01
    6.8462350310578168e+00 -1.5897195332611680e+00
    6.7196507432370742e+00 -1.5695581560919374e+00
    1.1708906488774153e+01 -1.1672663674485886e+00
    7.7969160908156647e+00 -1.0512560310047294e+00
    8.3694683857681369e+00 -7.9596963502145868e-01
    8.6354846729774462e+00 -6.8473493299186727e-01
    1.3587915460261330e+01 -6.7442544084483569e-01
    1.8163788964859677e+01 -8.1263487318292749e-01
    1.9818830655399513e+01 -8.7379383712343606e-01
    1.2300021590215190e+01 -1.1222444397594866e+00
    8.6718977925761322e+00 -1.1694122909890670e+00
    1.1488295513686140e+01 -1.1711155727814961e+00
    7.6206865256364562e+00 -1.1668746320693986e+00
    8.4643527763990267e+00 -8.0692501212227896e-01
    9.2295614500856313e+00 -6.7526148244459028e-01
    1.5569082198091715e+01 -6.3062687452663790e-01
    2.3385241836709827e+01 -7.6021727319522570e-01</input_scale>
  <output_scale>
    5.2631578947368418e-01 4.9999999999999994e-01 5.2631578947368418e-01
    4.9999999999999994e-01 5.2631578947368418e-01 4.9999999999999994e-01
    5.2631578947368418e-01 4.9999999999999994e-01 5.2631578947368418e-01
    4.9999999999999994e-01</output_scale>
  <inv_output_scale>
    1.8999999999999999e+00 -9.4999999999999996e-01
    1.8999999999999999e+00 -9.4999999999999996e-01
    1.8999999999999999e+00 -9.4999999999999996e-01
    1.8999999999999999e+00 -9.4999999999999996e-01
    1.8999999999999999e+00 -9.4999999999999996e-01</inv_output_scale>
  <weights>
    <_>
      -2.8892859043360804e-02 -1.1108236847763252e-02
      -2.2189609022219736e-03 3.5523054524201556e-02
      -1.4147988335571238e-03 2.0984549665757270e-02
      4.1882717146675796e-02 -1.6142011034155806e-03
      1.4903774366011400e-02 1.7680760730269782e-02
      -2.2108412261396482e-02 -4.8501779330179231e-03
      4.3609518380278624e-03 -3.1018301367839694e-03
      -1.4563182973187123e-04 9.9652300081645457e-03
      -1.2048904078863117e-02 -1.4897512818188428e-02
      1.1295876252701160e-02 -2.8613315541731830e-02
      6.8469110864485200e-03 -5.0451989319986977e-02
      -3.5881678941816972e-02 -4.1173534799985131e-02
      -1.3998643533170010e-02 -1.8686652148677183e-02
      -3.6785650941362311e-02 -7.0046827891290962e-03
      6.1366377044997734e-02 2.8877236759304419e-02
      -3.1249175277814427e-03 2.8533768415165629e-02
      2.6572852549179896e-03 -1.8411849265076177e-02
      -3.9520912264665073e-02 -9.4909593880408233e-02
      -2.8429584132033114e-02 2.8812893763488362e-02
      3.0181380106342932e-02 -8.0372305547252457e-02
      -3.1595779889319322e-03 -4.8919803607345210e-03
      7.6884723514553631e-03 -3.3435507422206127e-02
      -6.5085037077076222e-03 -1.4194001936964575e-02
      -1.0791731575693520e-03 -6.6035317198277137e-04
      4.5358542169728441e-02 -3.4963017716584756e-02
      9.5769326419035669e-02 3.5849262235069665e-02
      -1.4518597449377014e-02 4.9715551362087218e-02
      2.3011994647100523e-02 1.3922745011828481e-02
      3.6128601618097396e-02 4.0625205135526213e-02
      -6.0564854104877462e-02 -3.8208284568161943e-02
      5.5114900795769171e-03 -6.6554189336855321e-02
      1.2197035136110194e-02 7.2028761392283702e-02
      4.7803544554958194e-02 7.7905941078488708e-02
      1.0728555030330071e-01 -5.1589344768941904e-03
      -3.1923456391803322e-02 -9.6205967184483668e-02
      -2.2146258945043511e-02 -7.6854242273768303e-02
      -5.6758253795930573e-02 -3.9576638424406122e-03
      -4.0772311339584533e-02 4.2381595294155576e-02
      8.7369701723999924e-02 9.3290873418624999e-03
      1.8951605836567416e-02 3.8112433617494883e-02
      1.5996329637287417e-02 -5.8420444250669779e-02
      -3.2073650865527582e-02 -3.2255035753224817e-02
      -6.9932285214832551e-02 -1.0819560743438730e-02
      6.4086290462402412e-02 -3.4626169765405224e-02
      4.6528336949825957e-02 -1.4858773111102922e-02
      1.3957492403060415e-01 2.6741748605295813e-02
      -1.2225591212642402e-01 -5.1018021500152132e-02
      -3.9650894348272632e-02 -8.7526302007346124e-02
      6.8234319725511444e-02 -7.4794115541017003e-02
      6.3016369219285925e-02 6.3561545926399843e-02
      -1.7230938079408668e-02 2.4852333274155796e-02
      5.8628418373698789e-02 4.5594620382774079e-02
      4.1795179818872853e-02 4.9062452117084251e-02
      -8.4187835647815346e-02 -5.7087894824541623e-02
      -2.9179190077643968e-02 -5.8598715091780981e-02
      2.0760283145741455e-02 6.5840839807692550e-02
      4.0734580798468631e-02 4.1899072144675212e-02
      8.4670831140299441e-02 -5.0575505321367870e-02
      -3.9908001326485913e-02 -1.2566677419305841e-01
      -3.9974451812522502e-02 -6.5188031523655075e-03
      -6.2488811572180253e-02 -3.1942864135577682e-02
      -6.8199033594931360e-02 4.1544339565969309e-03
      4.7036192506004063e-02 1.6921688868197081e-02
      3.1079349703323243e-02 4.4330509874999702e-02
      2.4434298463989940e-02 -6.4060376308627084e-02
      1.6901144344947095e-03 -4.8571660096499913e-03
      -7.2617243470396525e-02 -2.0753909849268212e-02
      8.5508132542985629e-02 6.0589553335400918e-03
      4.5362064566330127e-03 1.4980383702630053e-02
      9.8378721582414119e-02 1.6008089808070790e-02
      -1.9601851944552695e-01 -6.2768348969458779e-02
      -4.5022807222493098e-02 -6.4203866265465204e-02
      8.4691340589120555e-03 -4.5403621988634610e-02
      2.8614895724559587e-02 2.7634019143114013e-02
      -1.8521963474306562e-02 1.0290962196104533e-02
      5.6358936505984544e-02 3.6230399073417255e-02
      2.9847688419104901e-02 3.9660537797917637e-02
      -5.6286236479790329e-02 -4.2416725514307391e-02
      -1.1267548266120724e-01 -3.4812629195293508e-02
      5.7504426128079777e-03 3.7983284597290508e-02
      2.8836396623336570e-02 2.8941656849867527e-02
      3.9702819103232506e-02 -8.5002639619846942e-02
      -3.0663088863166817e-02 -7.3225662265680599e-02
      -3.6879294653165112e-02 -2.0454988179194999e-02
      -1.0703597970346045e-02 -4.0879135566319280e-02
      -5.4022647605838650e-02 -1.0588137846905751e-02
      -9.1611217292209765e-02 4.7183684913057007e-03
      2.0772410700862779e-02 3.3057113974377522e-02
      2.2053283941817201e-02 -4.0011967964088513e-02
      -1.1015769065108656e-02 5.8020143901749387e-02
      -4.6023553864940149e-02 -2.4308585640849860e-02
      5.3593297353532597e-02 2.2278559644223813e-02
      -2.5127308790736620e-02 7.4056692863785731e-02
      4.1777088304653091e-02 2.1438074000173741e-02
      -1.3352636015081853e-01 -4.2064886109051326e-02
      -2.8469856453910369e-02 -3.1525833059237111e-02
      3.6992591739161786e-02 1.6940600774594198e-02
      -1.0403744024698796e-02 1.2969458509215113e-03
      4.4385191024244710e-03 1.3978465481525445e-03
      4.8238524820308708e-02 1.1571136438413515e-02
      4.4711414188940675e-03 9.4628771506239558e-03
      -5.3237782166164593e-02 -5.6463496823856976e-03
      -3.2871593576623503e-03 -1.3487616150338619e-03
      -8.6116246353112481e-03 1.5826666741477959e-03
      -2.4170735474638064e-02 -8.9245641688794220e-03
      -1.8264821991541545e-03 -3.0598617317606103e-02
      5.3726935695510162e-03 -2.5402273013067987e-02
      -7.4671359585769346e-03 -5.7763521597385481e-03
      9.9782016386611980e-02 -3.9818160128522628e-02
      -4.7099028225254601e-02 6.5154606561598242e-03
      -5.7966995511206820e-02 2.4103224849530060e-03
      -3.7086866046413219e-03 3.9422122378344235e-02
      -3.6815612879207609e-03 -8.8192624851198883e-03
      -3.2818613653792330e-03 -1.3184584362656723e-02
      9.3741948828988345e-03 3.9241158458260872e-02
      1.8454023326992919e-02 -3.3748113700023105e-02
      -4.6112277852318015e-02 5.8221737236848342e-03
      -1.0555581531013292e-02 -3.3785456153751642e-03
      2.8620097811233043e-02 -8.7969545946200347e-03
      -3.9814499469256938e-04 6.3414232908057845e-03
      1.9445405592169056e-02 3.0502019197148740e-02
      -1.2515231189653553e-02 -7.9019291898794600e-02
      -3.4368576732471501e-03 1.1572879618738926e-02
      2.2823795857176241e-02 2.0545736005519413e-02
      4.2196489790745258e-03 7.8013196398693634e-03
      -2.5810225273503129e-02 -1.3093682726026266e-02
      -9.2519926366629576e-02 2.5379811895055102e-03
      1.0709771088798316e-02 -4.0547773191951311e-03
      -6.6167151625038346e-03 -9.8487611768381372e-03
      -8.1026518353599572e-03 -1.6237735512074788e-02
      -3.4093697429057102e-03 -7.2553437540103915e-03
      2.8551121358616632e-02 -4.4258709383184255e-02
      1.4557991500377374e-01 -2.1587610571951948e-02
      -2.5616566872336526e-02 -4.0260051429172276e-03
      -1.3967805713664773e-02 4.0413280246793422e-02
      5.7237644118733185e-03 1.9946158058943977e-02
      1.2820157676501727e-02 -5.6481981815848514e-03
      -3.9866485916090426e-02 5.4442513291245782e-02
      3.2194259673970632e-02 2.7557268044143290e-03
      1.1119207591347480e-02 4.6781811041462978e-02
      -5.3116568197632434e-02 2.9904970190468880e-02
      -1.3434598868005167e-02 -1.0457472859938640e-02
      8.7733536005346183e-02 -7.5191440969436599e-03
      -8.2933142096660803e-04 8.9363321673366827e-03
      1.0228583986980972e-02 6.0599040406584793e-02
      -6.1471823798218674e-02 1.1563073674035784e-02
      2.2856128406520931e-02 -1.8387239131551370e-02
      -8.5894499983970446e-04 -3.2778391063768390e-02
      -3.3691450933104640e-02 -3.8709619024207727e-02
      1.5678593925791736e-02 3.3327285731997433e-02
      -2.1615326900690635e-01 4.3197962672656375e-02
      -1.3709573752223599e-02 -5.0542047317944531e-02
      4.5426703407813164e-02 -5.1240456652170384e-02
      -6.4662392464244600e-02 -9.2652364513422514e-02
      3.9298027241324432e-02 7.7953280233925185e-02
      -3.3427526562431774e-02 -8.7376399523079566e-03
      -8.1943289912113811e-03 6.1607046350662254e-04
      4.7307327115476755e-03 -4.2147520829564265e-02
      3.7088748419321443e-02 1.1051429580397516e-02
      -2.5679990626330890e-02 2.2237474860278767e-03
      -2.2474336040542955e-02 4.1291152380721188e-02
      2.4765146155610155e-02 5.7769933591171684e-02
      6.4664836118944760e-02 -5.2817018440126880e-02
      -5.5147271470500310e-02 6.0721507958109537e-02
