<?xml version="1.0"?>
<opencv_storage>
<opencv_ml_ann_mlp>
  <format>3</format>
  <layer_sizes>
    1764 48 5</layer_sizes>
  <activation_function>SIGMOID_SYM</activation_function>
  <f_param1>6.6666666666666663e-01</f_param1>
  <f_param2>1.7159000000000000e+00</f_param2>
  <min_val>-9.4999999999999996e-01</min_val>
  <max_val>9.4999999999999996e-01</max_val>
  <min_val1>-9.7999999999999998e-01</min_val1>
  <max_val1>9.7999999999999998e-01</max_val1>
  <training_params>
    <train_method>BACKPROP</train_method>
    <dw_scale>1.0000000000000001e-01</dw_scale>
    <moment_scale>0.</moment_scale>
    <term_criteria>
      <epsilon>1.0000000000000000e-03</epsilon></term_criteria></training_params>
  <input_scale>
    2.2277166474138465e+01 -8.9772527715451722e-01
    1.2789997363945636e+01 -1.2355872507641015e+00
    9.4785601808710265e+00 -1.4858198993005027e+00
    1.4118797197221937e+01 -9.7896805430012823e-01
    8.0360096050717722e+00 -1.0164935829588595e+00
    1.4498637728649030e+01 -6.3376563888040560e-01
    2.2499778066820088e+01 -6.5243236023568063e-01
    3.1560020235146634e+01 -6.2367547003181878e-01
    2.2098869846496612e+01 -6.8471450131025424e-01
    1.0400189337880015e+01 -1.0538128948160139e+00
    8.1738734183124500e+00 -2.2592174476741227e+00
    8.4959204212868222e+00 -2.5386206596380867e+00
    1.1862987545970878e+01 -1.1012395811656182e+00
    7.6486630356576057e+00 -9.2325315637461114e-01
    1.3604691816288543e+01 -6.2185158890857317e-01
    1.7548256719509187e+01 -6.5042951260362136e-01
    2.1824711378791626e+01 -6.6123727078474281e-01
    1.5517299678673153e+01 -8.1614202121283141e-01
    1.7893537035575243e+01 -9.2265241133304099e-01
    1.0977078221953303e+01 -1.7675680260569466e+00
    8.5052739822090864e+00 -2.6597860301263525e+00
    1.0739370455432356e+01 -1.6749719124636071e+00
    8.2654401535843576e+00 -1.0320028037878108e+00
    1.5827883265726117e+01 -6.5577445986621685e-01
    1.9762187378305583e+01 -6.3953791668336091e-01
    2.8985450836442176e+01 -6.7839418664083317e-01
    1.9794118522335680e+01 -7.6811851000067821e-01
    9.5379951753020897e+00 -1.0442577761763052e+00
    9.6840316032311939e+00 -3.2086425853493616e+00
    1.1954121491790268e+01 -4.1735994042758540e+00
    9.1689667748265524e+00 -1.6660710733381647e+00
    8.3843690528474504e+00 -9.1968081980950078e-01
    1.4096682880817459e+01 -6.5651024229921995e-01
    1.5567996173653482e+01 -6.8566878647474061e-01
    1.9860410601338980e+01 -7.4081910598522960e-01
    1.1670887059257655e+01 -8.2043003478218002e-01
    9.1637548601708740e+00 -1.0239283186866810e+00
    8.5798536547394697e+00 -2.1002070693070087e+00
    8.5148584247509014e+00 -1.8682999538741656e+00
    1.8417011349855208e+01 -9.4439426034617835e-01
    1.1639594164067933e+01 -7.4038249904964915e-01
    1.9954105710110543e+01 -4.8741712241546675e-01
    3.4271118612159619e+01 -5.9921716993931018e-01
    3.9615624188574024e+01 -6.9732015751698917e-01
    1.4130646268746011e+01 -7.1925212146814121e-01
    9.9778427860173284e+00 -1.8885798430180749e+00
    9.6625328931906154e+00 -2.4663007578784799e+00
    7.8233650237810322e+00 -1.8769948550176561e+00
    1.2179144196214081e+01 -8.8156224105482250e-01
    1.2397531868616094e+01 -8.2199519762712425e-01
    2.0372861001919215e+01 -5.8685690169487525e-01
    2.9619143077666219e+01 -7.0335524570280761e-01
    2.4716076628853255e+01 -7.7456641616998267e-01
    9.2558891768707987e+00 -9.4054109014365472e-01
    9.1510653460399727e+00 -1.0334508664992630e+00
    1.0968979318239770e+01 -2.9847171514156097e+00
    1.1160078234300913e+01 -3.2680779706258489e+00
    1.3044173112698232e+01 -1.2046111162694071e+00
    1.4698865836795072e+01 -7.3243625046028327e-01
    2.2307158007320069e+01 -5.3153877708482156e-01
    3.2852949847287036e+01 -6.9285239260528841e-01
    2.5609926765798225e+01 -6.5953994352371348e-01
    1.0868615670736903e+01 -7.4075536719068868e-01
    9.5327689085785288e+00 -1.5938968446140425e+00
    9.6003952838026585e+00 -2.8289365408225553e+00
    7.7596144353195244e+00 -2.0910641278128574e+00
    7.8028669375111619e+00 -9.2619324473281150e-01
    9.9335375824878849e+00 -8.3328755486256201e-01
    2.0397220672922860e+01 -6.3491324265687121e-01
    2.0501240961320054e+01 -6.4356676215662989e-01
    1.3455916784460545e+01 -6.9564760528602543e-01
    8.2767115483607956e+00 -9.8555760197281206e-01
    8.6165484999323354e+00 -1.9628912179677742e+00
    8.8370613615172147e+00 -1.7804741964919106e+00
    8.8228234285563278e+00 -1.5058027226602153e+00
    1.6737426993531347e+01 -1.0542039013546964e+00
    1.7422531184507452e+01 -9.2940503062755553e-01
    2.5164795423735111e+01 -7.0947266065187553e-01
    3.4302407633406538e+01 -9.2922509676165077e-01
    2.3319975305126331e+01 -9.8215210932124941e-01
    8.7271036853245683e+00 -1.1131288403582362e+00
    8.9622737716882259e+00 -2.1901973139538753e+00
    9.1837493918823139e+00 -1.8117841694890626e+00
    7.7295417170008420e+00 -1.0042555039513061e+00
    9.4683868542055070e+00 -7.7410466330206240e-01
    1.3646809774256168e+01 -8.9541332457817746e-01
    1.8893511255284935e+01 -8.2399141202738335e-01
    2.0299160315669514e+01 -9.7612564585119366e-01
    1.5789187171480398e+01 -1.0414853641896742e+00
    8.5548904125611873e+00 -1.4719056028295736e+00
    8.3796551580626204e+00 -1.5290914752465639e+00
    8.9878753533751521e+00 -1.8444515217133401e+00
    7.4888450784835285e+00 -1.4827638206976799e+00
    1.0551663456728498e+01 -9.9843894352651841e-01
    9.1671042907751374e+00 -7.4535674085954307e-01
    1.8234720006525443e+01 -7.1944033242640382e-01
    1.7411766682987157e+01 -8.0280378298861832e-01
    1.2250735582410165e+01 -8.8713108324768475e-01
    8.1166061979940025e+00 -1.1721683703371759e+00
    8.3619867206821255e+00 -1.5571929510880422e+00
    8.6858186674462008e+00 -1.4599680802424317e+00
    7.3952127169020097e+00 -9.9693160005431880e-01
    8.3418259964715489e+00 -9.0598538675736207e-01
    9.0106496308849326e+00 -9.1368755798695644e-01
    1.1873796240026463e+01 -9.5539319073491713e-01
    9.3898237229603865e+00 -1.0439106754533856e+00
    9.4083841654111779e+00 -1.1964113540331922e+00
    8.0529488683350490e+00 -1.4166799395856944e+00
    8.7206527112865384e+00 -2.2438645547388849e+00
    1.0672207983542810e+01 -1.4826832851875946e+00
    8.2210727465322435e+00 -7.5722760001783340e-01
    8.8208791370091397e+00 -6.5894405304638159e-01
    1.2777914808289822e+01 -7.9769438413394800e-01
    2.1152869816154407e+01 -8.2061142173632085e-01
    2.1241389393696878e+01 -9.5687319217082767e-01
    1.6564577097207135e+01 -1.1550498641488398e+00
    8.1064036505599759e+00 -1.9129702029193043e+00
    8.8518674142449196e+00 -2.1634671777156487e+00
    1.3415558789781715e+01 -9.8586310267056587e-01
    8.7288984023258660e+00 -6.7565393400163876e-01
    8.8737263827958071e+00 -6.4349660293076083e-01
    1.1942450494335912e+01 -7.5992851690557450e-01
    2.4602839861444114e+01 -7.9260102938180621e-01
    2.2692417921750263e+01 -9.5940616171305759e-01
    1.0576730133295856e+01 -1.3606969115569560e+00
    8.1676630305363709e+00 -2.0816761348540327e+00
    8.6879229278211927e+00 -1.6249875571751136e+00
    1.2252451746402876e+01 -1.2400128637447687e+00
    8.1188798265146058e+00 -8.1893143317004824e-01
    8.7035606377600434e+00 -9.2515483613529115e-01
    8.8892025171090303e+00 -9.2329783672584309e-01
    1.0020691471853981e+01 -9.1849717143368470e-01
    8.1901618660112785e+00 -9.6429351304399236e-01
    7.8376062137380673e+00 -1.2019935153236145e+00
    8.2660826383247095e+00 -1.6730777857681223e+00
    8.3546085171522328e+00 -1.4105050515175841e+00
    1.4271873051163624e+01 -9.2785847440221936e-01
    8.8540958230063485e+00 -7.4783021998185195e-01
    1.0577659594648345e+01 -8.6185805894463519e-01
    9.4686932794159979e+00 -7.9655381651199497e-01
    1.3293695520343940e+01 -8.5968074153454122e-01
    1.1839078106715924e+01 -1.1125105949511760e+00
    8.9722773170798291e+00 -1.3945142518331697e+00
    7.8833115617042360e+00 -1.6092448963273602e+00
    1.1030754687624563e+01 -1.7212247632129611e+00
    1.5093507700689885e+01 -8.3323710920054261e-01
    9.6121652569758371e+00 -6.5418000074575455e-01
    9.0865248147747284e+00 -6.4072877948703877e-01
    9.8106360912054225e+00 -7.6745502816215549e-01
    1.9116844119925677e+01 -8.7828836297288160e-01
    1.6351029002874849e+01 -1.2314014310416541e+00
    7.6333997581801114e+00 -1.5897270427905603e+00
    7.7521792661873965e+00 -2.0541070266634924e+00
    1.1317731263446152e+01 -1.2463283689047580e+00
    1.7376472500808422e+01 -8.9070233953029865e-01
    9.8919343086056184e+00 -6.9044682188913975e-01
    1.0491787385981265e+01 -7.0732405205398796e-01
    1.0819908904879139e+01 -9.2602721505584829e-01
    1.3323586707889227e+01 -9.8851900692752193e-01
    7.7393659876783021e+00 -1.3269595237032423e+00
    7.6516336672988849e+00 -1.8323838164855322e+00
    7.6384283911900797e+00 -1.9403561214933893e+00
    9.8522826238750554e+00 -1.2277303107321231e+00
    1.4238632762474655e+01 -8.2243192391885600e-01
    8.5116926813605147e+00 -6.7547121029711865e-01
    1.0336891869258833e+01 -7.3889509399217157e-01
    1.0164173845003955e+01 -8.1872583572157065e-01
    1.3816207761448876e+01 -8.1545511051000563e-01
    1.4040915398562490e+01 -1.1444531966599967e+00
    8.9539835247692086e+00 -1.3717116073258677e+00
    7.8239511507467538e+00 -1.4850980581047790e+00
    1.0873014042069531e+01 -1.2582758087865067e+00
    1.1088199397056002e+01 -8.5426045233243142e-01
    7.6784053710645894e+00 -7.0833433142587865e-01
    8.5038095773265727e+00 -7.3665097882415687e-01
    1.2671761299682254e+01 -9.1143699883431117e-01
    1.8096677475972633e+01 -1.0566392919041889e+00
    8.6564102570692221e+00 -1.3684896305784073e+00
    7.6077356053906495e+00 -1.7940762598032969e+00
    8.3284374510381998e+00 -1.7140108764191637e+00
    1.3488986550557584e+01 -8.2298825960796951e-01
    2.1477663591644454e+01 -7.1631393681970634e-01
    1.0652308111662467e+01 -6.0621654288289140e-01
    1.3399172108930397e+01 -6.6409088250921655e-01
    1.1087623307646647e+01 -7.3974326933033185e-01
    1.5486307235347407e+01 -9.4028048479770532e-01
    7.5177978641164627e+00 -1.4476164094179940e+00
    7.4929143499171227e+00 -1.8496574961574910e+00
    9.6545550625819825e+00 -1.4377376054193955e+00
    1.6390919302204424e+01 -7.5686406866201084e-01
    1.3472404969822481e+01 -6.3233670828793243e-01
    7.5252089418871373e+00 -5.9825928200248624e-01
    9.1571699976670153e+00 -6.8891704321489866e-01
    9.6433928284495138e+00 -8.8078383910318470e-01
    1.3030393828791590e+01 -1.0159905719458018e+00
    7.8060948313936596e+00 -1.6881482197692330e+00
    7.7614366163994495e+00 -1.8728816235641350e+00
    9.6312437113044069e+00 -9.8076644012513015e-01
    1.2601479418665313e+01 -9.4936725730133553e-01
    1.2851983269935062e+01 -7.2222253589903262e-01
    7.3219962782835646e+00 -6.3696234551264486e-01
    9.9153500177889899e+00 -6.8298783047448686e-01
    1.6891823374530581e+01 -7.8453814627098328e-01
    1.7262687631591678e+01 -9.5019391391728270e-01
    7.2849025575145152e+00 -1.5260508233588439e+00
    7.6381498428859480e+00 -1.8995562013799763e+00
    8.5976627318680094e+00 -1.2970392078157080e+00
    1.4532576493015233e+01 -7.7115827075437315e-01
    1.0296700664870780e+01 -6.4630142882036012e-01
    7.1507741798271782e+00 -6.1728865314697301e-01
    7.9811552494445159e+00 -6.5073279581178345e-01
    1.5632279055231326e+01 -8.6887481081905160e-01
    1.3105742119535673e+01 -1.2063482382558066e+00
    7.6995932889847838e+00 -1.9239153165455041e+00
    7.7330509709297486e+00 -2.0344434816988741e+00
    9.3025692735720007e+00 -9.7307341329388364e-01
    1.8613838817865965e+01 -7.8583692411172745e-01
    1.3395876284918145e+01 -6.5473683167289953e-01
    8.4414949401715589e+00 -6.6555715321245024e-01
    9.5447620272558993e+00 -7.8197437585105134e-01
    9.0676982816881981e+00 -1.0326844261275741e+00
    1.1572346116959476e+01 -1.2002000321910709e+00
    6.9829176475720640e+00 -1.7361972299691968e+00
    7.5892455700764243e+00 -1.7066443855161169e+00
    1.1143572594644661e+01 -9.2413234716638848e-01
    2.0771678648641235e+01 -7.1676206412271648e-01
    1.3026325286635133e+01 -5.8508097254781577e-01
    8.4769527588636073e+00 -6.4507445094791005e-01
    8.8586514714560547e+00 -7.3752271700186134e-01
    8.7697641585361019e+00 -1.0741484743562022e+00
    1.1785335308293174e+01 -1.1218621947323659e+00
    9.6174245582066735e+00 -1.3209963811084353e+00
    1.3571391183040246e+01 -1.1601262002968551e+00
    2.3233537035115340e+01 -9.3804005677200841e-01
    1.7616753022300518e+01 -7.3264420514485851e-01
    1.2401896760408547e+01 -6.7405424399077829e-01
    8.0434338242132171e+00 -6.6498932186201720e-01
    8.8501836315904896e+00 -7.5524857460397521e-01
    1.0614997666868403e+01 -9.1268554134076230e-01
    8.3709666241433229e+00 -1.4486858119904324e+00
    6.6042591954809469e+00 -1.9412021136822912e+00
    6.5532751848926036e+00 -1.8822729013601402e+00
    1.0869249776382350e+01 -8.9484725115636432e-01
    3.1155026908720117e+01 -8.5491830665742530e-01
    1.5741918772761780e+01 -6.2479474845329352e-01
    8.5911621628740225e+00 -6.3308104483039396e-01
    9.5546331794742017e+00 -7.5154184681480085e-01
    9.7998590247104129e+00 -1.0506993313841992e+00
    9.0176044845246590e+00 -1.6281223389228023e+00
    6.5031233029756423e+00 -1.8056236680512707e+00
    9.4589444442142128e+00 -1.4434772798863613e+00
    2.4731836646644741e+01 -9.8719643467574336e-01
    2.1505145231386411e+01 -7.4215953039271554e-01
    1.3284065643520886e+01 -1.3334260121113586e+00
    7.7045175908613448e+00 -1.9720726547959291e+00
    9.8388253606143046e+00 -1.9354716368474600e+00
    1.0274332082947325e+01 -9.5662769674988257e-01
    2.3526091415745828e+01 -6.3119217808056194e-01
    3.7337479152143906e+01 -6.7034075230182022e-01
    3.6877954582847195e+01 -6.1911495488560864e-01
    2.3905330019197091e+01 -6.4512860104603331e-01
    1.1097986845530361e+01 -7.8560960769746813e-01
    1.1222857418771794e+01 -2.2817304774119607e+00
    1.1123462948847282e+01 -3.5316340209981352e+00
    1.1344002523972295e+01 -2.1566765999574655e+00
    1.1149607512199147e+01 -8.9125019077843348e-01
    1.9972886221342453e+01 -6.5951146352211332e-01
    2.2098846559833024e+01 -6.8255614752817662e-01
    1.9796016969459192e+01 -6.9938218197165969e-01
    1.0839123021636063e+01 -6.5881302232712191e-01
    1.8193405301833867e+01 -8.1431425402577196e-01
    1.3393743270210170e+01 -1.3034070019363215e+00
    8.1781985937916293e+00 -2.3084888687426068e+00
    9.8965676157276707e+00 -2.7635805054191920e+00
    1.0398269094945292e+01 -1.3546562398012283e+00
    1.9202611035240785e+01 -8.3499790727725276e-01
    3.0412486445519782e+01 -7.9491985889460726e-01
    2.0760860414648938e+01 -6.3115607140125574e-01
    1.3836012231844565e+01 -6.1617901867262292e-01
    9.9537815483452583e+00 -8.8812091625085798e-01
    7.7833180509943389e+00 -1.3385227051082986e+00
    8.3093090435162704e+00 -2.5765670156527460e+00
    8.9991874707364321e+00 -2.3709737719584889e+00
    1.1226365323912109e+01 -1.2310063960979931e+00
    1.7370967462268144e+01 -8.5655428646784648e-01
    1.9257052536463974e+01 -8.3518224999878066e-01
    9.7811248535151538e+00 -7.6815633095184066e-01
    9.2954059130472189e+00 -8.0938721268592340e-01
    8.7692182452811149e+00 -8.0958486103080629e-01
    9.6197783117495455e+00 -1.9679869445190414e+00
    9.0701879566077270e+00 -2.4497986703035184e+00
    1.2115604977201139e+01 -1.4497564467190778e+00
    1.5941276937209151e+01 -9.4420953692639786e-01
    3.3060549630084168e+01 -7.1481892504637368e-01
    3.2665580046085118e+01 -6.5940633291114670e-01
    1.9815410854476138e+01 -6.4067496434600624e-01
    8.3846588993965181e+00 -6.8696235379452031e-01
    8.3094951440935798e+00 -1.0899905850866176e+00
    8.6116495282091972e+00 -1.8852091434961007e+00
    7.2798077635151550e+00 -1.8571609286559838e+00
    9.2963594046381726e+00 -1.2364345210833261e+00
    6.8028215628167104e+00 -9.3138072142019546e-01
    2.4407862759623779e+01 -7.3162806912046452e-01
    2.2053963175445382e+01 -6.0146340028882050e-01
    1.1614130981412540e+01 -6.3391192516590167e-01
    7.2473856962060355e+00 -8.6733141182964169e-01
    9.3731008234879347e+00 -7.8854724479508842e-01
    1.0549833265644011e+01 -1.2622643179271618e+00
    7.0734330072673259e+00 -1.6177558897657356e+00
    9.1298784282667640e+00 -1.4683645703859478e+00
    8.6039377904988630e+00 -9.2558400224251458e-01
    3.3311785828782561e+01 -1.0048839800242795e+00
    2.0725263005384384e+01 -6.8765393778174744e-01
    9.4583723346446344e+00 -7.8356199861204201e-01
    7.3789662661581428e+00 -7.9403844387746048e-01
    8.8958256009560390e+00 -8.5803325216910531e-01
    9.3114933583892281e+00 -1.1413819667263940e+00
    7.0936882033896964e+00 -1.2042449005572637e+00
    7.0883430569405563e+00 -1.1703857066517105e+00
    6.3944295810499252e+00 -9.7192674000798451e-01
    2.0352593151703722e+01 -7.8969167845529054e-01
    1.9580814833316687e+01 -6.3517222382257266e-01
    8.9343694944733922e+00 -8.1345571469569899e-01
    7.0138103762729909e+00 -8.5261607532219608e-01
    7.8407215230452127e+00 -1.0545788599935155e+00
    8.4272254357072178e+00 -1.1017993511152164e+00
    7.1293189484960724e+00 -1.0917307769907456e+00
    9.9612755323720279e+00 -9.9784657654816977e-01
    6.1957913198327059e+00 -7.7746462964222784e-01
    1.9837137797048005e+01 -6.6795227918245881e-01
    1.6509155646298208e+01 -6.4385299059253787e-01
    9.2665420832232801e+00 -6.5938737584211016e-01
    6.5870178695721648e+00 -9.2339509608101944e-01
    7.6442553066242800e+00 -1.0213971331529708e+00
    8.7098157984402373e+00 -9.3479827757634015e-01
    7.1591422490597134e+00 -8.5163648067183761e-01
    8.5920446508722712e+00 -9.8579649986709827e-01
    5.9959612071591968e+00 -8.2866244550110979e-01
    1.2866228936617960e+01 -8.6386503783620117e-01
    9.3866006904069490e+00 -8.7583270875287045e-01
    8.3642866667575095e+00 -9.2745173763738742e-01
    6.6284488060543687e+00 -1.0121540375680020e+00
    9.0863522490336468e+00 -8.2689990549776660e-01
    8.6813324037925081e+00 -8.8309813174005347e-01
    6.7005975292233897e+00 -9.3335536075359948e-01
    8.0017934613029418e+00 -1.0155424127980670e+00
    5.7767937543943448e+00 -8.6328163472320274e-01
    1.9384247062623164e+01 -6.0880934671125653e-01
    1.8563029530202890e+01 -5.6718140758167546e-01
    8.6909838323769506e+00 -7.5375789873148302e-01
    6.4082851995183905e+00 -8.4112408905802183e-01
    8.6828365450692058e+00 -8.5794121974666504e-01
    8.7170746559779566e+00 -8.3324452873669907e-01
    6.4925111366081056e+00 -8.9879141620387148e-01
    7.9937415031479659e+00 -1.0318014133492142e+00
    5.9678052572856979e+00 -8.0307263733859968e-01
    1.6219250979504395e+01 -6.8115539861426466e-01
    1.3641296812484038e+01 -6.7381072695539246e-01
    8.4579283004499697e+00 -8.1686477308934069e-01
    6.2702447003701902e+00 -8.6622962861674668e-01
    8.1271548872110984e+00 -9.7942086067660972e-01
    1.0511001329227007e+01 -9.2839011261265492e-01
    7.0256531367707957e+00 -8.0548700128324380e-01
    8.1067502680765884e+00 -9.6013743897383119e-01
    6.1746243757077872e+00 -8.7365766982484394e-01
    1.2064515950084523e+01 -8.9721266440448355e-01
    8.5925526463466380e+00 -8.8226530691351857e-01
    7.5560520692382225e+00 -1.0332497851253712e+00
    6.9166287385499423e+00 -1.0684022901922945e+00
    8.4289761234103722e+00 -1.0099252252852526e+00
    1.4154155856371474e+01 -9.0705330972255749e-01
    7.9331300185314415e+00 -7.3153691049525971e-01
    1.0625694320049899e+01 -9.2988744724449235e-01
    6.4618328412906498e+00 -7.3275551429601249e-01
    1.5305453385553758e+01 -9.5682222061215039e-01
    1.2227006794767084e+01 -1.0349234732170751e+00
    9.3283424039840188e+00 -1.1326604780618443e+00
    6.8780347523393921e+00 -1.0902263075632594e+00
    9.3459628777850252e+00 -9.5382149384722337e-01
    8.3049199855809857e+00 -8.7135757237882594e-01
    6.2505320597735370e+00 -8.9890593281841835e-01
    8.4261786767055789e+00 -1.0657485689027901e+00
    6.1985290401383697e+00 -8.5693412693568616e-01
    1.6804459104260260e+01 -8.4408524908723004e-01
    1.2889794788427114e+01 -8.4291846827350070e-01
    8.6418499263851682e+00 -9.3217218952509306e-01
    6.5037083831333309e+00 -9.1777283788211650e-01
    8.8383307543858649e+00 -1.1258742671442361e+00
    8.0868287630574489e+00 -9.6181541348369048e-01
    6.7171051207479895e+00 -9.5266394118025000e-01
    8.5695540634753193e+00 -9.8478075878934834e-01
    6.4521334730776152e+00 -7.5776364635745630e-01
    1.6350019242062796e+01 -8.7708668096566744e-01
    1.1645265443527979e+01 -9.0493017503973094e-01
    8.4351770302902214e+00 -9.4511912543254162e-01
    6.6749129615987535e+00 -1.0666477363568887e+00
    9.9325227973735757e+00 -1.0613489963913578e+00
    1.8738352029579300e+01 -9.2046284303540160e-01
    8.8689675295393720e+00 -6.6341323099808014e-01
    1.2624708607632911e+01 -8.5859698688771435e-01
    7.0556568342788166e+00 -6.9015563468479957e-01
    1.4525407904545133e+01 -8.1761803084821560e-01
    1.5223516978924728e+01 -1.0340736559820314e+00
    9.2035724303466342e+00 -1.0224292318988049e+00
    7.1860638230143739e+00 -1.1565123240349711e+00
    1.0671612052052794e+01 -1.1244113988369582e+00
    1.3018454930739519e+01 -8.6907532879894256e-01
    6.8680623984347857e+00 -6.9121890943520947e-01
    9.3642290849959622e+00 -8.5782893717078512e-01
    7.1453425877055521e+00 -7.0158103707886044e-01
    1.5388638296322622e+01 -8.0953277881855645e-01
    1.1397544877986121e+01 -1.0593217009931293e+00
    8.8992180841830582e+00 -1.2870292580002751e+00
    7.5959776036665465e+00 -1.2861830307492095e+00
    8.0352985094823239e+00 -1.1503213379333319e+00
    8.2915769520236200e+00 -1.0097296945950021e+00
    6.5844430777083875e+00 -1.0063453531476083e+00
    8.8173285281826423e+00 -1.0403910144909199e+00
    6.9811381360124667e+00 -7.7953013843535890e-01
    1.1199977612616383e+01 -8.3061536033455563e-01
    7.8245817910468816e+00 -8.9437136464715883e-01
    7.0914495962936206e+00 -1.0591630808825763e+00
    6.5834425062359143e+00 -1.2629561793824251e+00
    9.9228012612588650e+00 -1.1050717715897864e+00
    1.0896911503847976e+01 -1.0569148076397337e+00
    7.1213037927459952e+00 -9.0321993564402658e-01
    6.9641069438318013e+00 -9.7922364945011731e-01
    7.2162151530078491e+00 -8.3213018034518693e-01
    1.1630618518781343e+01 -9.5937319946066690e-01
    7.9556297560398281e+00 -1.0344122993114209e+00
    7.1828590393252032e+00 -1.2336114708885135e+00
    7.1636174856285875e+00 -1.2468030844773543e+00
    1.3598806476289358e+01 -1.0371374023410953e+00
    1.2911824014714895e+01 -7.1730243931647775e-01
    7.4806279460523761e+00 -6.6003952869798987e-01
    1.0859664358987375e+01 -8.2915745998808676e-01
    8.5564612189091331e+00 -6.9346674246127393e-01
    1.4384851386385307e+01 -8.7048895017671013e-01
    7.9205337650490488e+00 -1.3495321775765734e+00
    8.2241850996817654e+00 -1.6481537563483517e+00
    8.5178987020676704e+00 -1.2060982278623604e+00
    1.6450150839571091e+01 -8.7018403991658311e-01
    1.2933608574353649e+01 -6.8126292599921145e-01
    7.2563458239248897e+00 -6.4219593880527015e-01
    8.9470660317903477e+00 -7.3774509410805078e-01
    1.3830004816394785e+01 -9.6293568376167804e-01
    1.0695646833665439e+01 -1.2734980685685704e+00
    5.9704658868429341e+00 -1.5288183852179416e+00
    6.2042498530893138e+00 -1.6057882677015942e+00
    9.1716083691489594e+00 -9.4800358452858335e-01
    1.1091526793691326e+01 -9.1382713524132497e-01
    1.3450614763231723e+01 -9.1672886312637469e-01
    7.5532896997386461e+00 -7.9113687016638179e-01
    7.9160132675342796e+00 -9.6495713204018219e-01
    8.3756073314358535e+00 -8.2163937455355873e-01
    1.2415121787104528e+01 -9.1304277314727300e-01
    9.6242077702249169e+00 -1.0263405786793887e+00
    7.9967352697118272e+00 -1.1346167096422952e+00
    7.7708088762598395e+00 -1.0077116359012788e+00
    1.0819193126426832e+01 -8.5451870445060962e-01
    1.3595922323438861e+01 -9.6390011086808403e-01
    7.8690929024682683e+00 -7.9271358746237508e-01
    8.7191047519972980e+00 -9.5290703162779855e-01
    8.9446946375930629e+00 -9.9056290591057661e-01
    1.0536462252050946e+01 -1.3087144510501694e+00
    6.2919063940115025e+00 -1.3309257981219491e+00
    8.6164549057972035e+00 -1.3022451207905039e+00
    8.3721397887850504e+00 -9.2644163107913602e-01
    1.5098914195361148e+01 -6.5032569386962280e-01
    1.0234471837856415e+01 -6.1174796522863917e-01
    6.7667187345998059e+00 -6.2486388981295660e-01
    7.3025777882374845e+00 -6.9434249288583316e-01
    1.2974546793216101e+01 -1.0051582661167802e+00
    9.4456381370109543e+00 -1.5728082154880973e+00
    7.4944920344235699e+00 -1.9780200269939685e+00
    9.7786976823602600e+00 -1.8700186375080614e+00
    1.2312486052890597e+01 -7.7336208996416411e-01
    2.8871884448737710e+01 -7.0171327160357144e-01
    1.6193617325028175e+01 -5.5936476245816502e-01
    7.6026647973759340e+00 -5.7247027312853149e-01
    9.7342110216427287e+00 -6.9332787131554507e-01
    1.0643751547198976e+01 -1.0782417122076318e+00
    9.4903960420034323e+00 -1.8942617137658229e+00
    7.4619603385269659e+00 -1.8826259959709164e+00
    1.3913610376396932e+01 -1.3398498343395049e+00
    2.7028383305419073e+01 -8.2900531984198889e-01
    1.2252633929087732e+01 -7.7579525427839202e-01
    1.2526140889302123e+01 -8.5810061317683650e-01
    7.3509452409930551e+00 -7.3970986202790845e-01
    8.1340589067240430e+00 -8.5663367027523118e-01
    1.0581102596392389e+01 -1.2783029822691963e+00
    8.7485599909500245e+00 -1.8001891198070410e+00
    7.1796059399740395e+00 -1.7363285666786934e+00
    9.5662406958000332e+00 -1.2270324296170887e+00
    1.1079844069029759e+01 -8.4952119722839925e-01
    2.2590155898858228e+01 -7.4171686363126110e-01
    2.8827781157304983e+01 -7.9872617033094251e-01
    1.3974651867616501e+01 -6.7743161768809423e-01
    1.4998737367860610e+01 -9.3460499759270399e-01
    1.0052699043439404e+01 -1.4557990213835845e+00
    7.8127908948206777e+00 -2.0913421337893685e+00
    6.9801964399699532e+00 -1.6842820387009596e+00
    1.3914337103894045e+01 -1.1454005433423440e+00
    1.9987230195086735e+01 -8.1332471025060704e-01
    2.3179586832795160e+01 -8.5662618428797055e-01
    1.5301649501205796e+01 -1.0593946995505674e+00
    7.5235051809649320e+00 -1.8719595027196092e+00
    8.5330803067547158e+00 -2.2753067380586653e+00
    9.1263304870358901e+00 -1.6973234813190294e+00
    1.6600768602418356e+01 -8.2553939478740979e-01
    3.7132177252562059e+01 -8.0448601809017295e-01
    2.0033709452145974e+01 -5.6130289725862403e-01
    1.3018240505355617e+01 -5.8093881255645452e-01
    1.2408713558480573e+01 -8.9415998366189486e-01
    1.1319413476078761e+01 -1.2099972202144151e+00
    8.7776402048681526e+00 -2.1511909048854196e+00
    1.0020503435876080e+01 -2.3366778754122559e+00
    1.0203660730211402e+01 -1.3365821234611281e+00
    1.7287197209611687e+01 -8.9797698187063768e-01
    1.9683684559159918e+01 -7.6243855829523977e-01
    8.9368157557230159e+00 -7.3028442917917302e-01
    7.9278198961519477e+00 -7.9501254542897359e-01
    2.4964670134787806e+01 -7.8697040483762148e-01
    1.2536550984253177e+01 -7.5316457028337147e-01
    7.8110898617721132e+00 -1.3492050684677315e+00
    1.0715680057913547e+01 -3.1604884705010754e+00
    8.2792550080367509e+00 -2.3696437308644800e+00
    1.7598828068956930e+01 -1.1411712152798497e+00
    4.1808970250802830e+01 -8.4425492463608298e-01
    2.0004705949107951e+01 -4.9420641341936339e-01
    1.7263695445989814e+01 -5.8244850048193353e-01
    1.4945016958546896e+01 -9.3986184346986912e-01
    1.0367366286663815e+01 -9.6558767054150985e-01
    7.1441583575134295e+00 -1.2320689491486518e+00
    8.6734607277154954e+00 -1.9556870536709376e+00
    8.5664777250378137e+00 -1.7165331305747378e+00
    1.4352613484804980e+01 -9.8653618952661726e-01
    1.8589378466700865e+01 -7.6375740623286270e-01
    1.1391898670996378e+01 -7.0534432807240943e-01
    9.5782918751590937e+00 -8.0701699057954634e-01
    1.3151849248685274e+01 -9.3501611059377598e-01
    1.3888001198712820e+01 -9.9998686895775124e-01
    7.8148169298271615e+00 -1.1661192565684015e+00
    1.0874047095186171e+01 -1.3817183355920633e+00
    8.6222613051805794e+00 -1.0343543611985471e+00
    2.9317329399475650e+01 -1.1050666916935636e+00
    1.8369965510628475e+01 -7.2394802898421395e-01
    7.2881544376711966e+00 -8.3417973020528724e-01
    6.2437289352799450e+00 -8.6403579924928942e-01
    1.4676772708174958e+01 -1.2054140171211425e+00
    9.7685546007857162e+00 -9.6570426273476528e-01
    7.0440206669002343e+00 -1.0148961693095238e+00
    7.7486722091206204e+00 -1.0946991554865269e+00
    7.0555718827026999e+00 -9.8334138170349195e-01
    1.3771866056814078e+01 -8.5949293850727426e-01
    1.4867725980415104e+01 -8.2097997112845900e-01
    6.9681836755899189e+00 -9.6584038513145820e-01
    6.4226525518277588e+00 -9.9968605372485098e-01
    1.3382465528185861e+01 -1.1695620019077075e+00
    1.1371509196079568e+01 -1.0324512507061032e+00
    7.1717546146818405e+00 -1.0673315120254800e+00
    8.8684461235541416e+00 -1.2326590207265735e+00
    1.0374737454791500e+01 -1.3684308702360730e+00
    2.1066704358342733e+01 -1.1918056659523577e+00
    1.4591918003728885e+01 -9.1254679489870816e-01
    9.7816267101846304e+00 -9.7627971876141162e-01
    7.7782146149768581e+00 -1.1153336509164731e+00
    8.7865704068263764e+00 -1.4039801967079995e+00
    8.1099917205147509e+00 -1.1121539237119269e+00
    6.8449001119717350e+00 -1.2063241137181564e+00
    7.8423671436922762e+00 -9.6480361929347813e-01
    7.3516617110555860e+00 -1.1247002913606068e+00
    1.0811106091477741e+01 -9.9572386998736262e-01
    9.4335722359857428e+00 -1.0573468142875617e+00
    8.7488912398925187e+00 -1.4490747117039990e+00
    7.4216172491965793e+00 -1.6271031554394582e+00
    1.7959904123979513e+01 -1.1587394944173732e+00
    8.0592714425147811e+00 -8.4865218793783470e-01
    6.2516327388748625e+00 -9.1762011298728807e-01
    7.3259175950266417e+00 -8.3337287407083616e-01
    7.4563507121197299e+00 -9.4671645526475301e-01
    1.9469750281768818e+01 -6.9318552378809928e-01
    1.5746906399699130e+01 -6.4470606321275670e-01
    7.2849359479989770e+00 -8.8829563076384466e-01
    6.2896556799956391e+00 -9.0850143860667398e-01
    1.6083917349344649e+01 -1.1637656525967524e+00
    8.3347286582930735e+00 -8.6857087167217883e-01
    6.3306764142696004e+00 -9.3844071504836357e-01
    8.4915230920257851e+00 -9.0058937928395322e-01
    8.1986734463905062e+00 -7.0636207831399400e-01
    1.9118465295279986e+01 -6.1974821361588173e-01
    1.6243620607732971e+01 -6.4432549284235863e-01
    6.7289642321984200e+00 -8.5825027532919729e-01
    6.2172811548989007e+00 -8.7819207396006427e-01
    9.4015831072001959e+00 -1.3799317407807064e+00
    8.5304610343020801e+00 -1.0003793152870610e+00
    6.4266402895727808e+00 -9.9725358867193281e-01
    7.6613754890174590e+00 -7.8290556191137428e-01
    8.6380125223377409e+00 -9.4513162657343586e-01
    1.7911940762748337e+01 -9.0266227787992237e-01
    1.1740547576405929e+01 -8.5230191629072838e-01
    8.4364857066576437e+00 -1.1521923373778966e+00
    6.7935235117143264e+00 -1.3881191789492371e+00
    9.6287880694585368e+00 -1.3757365116148190e+00
    8.5869672845239489e+00 -1.0659918724993938e+00
    7.5238275076765113e+00 -1.0607107628903525e+00
    1.0743205113006061e+01 -1.0325364402463000e+00
    8.6670757585674316e+00 -9.0916423045135952e-01
    1.9586902027326420e+01 -8.4922959410030974e-01
    1.2101556355369569e+01 -7.5106482577525879e-01
    6.8025345837525775e+00 -9.9031428112605313e-01
    6.3935773830332723e+00 -1.2845412221056942e+00
    1.6907098735312669e+01 -1.2176848994806722e+00
    8.0309843847272475e+00 -8.5396424752983913e-01
    6.8176191526854604e+00 -9.0949929706583910e-01
    1.0499117739843561e+01 -9.2146809214810177e-01
    7.9524223260068005e+00 -6.8639758342484181e-01
    2.1296959371973266e+01 -6.5699658109201742e-01
    1.7810374711340398e+01 -7.3659494110922752e-01
    7.5317534743994301e+00 -8.8225697940254477e-01
    7.3644585237406730e+00 -9.1266470829362090e-01
    1.2425562940517706e+01 -1.2408629399724875e+00
    8.1129483191454366e+00 -1.1891251198966812e+00
    6.4333112115361430e+00 -1.1108529442245478e+00
    8.4767570037965640e+00 -9.7675505107993832e-01
    8.0607249326525494e+00 -7.1744051534709052e-01
    1.9352934913787205e+01 -7.8658901334459275e-01
    1.3455391633199131e+01 -9.1003458959677030e-01
    8.0595493331346137e+00 -9.5877114760867488e-01
    7.7009494563405658e+00 -1.0086688797416496e+00
    9.8604897475382423e+00 -1.2297627822538060e+00
    8.2094952592442212e+00 -1.1350954939292544e+00
    6.7020065408446179e+00 -1.0834258803652583e+00
    9.5625590211381262e+00 -1.0410700136146027e+00
    8.6448019358431250e+00 -9.2123006466960111e-01
    2.1210193499486014e+01 -1.0309170434863957e+00
    1.2159571468741687e+01 -8.9590950733998731e-01
    7.5587405606757994e+00 -1.0386310615237910e+00
    7.3493720288902482e+00 -1.2882975584188852e+00
    8.4193410451960844e+00 -1.1692856405340881e+00
    8.1451372173536445e+00 -1.5419160821376838e+00
    7.0306456054748745e+00 -1.4048036577401084e+00
    7.7784328707810726e+00 -1.0339808750766655e+00
    8.3776723605051782e+00 -1.0363951036762666e+00
    1.3440169604361527e+01 -1.0251742376608868e+00
    9.2381754762994799e+00 -9.1152650915992239e-01
    7.8580243306989566e+00 -1.0195614231333177e+00
    7.8273128933986733e+00 -1.2274128600137284e+00
    1.2223857669567755e+01 -1.2001834307248067e+00
    9.5032877046492565e+00 -1.3786528744069331e+00
    8.2147616858783152e+00 -1.4358635735422720e+00
    1.0267265207690517e+01 -1.0868538754327923e+00
    1.0020347034709696e+01 -8.2413044552205716e-01
    2.0578294537814671e+01 -9.7351122628294573e-01
    1.0466795493807050e+01 -1.0141144760691763e+00
    8.8322141115674864e+00 -1.1504238185462698e+00
    9.5715701481162103e+00 -1.1365895424637993e+00
    1.1613034685717162e+01 -1.1869038227379518e+00
    1.3123050273763749e+01 -2.0096307185108473e+00
    8.7578094064973282e+00 -1.6467990160952726e+00
    8.6519864914407947e+00 -1.2245894591270408e+00
    1.0643224596766306e+01 -1.0584563983605610e+00
    1.7780561343001217e+01 -1.1272304474494186e+00
    8.9376280901818070e+00 -9.7859952588219523e-01
    8.0712491697383744e+00 -1.1478522705944927e+00
    9.4546527508011877e+00 -1.1090722314521162e+00
    9.6175827149974094e+00 -1.2600739646057055e+00
    9.8014075131495506e+00 -1.7206051780208014e+00
    9.4564529459206685e+00 -2.0860879594783435e+00
    9.5518578496886555e+00 -1.3153398997634684e+00
    1.0573095407803976e+01 -1.1771347816342776e+00
    1.2912797343413944e+01 -9.3359517273238790e-01
    1.0369743612704031e+01 -9.3994063451786636e-01
    1.0461756514719832e+01 -1.1058402483432686e+00
    1.0028531788169911e+01 -1.1594186634767332e+00
    9.4708800459713576e+00 -1.5460502048842593e+00
    1.1621290416168250e+01 -2.6249421575015202e+00
    1.3199587861794134e+01 -3.5173226759356986e+00
    9.0082599081669770e+00 -1.6481109884353362e+00
    1.2726543251748710e+01 -1.5367607727420260e+00
    1.9556789382832818e+01 -1.2586925653888574e+00
    1.6595820395755759e+01 -1.1974158447699605e+00
    1.3071930471515138e+01 -1.2291666993408892e+00
    9.4957928558796461e+00 -1.1417491848601944e+00
    1.1701403737764423e+01 -1.2416318638385282e+00
    1.1425526513113336e+01 -1.6143840833165573e+00
    8.5715279478916138e+00 -1.4906548070120069e+00
    7.9700661999939957e+00 -1.2462606453956182e+00
    1.0417137936913687e+01 -1.2043392682757457e+00
    1.5787017296918647e+01 -1.1708284268805418e+00
    1.1110360943320954e+01 -9.9387051496072099e-01
    9.4517918712690605e+00 -1.1202890506862968e+00
    1.0510236295629582e+01 -1.1309573168052662e+00
    1.0851987658423463e+01 -1.1262970608803826e+00
    1.0771633595589019e+01 -1.2028653291268254e+00
    8.6122542011013365e+00 -1.1093097135496313e+00
    9.0734120279450128e+00 -1.1069017206541285e+00
    1.1052737076550850e+01 -1.2286906869048928e+00
    1.3416277413565101e+01 -1.2033174956533121e+00
    1.1673516834301347e+01 -1.1173414180104451e+00
    1.1242925380929629e+01 -1.0951469723234353e+00
    1.0905272991125855e+01 -1.1508150665341272e+00
    1.0259569746337442e+01 -2.0362466632354068e+00
    1.1935127039517903e+01 -2.7855200739164960e+00
    1.2678719341977438e+01 -3.3554177324023318e+00
    9.0453348996248515e+00 -1.7037042336344808e+00
    1.2210016476013775e+01 -1.5233192317150699e+00
    1.7768302740856651e+01 -1.1766525741775755e+00
    1.3803514517359254e+01 -9.6363602148589922e-01
    1.1704602025813669e+01 -1.0402566168167209e+00
    1.0243172566812319e+01 -1.4428101653572234e+00
    1.0245192165609698e+01 -1.7933319295070445e+00
    1.0592231925591845e+01 -2.0116991456343167e+00
    1.0519903774541339e+01 -2.0112054164777105e+00
    1.0055920058768699e+01 -1.3007242861978765e+00
    1.1594465700618022e+01 -1.4406760819115485e+00
    1.2989764121439581e+01 -1.2457858960283610e+00
    9.7594101926849373e+00 -1.0412194570661497e+00
    9.4736667633812317e+00 -1.0751359164319774e+00
    1.1113419772002654e+01 -1.5499250739316639e+00
    1.1207337644186312e+01 -1.0118909065921839e+00
    9.6564017923373999e+00 -1.0274409349653260e+00
    7.7668238780516017e+00 -8.5698127590032325e-01
    7.9722252291031319e+00 -9.3417456224657169e-01
    1.0048145985976072e+01 -1.6736544026604463e+00
    9.5966681843508290e+00 -1.9586994187253202e+00
    1.0793924041492453e+01 -1.8483783235706162e+00
    1.3380861169034674e+01 -1.2312587117867952e+00
    1.2031322416172888e+01 -1.0684897877163144e+00
    1.6278762164747874e+01 -8.1507417959765660e-01
    1.9451102788169003e+01 -8.0628353175101619e-01
    1.3639834734088600e+01 -7.6026297447954660e-01
    1.3310780917901512e+01 -1.0655389719710862e+00
    1.1893512767684507e+01 -2.7234043723860659e+00
    8.3778611119888708e+00 -2.2385440700753021e+00
    7.3855647887657296e+00 -1.5917837309920368e+00
    1.8469096550500222e+01 -1.1637495552789443e+00
    1.8069248164678321e+01 -9.4071966963346498e-01
    1.1091949634507010e+01 -1.2139099785185379e+00
    1.0786425494611775e+01 -1.1687600741860302e+00
    8.6408249400082831e+00 -9.9334650478877839e-01
    9.3800379331127477e+00 -1.1857382197518933e+00
    9.8281255908045502e+00 -2.2348047608148676e+00
    9.5594160139516102e+00 -1.7932478705667518e+00
    1.5354922314369926e+01 -1.7297572166668742e+00
    1.5079504620463744e+01 -1.3901662513351041e+00
    1.4472050432133690e+01 -1.3513370745475854e+00
    1.9640283949949470e+01 -8.7480090255901144e-01
    2.2764999624974035e+01 -8.1555190362613894e-01
    1.9642002159847877e+01 -8.9870194983487439e-01
    1.3724052295049422e+01 -1.3446523310303937e+00
    1.1955991113645020e+01 -3.6646116192562643e+00
    8.0496594665658030e+00 -2.1044211956554699e+00
    1.1549615749195542e+01 -1.4999112104663532e+00
    2.7016696547250000e+01 -1.1692619237218953e+00
    2.2434432159101920e+01 -9.9166440329365690e-01
    2.9954000603348348e+01 -6.6969684618728220e-01
    1.8279444858860366e+01 -6.5778729776566336e-01
    9.9092785395086018e+00 -8.5779458793105046e-01
    8.7801175192637633e+00 -2.3725226476840091e+00
    8.4959875645788170e+00 -2.8212608337745566e+00
    1.3491303916907970e+01 -1.7309065120248293e+00
    1.9361633304667681e+01 -7.2138958176899470e-01
    2.7105534873342886e+01 -6.0489475689103744e-01
    2.3798994124067224e+01 -5.7169940167332378e-01
    1.6676514305788174e+01 -8.2072747634357102e-01
    1.5293596406881244e+01 -9.6131385292274085e-01
    8.2727142018729705e+00 -1.0724005596714941e+00
    9.5262455410375466e+00 -1.7829301270011406e+00
    7.8726653604877805e+00 -2.0340253468863740e+00
    1.3268647332143837e+01 -1.4279140227764378e+00
    1.5870555073057023e+01 -9.0238609702692085e-01
    1.4066369209143335e+01 -7.4686948716353074e-01
    1.2872995366778918e+01 -7.5291659388977805e-01
    1.9376191610402007e+01 -5.5755118013085991e-01
    2.0524071142081560e+01 -5.6086179992429652e-01
    1.9842677308221436e+01 -7.3487049195319265e-01
    1.3535057230681698e+01 -1.7187714992883774e+00
    8.3996128789916487e+00 -2.7797671974229945e+00
    9.3307099867902483e+00 -2.7166893844401447e+00
    9.1299135048709221e+00 -9.6909616499721152e-01
    1.6895469256977513e+01 -7.0091741605855518e-01
    2.4771038338071030e+01 -6.5869431963307157e-01
    1.1539402524732674e+01 -8.5230146927965089e-01
    1.2129643639720012e+01 -7.6332987329376867e-01
    1.5406819967604530e+01 -1.1009907256383791e+00
    1.1911242452832589e+01 -1.4172096167304105e+00
    8.1663672170430033e+00 -2.1632949237006098e+00
    1.0021725936145009e+01 -2.0386430870904384e+00
    9.0001069478750235e+00 -9.9755589851486093e-01
    1.4748204515049839e+01 -9.3513203917202015e-01
    1.4310147088521335e+01 -9.3832104452899834e-01
    1.1757977488065912e+01 -1.0831974016477501e+00
    1.5240416773582423e+01 -1.2486611413927873e+00
    8.9281622519050146e+00 -1.1983903116598738e+00
    9.8276029904593809e+00 -1.4404417775248364e+00
    8.1901671691922608e+00 -1.4398942948670646e+00
    1.1693418906411591e+01 -1.1485496618073963e+00
    1.7225609321355694e+01 -1.2230019054903747e+00
    1.1675369034157111e+01 -9.6141912206456304e-01
    9.4178368973171640e+00 -1.0388810773014596e+00
    9.1378899115467824e+00 -1.6145135181139403e+00
    8.4337117735035996e+00 -1.2822660996700002e+00
    8.0132482722380391e+00 -1.3411939689825119e+00
    8.8664870796431341e+00 -1.0999695781153207e+00
    8.3725612048529978e+00 -1.1665506865190254e+00
    1.4236111700816025e+01 -1.1041482230554582e+00
    1.2775045196837135e+01 -1.2814637084307412e+00
    9.3668293949959747e+00 -1.2237921508381171e+00
    8.0632008237602015e+00 -1.4017955910665791e+00
    7.9008133967079672e+00 -1.0664679236825771e+00
    9.8354759697494973e+00 -9.6755100676715822e-01
    1.4495083666304412e+01 -1.3629943724672147e+00
    1.0953996477700606e+01 -1.3524038094374138e+00
    7.7245509851601177e+00 -1.6971730027878169e+00
    8.6821994067932504e+00 -1.2496582109114487e+00
    9.3473225878341797e+00 -9.4049091604659119e-01
    1.5678625468901263e+01 -1.0489243888803108e+00
    9.1468893081286460e+00 -9.9010579753653960e-01
    7.8119049166507519e+00 -1.3295358844307510e+00
    9.1060165028503501e+00 -1.4684433676974193e+00
    1.0309666598236356e+01 -1.4072453084752132e+00
    8.8120295724332873e+00 -1.0704220357072998e+00
    7.8483090599861578e+00 -1.2035490728451470e+00
    9.1493414962041584e+00 -9.7211011185512131e-01
    9.6901595950946504e+00 -9.3047087282714991e-01
    1.3659049867171770e+01 -1.1269010250693381e+00
    8.3078881575323074e+00 -1.1479955801857222e+00
    9.2344971947804062e+00 -1.6435148954224628e+00
    9.8064470939981767e+00 -1.3043459409675946e+00
    8.4151653410393941e+00 -1.1364377153623555e+00
    9.4762684963020423e+00 -8.8196211281543535e-01
    1.2351371937769297e+01 -1.1907145366178469e+00
    1.5660288416979629e+01 -9.2547873774388434e-01
    1.4941384711792884e+01 -1.1195329852612499e+00
    9.7636150436260998e+00 -1.1536652693844669e+00
    7.3596369741155225e+00 -1.3811746828704903e+00
    9.3265090190149067e+00 -1.5662505069526984e+00
    1.0178651776679731e+01 -1.3400569106156401e+00
    1.0209191664673314e+01 -1.2478804254624161e+00
    1.1152803406894154e+01 -1.1464034591956191e+00
    1.0514914149482273e+01 -1.3074956712392953e+00
    1.6121375321617091e+01 -1.1668469622821545e+00
    1.3093705578601440e+01 -9.9369628071126137e-01
    7.4636865150725384e+00 -9.8118466324642750e-01
    6.8788619754351625e+00 -1.3006299635238179e+00
    7.3533388682992085e+00 -1.4146955803529451e+00
    9.0685876776145200e+00 -1.4984360378205432e+00
    9.8874845010874886e+00 -1.2431732640331763e+00
    1.4905937038112404e+01 -1.1928911890971339e+00
    9.0627519948602728e+00 -1.1717184442527855e+00
    8.7532689529900356e+00 -8.1759178673017685e-01
    9.0838745799873220e+00 -8.4057727577899621e-01
    1.3635879078803963e+01 -1.1337899531158173e+00
    8.3755741546791782e+00 -1.1656274413702878e+00
    7.0002695095699279e+00 -1.3687672826457615e+00
    7.7726497761821562e+00 -1.4667720322409108e+00
    9.4101074722738005e+00 -1.3238682010623639e+00
    1.2671757772176900e+01 -1.2545983994636252e+00
    1.0411886955351939e+01 -1.4130813577920169e+00
    1.0644787246619682e+01 -1.0162524191627020e+00
    1.0815458794866737e+01 -9.1419237092332373e-01
    1.5260705553694617e+01 -1.1847222003507853e+00
    8.1714504582312291e+00 -1.1770641396460673e+00
    8.5785017547340416e+00 -1.0202446738601085e+00
    8.4887525980779195e+00 -1.0883655568091077e+00
    8.4502650629262419e+00 -1.1287284374530859e+00
    1.1499753358106977e+01 -1.1090094571110591e+00
    1.1963835530775976e+01 -1.2994357240482619e+00
    1.8857430740572855e+01 -1.2693416938189144e+00
    1.4913029468447855e+01 -1.0611903452226281e+00
    9.4742050673230427e+00 -1.0241096607772178e+00
    7.8114630547912176e+00 -1.1755407688514332e+00
    8.3568522934070621e+00 -1.0732233152468678e+00
    8.4570171997723182e+00 -1.3353739163097489e+00
    8.1004472622704426e+00 -1.3703474724289644e+00
    9.9709425705902355e+00 -1.1667118381808379e+00
    9.3308355753442402e+00 -1.2275339494315645e+00
    9.5352419646229851e+00 -1.0903172128952630e+00
    9.4106208875796291e+00 -1.0213315748424703e+00
    9.0528325135480632e+00 -1.0315890304630255e+00
    7.8859585903654912e+00 -1.1046477078037988e+00
    8.0972948186078710e+00 -1.3259884820926864e+00
    8.2566517152999861e+00 -1.4439368872201639e+00
    8.5747520863698536e+00 -1.2570452977660422e+00
    1.5124593401980899e+01 -1.3597595818191277e+00
    1.1727764897762357e+01 -1.3882983790823449e+00
    1.0450010230798901e+01 -9.2319062216921621e-01
    1.0193034935115202e+01 -8.3067578548380117e-01
    1.4202718102312522e+01 -9.3526844103826756e-01
    8.2599185947442830e+00 -9.2214400871986713e-01
    8.5952932560293007e+00 -1.3228362800577800e+00
    8.4552002269761655e+00 -1.5122348144985567e+00
    8.4484388645264357e+00 -1.4865450668662215e+00
    9.8402615316041135e+00 -1.1861737748891790e+00
    9.0456741009500252e+00 -1.2846470972244466e+00
    8.9744130495747907e+00 -1.1049298606415829e+00
    8.8304679277377094e+00 -1.0451807939602753e+00
    1.0463125969137677e+01 -1.0508582496509813e+00
    7.6113115039159913e+00 -9.7429897796051945e-01
    8.2763263086620249e+00 -1.0163756284699887e+00
    7.9487086298654797e+00 -1.1818313770187470e+00
    8.3439986839911491e+00 -1.3589521225717127e+00
    1.0386435508119517e+01 -1.1378803699402940e+00
    9.3043545705073356e+00 -1.0713489955520359e+00
    1.0430210602434398e+01 -9.6921407897062517e-01
    1.2256979576161877e+01 -9.3888514852111016e-01
    1.2666808504252828e+01 -9.3235629541442266e-01
    8.1835891820881486e+00 -8.9334326034630696e-01
    8.3310917370825823e+00 -1.1969846748802047e+00
    8.4844351609541224e+00 -1.5119601528919799e+00
    8.7393805209041489e+00 -1.7165118271485236e+00
    9.1954604822964274e+00 -1.2437382437823286e+00
    8.9389157841397076e+00 -1.1175859249568363e+00
    1.1758298030588996e+01 -9.8612575303955874e-01
    1.5357279557916092e+01 -9.3245913819393911e-01
    1.2209914593109854e+01 -8.4524764047200140e-01
    7.9372326102358670e+00 -9.3824213933327083e-01
    8.4426459776737506e+00 -1.0028158218004182e+00
    8.2308101573103158e+00 -1.1182583335338581e+00
    8.2755877465600154e+00 -1.1700225848111128e+00
    1.1117642135649906e+01 -1.1499453846029968e+00
    9.3241733946663832e+00 -1.1797454565695662e+00
    8.7555800622054143e+00 -1.0890104295134870e+00
    9.1198876806643696e+00 -1.0268803566612117e+00
    1.0120080062494283e+01 -9.1685378497037562e-01
    7.3964115433421735e+00 -9.0585738394647275e-01
    8.2129667049904800e+00 -1.0146885838280466e+00
    7.8288568699633805e+00 -1.0561961022226036e+00
    8.1560957504152256e+00 -1.0565408902276452e+00
    1.3597287033356698e+01 -1.3151328657809795e+00
    9.4121036046891433e+00 -1.3161468758785231e+00
    8.2665631773919515e+00 -1.2255423199229516e+00
    8.8787096872291382e+00 -1.2989596744355318e+00
    1.0054816704191921e+01 -1.2203501029069099e+00
    7.6792951329257084e+00 -1.0389219306268647e+00
    1.0054148378922514e+01 -1.6926955720591470e+00
    1.0370134306681505e+01 -2.1481542875229787e+00
    9.9738325401272672e+00 -2.1896863800244177e+00
    8.8301817325205558e+00 -1.3365497179342063e+00
    9.0894434491413740e+00 -1.1632095894101102e+00
    1.2171330346791297e+01 -1.0487449182246085e+00
    1.6576814286226057e+01 -1.2228774722061417e+00
    1.3242746700128237e+01 -1.1107845067746369e+00
    9.7597096736644371e+00 -1.2705887703179595e+00
    1.0657832133871771e+01 -1.4930065621606612e+00
    1.0731131698775096e+01 -1.7410777051276960e+00
    1.1444032889637279e+01 -1.7518373183515392e+00
    1.2302007664289576e+01 -1.3773785603234314e+00
    1.0877155579162480e+01 -1.4516113098458927e+00
    1.7164330232306799e+01 -1.4736709624330235e+00
    1.1572777476910082e+01 -1.1241703620558108e+00
    9.9777789338189660e+00 -1.1167681788591874e+00
    1.1981361505040230e+01 -1.3640455838441405e+00
    1.0236590810314372e+01 -1.3217672225592878e+00
    8.7504134540420999e+00 -1.1478095914120239e+00
    8.8951335432585772e+00 -1.1152525029647145e+00
    1.3209638054174315e+01 -1.2406883152421693e+00
    9.3010245249515773e+00 -1.3458432464354235e+00
    8.1252239140904763e+00 -1.3380559201043527e+00
    8.7384077239870646e+00 -1.5381810969992826e+00
    9.9413234445100027e+00 -1.5818026271297088e+00
    9.0090458821201640e+00 -1.4378226470409960e+00
    1.1469422827364316e+01 -1.4517844211786401e+00
    9.0574715421470486e+00 -1.1602061310288603e+00
    1.0184329980242403e+01 -1.2187077744602346e+00
    1.3482147009476918e+01 -1.3573428679538464e+00
    1.0767646354905056e+01 -1.4623144789229008e+00
    1.1447491137657259e+01 -1.2762872939833543e+00
    1.2107958600509091e+01 -1.4974365191032672e+00
    1.1867619802647143e+01 -1.6338629029950236e+00
    9.6087120931147467e+00 -1.3980176117811283e+00
    1.4275010074110337e+01 -1.1137601540798185e+00
    1.3554577861712646e+01 -1.1791014050799207e+00
    1.2086515536817512e+01 -1.1120949321167299e+00
    1.1161690497905898e+01 -1.5515183401079091e+00
    9.4278480770777406e+00 -2.5378736563503539e+00
    1.1637531229262434e+01 -1.7880588298735101e+00
    1.5467911127196730e+01 -1.4181464079926511e+00
    1.2584290905584623e+01 -1.1237028373377937e+00
    1.7337271081659420e+01 -1.1965319183146765e+00
    2.2192752931422518e+01 -7.4008681733700854e-01
    2.9729307822318557e+01 -8.8206590192202028e-01
    2.0441034930021235e+01 -9.7761632563021716e-01
    1.2661905294270102e+01 -1.9747609299167341e+00
    1.4272870083414544e+01 -4.7872250363946129e+00
    8.4719744576435492e+00 -2.1052714011793161e+00
    2.0136263426458591e+01 -1.2639029639966908e+00
    2.6238867683936682e+01 -9.3004038297610725e-01
    2.2664279249811003e+01 -7.5678758108140498e-01
    1.4553404258952902e+01 -1.3433569295629375e+00
    1.0349143670161951e+01 -1.1979096112560972e+00
    1.3764475511037997e+01 -1.6832069186491259e+00
    1.0078364048970778e+01 -1.9361225800690314e+00
    9.7619524593831830e+00 -2.6373824320793551e+00
    1.0899007426310387e+01 -1.4037017614022635e+00
    1.1808384397426037e+01 -1.1255354237568616e+00
    1.2100313039032679e+01 -1.1686873062555476e+00
    1.1631928615600327e+01 -1.1307609724679000e+00
    1.9031514919575077e+01 -8.5693332391087185e-01
    2.0008605123189472e+01 -1.0161179568342211e+00
    1.4937531911803051e+01 -1.4154684951738934e+00
    8.5855045011613971e+00 -2.3911450918126995e+00
    1.5380982602390400e+01 -5.2015370839940234e+00
    1.3029760683702225e+01 -1.8064243556943078e+00
    1.7529378966657184e+01 -9.6947799404539881e-01
    2.0211718839806426e+01 -8.1582968099488118e-01
    1.7528636592467613e+01 -7.9416370345992715e-01
    1.7220029773616378e+01 -5.6860220011195362e-01
    2.0459763403578403e+01 -4.8849218480779805e-01
    3.0539468533932475e+01 -6.5209160225236018e-01
    1.7247466145576798e+01 -1.0327353955655516e+00
    8.0073642044664961e+00 -2.1634533965523208e+00
    1.0437386636889858e+01 -2.9326117488803232e+00
    7.6321669163835724e+00 -1.3265817141801457e+00
    1.5469464357247968e+01 -8.1010743179608147e-01
    2.2931498886391676e+01 -7.1196776170079767e-01
    1.0613248082485903e+01 -8.7937567904790970e-01
    1.1279547551002265e+01 -6.9312788273470138e-01
    1.9044605868221026e+01 -7.8433273779663382e-01
    1.6255127957769993e+01 -9.9323940284323164e-01
    8.5243365485179972e+00 -1.6430525377812852e+00
    8.7055484823095810e+00 -1.9020115102558108e+00
    7.2911931608889873e+00 -1.0777408979272642e+00
    1.1610419373537066e+01 -8.9728231505019884e-01
    1.7096065605316703e+01 -1.0396744320690103e+00
    1.3585093807131617e+01 -6.2606411781640492e-01
    2.2783791661169772e+01 -6.0108243541660411e-01
    2.9769756189614203e+01 -7.8593657935987593e-01
    1.4167106027186483e+01 -8.8982691301207484e-01
    8.4248476232941787e+00 -1.7410841150923781e+00
    9.1133793339230920e+00 -2.4511597711784994e+00
    7.9649663073546568e+00 -2.0383986161582466e+00
    1.5831377948219188e+01 -1.1304269475568618e+00
    1.8255537865236008e+01 -8.2401421471965919e-01
    8.0131859209067606e+00 -8.1909788787688853e-01
    9.8103928977108215e+00 -7.8703586972860817e-01
    1.7189447674922338e+01 -8.0896688585422039e-01
    1.6163302748756561e+01 -9.7942196210317423e-01
    9.9895960978365039e+00 -1.4974405059492908e+00
    9.8225938579347432e+00 -2.4597152070492148e+00
    9.4075838288804174e+00 -2.3849044037265954e+00
    1.0213082533019655e+01 -1.2250685294199422e+00
    1.0622540104855883e+01 -8.8766601013921154e-01
    7.9750778588035809e+00 -1.0860584694566475e+00
    9.3909716787595698e+00 -8.1135854037842892e-01
    1.4399998235773584e+01 -7.1725291489975873e-01
    2.0855016102152664e+01 -1.1537099850014665e+00
    8.3804440020214397e+00 -1.2663329701456676e+00
    9.8616533632345860e+00 -1.2583541568974150e+00
    7.5562117375843139e+00 -8.6421837496880360e-01
    1.8707961870615243e+01 -1.0116071273889597e+00
    1.1967427258224063e+01 -9.4881885127982168e-01
    6.6785761390056342e+00 -1.2795255816688429e+00
    9.2826498107799225e+00 -1.5055034764387032e+00
    9.6333979686291151e+00 -1.0803227233309058e+00
    1.0343278337586952e+01 -9.2600083433367975e-01
    7.3094674556007115e+00 -1.0527890215850320e+00
    7.6729498572549240e+00 -1.1126468526542264e+00
    7.3838644916691623e+00 -9.4246121883990264e-01
    1.2374443058540582e+01 -9.3019369727842227e-01
    9.4535788331381578e+00 -9.8603835598832079e-01
    6.1296675843256905e+00 -8.3571568680031449e-01
    7.7591909736227223e+00 -8.7179634500786596e-01
    1.5043734291962997e+01 -7.2035138167390755e-01
    2.8302767263071381e+01 -1.1799394752269854e+00
    1.1381029343130541e+01 -1.2264619245045958e+00
    9.8799043412044103e+00 -1.4258374584386477e+00
    7.9016612281258345e+00 -1.3295825791041713e+00
    1.3015145033611933e+01 -1.1178828374121188e+00
    1.0866647149134106e+01 -8.8351238696648815e-01
    6.4092048547509917e+00 -1.2332830501157739e+00
    6.6251249259449176e+00 -1.2957622025189763e+00
    7.7562581477700663e+00 -8.9223885474239639e-01
    1.1336520154638318e+01 -8.2036376656079957e-01
    7.1258720841473471e+00 -9.7185098462883923e-01
    7.4942690739271605e+00 -1.2265752169068858e+00
    7.4499797707561388e+00 -1.1797564812197321e+00
    1.2345779535533854e+01 -1.1763771452973208e+00
    1.1578863147647043e+01 -1.2634610395061543e+00
    6.4030903740729759e+00 -1.2192962375521239e+00
    7.6893086956843852e+00 -1.3069096580643833e+00
    7.6748376541874590e+00 -9.0979369278190347e-01
    1.8518233379425030e+01 -8.8276770142186634e-01
    8.4412495989839389e+00 -9.9872372609498383e-01
    7.6117796519941097e+00 -8.0548257546747848e-01
    7.0715706520588189e+00 -7.6301646997660799e-01
    1.4562843848641307e+01 -8.6789653643340814e-01
    9.0920132057760430e+00 -8.9909389388977146e-01
    6.4256561861336934e+00 -1.2043613964693094e+00
    7.1505346860599595e+00 -1.3361149868230464e+00
    7.4967267371382755e+00 -9.0466536282170640e-01
    1.5673961520493579e+01 -8.7111156992109973e-01
    8.1505525726843686e+00 -7.6996078691589709e-01
    1.0993259398658315e+01 -7.7375338428479157e-01
    9.7202506472943018e+00 -6.7009844966465426e-01
    1.7852672841164193e+01 -8.1249270171634702e-01
    9.8332496032143339e+00 -9.2388312456516186e-01
    6.4411494799788152e+00 -1.1707911068810017e+00
    6.7496674888034738e+00 -1.2458200261507604e+00
    7.6572988219376876e+00 -8.2085037236025560e-01
    1.2184859151124540e+01 -6.7223349750121941e-01
    8.0964832359604753e+00 -8.1042051877125387e-01
    7.1639199304098460e+00 -8.1591130764833031e-01
    6.8955337242396944e+00 -7.7944995674367956e-01
    1.3079529928082518e+01 -7.9001959005673650e-01
    1.5074263101682980e+01 -1.1351832423000132e+00
    6.3618275500278028e+00 -1.0724765080892065e+00
    6.5981860574875544e+00 -1.2494364116149879e+00
    7.8121639791182567e+00 -8.3168715607769572e-01
    1.0391028347827628e+01 -7.4099079076972318e-01
    7.9761622727369321e+00 -7.4167279606410796e-01
    8.3548996379129381e+00 -7.3241431120352507e-01
    6.9922054665526598e+00 -6.0678288632243338e-01
    1.6857764538108107e+01 -6.5755945565866825e-01
    1.4374013385041179e+01 -9.5686895032082442e-01
    8.0350209545762450e+00 -1.3354789774125526e+00
    7.1138293813783342e+00 -1.4027924488562833e+00
    7.8650643625383809e+00 -1.0081102797881047e+00
    1.6175023555647083e+01 -9.6953457827826572e-01
    7.7670599552614750e+00 -7.5254185157327524e-01
    9.4355999833214188e+00 -7.1717541697529141e-01
    7.7908768156086348e+00 -6.5047444810268007e-01
    1.6735320244831687e+01 -8.4513851408876917e-01
    1.1404557789566926e+01 -9.5918591881964199e-01
    8.5392730403674282e+00 -1.3470726978410283e+00
    6.9421319690149845e+00 -1.3689212110757036e+00
    7.4925718619285657e+00 -1.1770866439879419e+00
    1.2081186424327154e+01 -1.0725927960571489e+00
    7.7255075912766786e+00 -8.8574814626949760e-01
    7.3878268753074279e+00 -8.1525505606071191e-01
    7.0014486560808988e+00 -8.2174368550739729e-01
    9.4305156430785217e+00 -9.3524842648228712e-01
    8.7951908718511351e+00 -9.6184358011196458e-01
    7.3388579154143878e+00 -1.0859952479590265e+00
    6.7571358126607750e+00 -1.2780386095253582e+00
    7.4279517240507458e+00 -8.6440064490574453e-01
    1.1017389277938259e+01 -7.9575282897165756e-01
    7.4806480295170203e+00 -7.2014237119637903e-01
    1.0732950885814189e+01 -7.1556426494578451e-01
    8.5534498954038796e+00 -5.8997334727687156e-01
    1.9694669160523723e+01 -7.1741864785638376e-01
    1.6622751977983242e+01 -9.9555518595528625e-01
    7.0153874327720915e+00 -1.0219275731105346e+00
    6.6471663697651007e+00 -1.2862877312573175e+00
    7.5840494594283436e+00 -1.0297859922366741e+00
    1.0736244818622001e+01 -8.2892916991772292e-01
    7.5042353685391614e+00 -7.2352986721611079e-01
    7.8533547388815403e+00 -8.1058908318374601e-01
    6.9341250707708744e+00 -7.2102604175702778e-01
    1.3234756179730244e+01 -8.3667952024771097e-01
    1.3295682131812985e+01 -9.8202792721214216e-01
    1.1354404191363576e+01 -1.3010279121951756e+00
    7.7788392978761678e+00 -1.2612630454855756e+00
    7.7292677387106252e+00 -1.1299009150463624e+00
    1.1522288215515434e+01 -1.0931275914655840e+00
    9.8357674850250021e+00 -1.0828923737337390e+00
    9.0425755126856977e+00 -1.1486517012287774e+00
    8.2244341430648618e+00 -1.1252961695437815e+00
    1.1276971051808003e+01 -1.0360870971697207e+00
    9.8417620088884412e+00 -9.9629192619315676e-01
    1.0882700759043702e+01 -1.2064320007045541e+00
    7.6759887131653137e+00 -1.0634721810414876e+00
    8.0946157097778375e+00 -9.9554815120898699e-01
    1.6861449653540276e+01 -1.2302189853224372e+00
    1.0994029009658528e+01 -1.3338535156844720e+00
    8.0840898227554234e+00 -1.4236433399210238e+00
    8.2133617591083965e+00 -1.5734496887584712e+00
    9.4108524503810749e+00 -1.3606360989926871e+00
    9.3675752027775250e+00 -1.2107824002540579e+00
    8.1728418288501725e+00 -1.0731688466849760e+00
    7.1228301653779731e+00 -1.2284028579247592e+00
    7.5988243870746288e+00 -1.0107177743297309e+00
    1.5137381895250947e+01 -9.8005904738847738e-01
    1.0117270589721658e+01 -8.0586875771143751e-01
    8.7088442088545470e+00 -9.6742747127158957e-01
    7.4088977356115739e+00 -9.8840815386730008e-01
    1.4283297723580000e+01 -1.0179894093408919e+00
    1.4761947293203358e+01 -1.0015937068729501e+00
    8.4847800753648155e+00 -1.1413568172015336e+00
    7.1185945589133137e+00 -1.2112385283645675e+00
    7.5276959961655043e+00 -1.0129258713446698e+00
    1.5920488804499179e+01 -1.0531672094694837e+00
    1.0492193658581810e+01 -9.4355883701140386e-01
    7.5647876830036598e+00 -1.0955651579167827e+00
    7.5571573184018987e+00 -1.2232765096187457e+00
    1.1583451032714974e+01 -1.2771886985216017e+00
    1.2150678955583572e+01 -1.0579238220028104e+00
    1.2049718347391503e+01 -1.3461160934212333e+00
    7.6155305977302428e+00 -9.5491971511209273e-01
    7.8913096646914145e+00 -8.7172367230188896e-01
    1.9870079348380852e+01 -1.1301325394894357e+00
    1.1443511542699836e+01 -1.2516254002740546e+00
    7.7326969396965684e+00 -1.3201591011579277e+00
    8.0999917466140712e+00 -1.5304490161386168e+00
    9.6087661109043374e+00 -1.4676540814356636e+00
    8.9929319597405559e+00 -1.3217177806689047e+00
    1.2621190065905452e+01 -1.5661732901729584e+00
    8.0079388112564782e+00 -1.0978354839921147e+00
    7.9077922429596024e+00 -1.0454276834865148e+00
    1.4065888728726351e+01 -1.1724620227801696e+00
    1.3131132632708240e+01 -1.2358975682136042e+00
    1.0596641091544802e+01 -1.1095269779864725e+00
    1.0266661366445904e+01 -1.1943923697665253e+00
    1.0492854761089369e+01 -1.2631268852872459e+00
    9.4805265918692605e+00 -1.2992364062031858e+00
    9.1473465125508788e+00 -1.1882186014517984e+00
    7.1505485163681710e+00 -1.2066132397028400e+00
    7.4093655093764790e+00 -1.0510339530221038e+00
    1.4564491992158066e+01 -1.0843409504816288e+00
    1.0426802234420283e+01 -1.0228470477827800e+00
    7.0484034487680356e+00 -1.0687114660358072e+00
    7.1026170851687542e+00 -1.1494910154960973e+00
    1.0357455068971431e+01 -1.1591087709691834e+00
    1.1094313427763893e+01 -1.0684675314344183e+00
    9.8696383868282336e+00 -1.2578063546120539e+00
    8.1174194519410214e+00 -1.3727937193442115e+00
    8.9493537732940940e+00 -1.3727133150652928e+00
    1.1540046235142167e+01 -1.3360887270745376e+00
    1.1935808721149513e+01 -1.2838518490821391e+00
    8.6403239830040217e+00 -1.1088515181329692e+00
    8.1129946311736152e+00 -1.0281772953332777e+00
    1.2815010494798916e+01 -1.1754970688602855e+00
    1.0522123093134837e+01 -1.0687293911828082e+00
    1.4802446429819565e+01 -1.3537510229623642e+00
    1.3938870516377413e+01 -1.4673765531945786e+00
    1.3797490015394038e+01 -1.7556046226306352e+00
    9.7250653751427443e+00 -1.7075637022395764e+00
    9.8320036211746462e+00 -1.8170694093362079e+00
    1.0062610915591339e+01 -1.0034935053113629e+00
    9.2661408061554180e+00 -8.3063998310974285e-01
    1.3556454996762461e+01 -1.0846222755059147e+00
    1.1112094481704766e+01 -1.0743380742440547e+00
    2.3527388117429677e+01 -9.7518618195719609e-01
    2.3067770663336312e+01 -1.1805029373283602e+00
    1.0750598587446159e+01 -1.5937042231297271e+00
    8.1143215431990310e+00 -2.1078265049989673e+00
    1.1867955069316793e+01 -3.4400805414332689e+00
    1.6787310207012247e+01 -1.2166301890392290e+00
    2.3002423411851950e+01 -8.8739800368381072e-01
    2.4144282982384290e+01 -7.6676338531619403e-01
    2.0149694042762853e+01 -8.4258863147140761e-01
    1.1397381983462768e+01 -1.1200309536153170e+00
    1.1040541522007986e+01 -1.4055125183710460e+00
    9.4369785193350069e+00 -2.0442597407009231e+00
    9.6807136364463258e+00 -2.2236140236360673e+00
    1.0329795888293383e+01 -1.6437673276175686e+00
    7.4365678000527318e+00 -8.8822818975946127e-01
    7.3032254180606841e+00 -7.9011773376436334e-01
    1.0166961515614730e+01 -9.3776392359485272e-01
    1.1097303191038435e+01 -9.8125039971366967e-01
    1.7261312230524396e+01 -9.3175773418317909e-01
    1.3678477336315893e+01 -1.1870089967680748e+00
    7.5306614441968227e+00 -1.7696392899311617e+00
    8.7511317640846968e+00 -2.3905055443195411e+00
    1.1664994421279163e+01 -2.5230541858595208e+00
    1.3264199075634709e+01 -1.0790539362346656e+00
    1.2726956281953049e+01 -7.5622475324252547e-01
    2.2473458247706112e+01 -8.5592714336627107e-01
    1.7522275362971424e+01 -8.4075714317527572e-01
    1.8302597254066345e+01 -6.2768035329427130e-01
    3.4447870474441466e+01 -6.9267839357512095e-01
    3.1290917788904132e+01 -7.4497599423877880e-01
    1.8138736543521933e+01 -7.7234283280104243e-01
    1.0844288336080250e+01 -1.2804646411798901e+00
    8.9566001485215541e+00 -2.2819877830173243e+00
    7.4942644518846118e+00 -2.0669024647885483e+00
    1.4051056809940789e+01 -1.1853736182689116e+00
    2.1557008455056295e+01 -8.1967701537507964e-01
    1.0145692147412481e+01 -7.7435327385715946e-01
    1.3899985694209100e+01 -7.9077298429702925e-01
    2.0972873022150253e+01 -8.4204405364052637e-01
    1.6460390229028178e+01 -8.0339515489620539e-01
    1.1454756183279004e+01 -1.1482071948802262e+00
    8.5938123394737733e+00 -2.0037204802241111e+00
    8.0012640933057106e+00 -2.4140912005476838e+00
    7.9817562178848114e+00 -1.2682468478923496e+00
    1.0830587335528659e+01 -8.7518038068816406e-01
    2.2774582808821265e+01 -6.5193767080388432e-01
    3.4510799740768277e+01 -6.4170391270871596e-01
    2.7384934571252913e+01 -6.7508715524096363e-01
    1.7199497074430031e+01 -6.9944072515251021e-01
    9.1007257055500705e+00 -9.5913894129073041e-01
    9.6554151595916817e+00 -1.9124440500452085e+00
    7.9044138209412083e+00 -2.1006324602327680e+00
    1.1188063653063915e+01 -1.3488324132246121e+00
    1.9653633418674339e+01 -7.5891525710540519e-01
    1.1523636029335032e+01 -7.0720846688203443e-01
    1.9044893064740030e+01 -6.9468836986782945e-01
    1.8235710490506168e+01 -7.0995292975474911e-01
    1.4078584818876347e+01 -7.1372164209269884e-01
    9.8096205838204007e+00 -9.4859533100962723e-01
    1.0652286459346211e+01 -2.1559741270144079e+00
    1.1920573485096190e+01 -3.9450521998817165e+00
    1.1179611663416003e+01 -2.7348522632250734e+00
    1.1281808792524005e+01 -9.0424150899966393e-01
    7.9516442009391906e+00 -7.7106893749105831e-01
    1.3283460601975799e+01 -8.8780169141761811e-01
    2.3513516887974358e+01 -8.5377724217735185e-01
    3.2068318606883913e+01 -9.9869306594279628e-01
    1.7824925247182737e+01 -1.0608863044650330e+00
    9.9928968770806410e+00 -1.2913224574554278e+00
    7.2119967571127424e+00 -1.6409188105040684e+00
    1.1148411192562840e+01 -1.2673528116031405e+00
    9.5646571323871985e+00 -7.8283012171164601e-01
    7.3381125348979133e+00 -1.1241544322107160e+00
    7.7153106526602357e+00 -1.0283278360960844e+00
    8.6573368599927214e+00 -7.3512754450413631e-01
    1.2496073246267802e+01 -7.3933654016572314e-01
    7.7753072643726613e+00 -8.2128746914064155e-01
    7.9783354829403992e+00 -9.5318107397467888e-01
    6.8050617314079034e+00 -1.1283684519681936e+00
    8.8279488564407469e+00 -1.1633962161277431e+00
    9.4864144721178487e+00 -1.0027312807088644e+00
    8.5573397482391709e+00 -6.9749158292627378e-01
    2.2157645675266171e+01 -7.8757354705167348e-01
    3.1372278178410230e+01 -8.6001666822469258e-01
    2.3965123690023994e+01 -7.8522023657115125e-01
    1.5390976150610557e+01 -9.6991338509431879e-01
    1.1659237313348415e+01 -1.4970077463597111e+00
    9.7701041132461857e+00 -2.7178731113891197e+00
    9.7512935187861469e+00 -2.2211172434505291e+00
    8.5932670716090360e+00 -8.6223613353830464e-01
    7.7604504860392511e+00 -1.0038417247329905e+00
    9.5305611483906816e+00 -9.2338570638253825e-01
    1.2679085751696018e+01 -8.0720678563386006e-01
    1.2531450843787193e+01 -7.6047170607356918e-01
    7.8675340435344738e+00 -8.3560437991078595e-01
    9.2902712925071995e+00 -1.1545835597214540e+00
    7.5003853967611258e+00 -1.9739900217315218e+00
    9.0438862555553303e+00 -2.0402581781149549e+00
    8.4457217981025074e+00 -1.1959472366018369e+00
    6.6552019870846211e+00 -1.1017115646130722e+00
    7.8716813064536106e+00 -1.0321765234225195e+00
    1.0154519714278464e+01 -7.6173547125477914e-01
    1.1745602447125888e+01 -6.6056581693888738e-01
    6.6849264396569144e+00 -7.0272565023107414e-01
    8.5342404188597332e+00 -7.4287035750038644e-01
    6.9909214662193389e+00 -7.4986981018200705e-01
    1.2480879748964094e+01 -8.7549768476936651e-01
    9.8723630539007861e+00 -8.5721157856979380e-01
    6.6758942265691186e+00 -1.0379548655390956e+00
    7.6167677825942484e+00 -1.0555570564210572e+00
    9.9916003098641273e+00 -8.3195862742413484e-01
    9.7111333089816334e+00 -8.1198745973295672e-01
    6.3558214667032482e+00 -8.4796720729515995e-01
    9.3108195326541860e+00 -7.5340419648247181e-01
    7.2231065545991440e+00 -6.0678511203094454e-01
    1.6567617012759801e+01 -6.3372936580247274e-01
    1.0163382596296756e+01 -7.9773047050854262e-01
    6.8807750569860699e+00 -1.0410416743558801e+00
    9.1994704643049552e+00 -9.8589602481659377e-01
    1.2762449939283430e+01 -9.1386608926536383e-01
    1.1062207142025377e+01 -7.5977112093689070e-01
    6.7531691444559314e+00 -7.6843299855556146e-01
    9.6965499681869698e+00 -8.8852929034558525e-01
    7.0415657096700883e+00 -1.1399618154962154e+00
    8.5999316049359606e+00 -1.2036239005473059e+00
    7.6826130005029398e+00 -1.0615500758833385e+00
    6.8785152713355284e+00 -1.0895691016624980e+00
    8.3242361106104070e+00 -1.0863128932778872e+00
    8.6898926953521318e+00 -9.8978148153870038e-01
    8.6212951232106185e+00 -9.4400951964886815e-01
    6.4742071822337977e+00 -9.3913442845848061e-01
    8.5112176742179084e+00 -8.6725988567298029e-01
    7.2497013872234612e+00 -8.3442629960657111e-01
    9.8671952364157427e+00 -1.0020840567411657e+00
    7.7194146324387853e+00 -1.0152276436069423e+00
    6.5141752719687220e+00 -9.8393896540996473e-01
    7.1724901132532750e+00 -1.0675143569337535e+00
    8.0022437134201230e+00 -8.5458815654342002e-01
    1.0267815338670900e+01 -8.7482141388754631e-01
    6.6974218663534719e+00 -8.7902720171180004e-01
    9.9863146814816908e+00 -7.7537568709409299e-01
    7.1882060216135262e+00 -5.9594287649043820e-01
    1.7594120962070104e+01 -6.6278081898398522e-01
    1.1018101041199429e+01 -8.2957488569396398e-01
    6.3926943591594343e+00 -9.7992111583052344e-01
    7.1528862694387243e+00 -1.0970783935058028e+00
    7.5716652873706201e+00 -8.9554981286470048e-01
    1.0768389380639535e+01 -7.4015451105574148e-01
    6.9078877951752631e+00 -6.7994212132410459e-01
    9.6441110392251534e+00 -7.1320092992993056e-01
    7.8552851727066795e+00 -6.1911583803699410e-01
    1.6318753428286001e+01 -6.7365916989077002e-01
    1.0440841686167522e+01 -8.4137850406208803e-01
    7.0219306776044741e+00 -1.2157770550871776e+00
    7.7299157695618455e+00 -1.1933255021005829e+00
    7.9669804669550404e+00 -1.0066593338631462e+00
    9.4484314572356407e+00 -9.4921208362812848e-01
    6.7783137251011478e+00 -9.4086424989381423e-01
    7.7714948017548391e+00 -7.8676118514717230e-01
    6.8738571098708316e+00 -6.5033744499825430e-01
    1.0630770009745383e+01 -7.3818087405830657e-01
    8.2579084492129571e+00 -1.0380106359583208e+00
    6.7836936075286793e+00 -1.1730196144526870e+00
    7.8826183887634862e+00 -1.3183225974851136e+00
    8.5989488981003674e+00 -1.1480793281933899e+00
    9.5267079511574799e+00 -7.2418435678196935e-01
    6.9626607982588826e+00 -6.8803372854613842e-01
    1.0093459698872502e+01 -7.1164736998327849e-01
    7.4832310910922812e+00 -6.1764248572786795e-01
    1.2991622384692938e+01 -6.8748563050129896e-01
    8.2354636423458949e+00 -1.0107167443129073e+00
    6.5967733502640904e+00 -1.0729962365981447e+00
    6.4069756886646267e+00 -1.0892901325400224e+00
    6.6918575028811302e+00 -8.5309260144569687e-01
    1.2073273927472986e+01 -8.0704013959171539e-01
    8.6801181477222595e+00 -7.1186001361115503e-01
    9.8047702573194311e+00 -8.5815677779256649e-01
    7.0495797372937634e+00 -7.9958468103648339e-01
    1.7168445076302483e+01 -8.4675386567931299e-01
    1.1982680254256357e+01 -9.1569087646139724e-01
    6.8339667494557155e+00 -1.1330371172888043e+00
    6.6116119275965373e+00 -1.2855172827278087e+00
    6.9709029435412972e+00 -9.9468090642514650e-01
    1.1218833260744749e+01 -8.5774905634106391e-01
    8.8431688188890547e+00 -7.7751570066108433e-01
    7.0005021739027313e+00 -8.8855005970464618e-01
    6.4768795933493921e+00 -8.7037013598293111e-01
    1.2686334539030838e+01 -8.9544423028756570e-01
    1.2837840981869975e+01 -1.0038955897693200e+00
    6.6576685684057626e+00 -1.1607805735459387e+00
    6.8794336730768659e+00 -1.1852508349692288e+00
    9.0820867159944676e+00 -1.0273327659846976e+00
    1.1324614054389631e+01 -7.5564305651084140e-01
    8.7754510001638959e+00 -7.2119553589734442e-01
    1.2105712949170503e+01 -7.5009964901453829e-01
    8.3715573046711356e+00 -6.5204044373573311e-01
    1.9155446182073877e+01 -8.3843694196192509e-01
    9.7882668723047619e+00 -1.0264340134404897e+00
    7.1351827439988131e+00 -1.4282881747531813e+00
    8.5953812314893039e+00 -1.5902552490037274e+00
    9.5647083328095128e+00 -1.1854699596507245e+00
    1.2048731435131614e+01 -8.6957207362963951e-01
    9.0560665850163122e+00 -7.9469330274874450e-01
    8.3010690450744153e+00 -8.0699515759524176e-01
    6.9294739037953557e+00 -7.2401864166515184e-01
    1.3469492973685417e+01 -9.1248287880062906e-01
    1.2068743729955031e+01 -1.2872501368598175e+00
    8.0213651421398549e+00 -9.3028787601088503e-01
    7.7048524336194779e+00 -1.1932880015344085e+00
    9.2792803036696743e+00 -1.0150441491123647e+00
    1.2036960459387842e+01 -7.8622917525798763e-01
    9.5182558877424093e+00 -7.2073488302408850e-01
    8.3353462126232998e+00 -8.4497339618592160e-01
    7.3636200493067756e+00 -7.5075827004505025e-01
    1.7935768702103161e+01 -8.0877642202829092e-01
    1.3850958484198442e+01 -7.8326887777157383e-01
    8.6900230583342548e+00 -8.7895309494183460e-01
    8.4581008720388269e+00 -1.3550541985260069e+00
    6.6141466696581528e+00 -1.4256334864109093e+00
    1.0999920478408303e+01 -1.2742622583842524e+00
    1.1511421596379144e+01 -9.7832953240934206e-01
    9.0448824297080481e+00 -8.4646114220495539e-01
    7.8346467047449790e+00 -7.4567557040926891e-01
    1.8321201239851682e+01 -8.8636403940728281e-01
    1.2997880710478542e+01 -7.5609447243352468e-01
    8.2056697466070005e+00 -1.2233252145211047e+00
    8.0819007645577088e+00 -1.8205254993857152e+00
    7.3843294338058323e+00 -1.4328492708950218e+00
    1.2237606510978582e+01 -8.5758275006259044e-01
    1.0823957362141011e+01 -7.3583711515457795e-01
    9.3226423664858018e+00 -7.0846534615391077e-01
    7.3387163213714040e+00 -6.4353813380974034e-01
    1.3736052718011807e+01 -6.9102395526841198e-01
    1.4567682566445795e+01 -9.7853020176573602e-01
    8.9510609135472166e+00 -9.6448494137345775e-01
    6.1098702539843650e+00 -1.7266772071322469e+00
    5.9718141530562976e+00 -1.6272125816803968e+00
    9.9856072547654247e+00 -1.2843994114153103e+00
    1.5316279568679306e+01 -1.0446112793490137e+00
    8.3938654162308008e+00 -7.2841883389809892e-01
    7.2188633429715221e+00 -6.6069332354262267e-01
    1.2233818454477925e+01 -6.7448422278852238e-01
    1.6374961611362806e+01 -8.0241094805587876e-01
    1.2983313987955560e+01 -8.1182083239809200e-01
    9.3986300829032068e+00 -1.2532657698470659e+00
    6.9843110577383607e+00 -1.6726842191452096e+00
    8.9469104621782041e+00 -1.7020287867570445e+00
    1.2150389249364425e+01 -1.1710231264335760e+00
    8.3368002158005599e+00 -7.8130570718416303e-01
    7.3769787015728916e+00 -6.8019562535022693e-01
    1.7439046777070981e+01 -8.2762673034543377e-01
    1.5101003376162273e+01 -7.0113251184984182e-01
    2.6244217643600670e+01 -7.9988135409299366e-01
    1.4511217625119009e+01 -1.1784876083326672e+00
    6.6862688245509050e+00 -1.5852179544591496e+00
    7.8278517890672132e+00 -2.0023518398977718e+00
    1.0129158203380321e+01 -1.2319269777430206e+00
    1.7233014590669626e+01 -8.9519829479560020e-01
    1.6382156968832899e+01 -6.4011163978600760e-01
    4.0039418967508318e+01 -8.3315099664993253e-01
    3.4358776463409015e+01 -7.9110466346337627e-01
    1.2607255488580408e+01 -8.0875969135630255e-01
    8.4192425145781673e+00 -1.9293400004646424e+00
    7.5804069288276281e+00 -2.0655274026718828e+00
    9.0453875274345137e+00 -1.5288399898054950e+00
    1.1470862861856881e+01 -1.0063113091656433e+00
    7.1175799015041532e+00 -7.2879002438865248e-01
    6.5498631022919067e+00 -6.3880251426288215e-01
    9.4102772778809847e+00 -6.0496796822146270e-01
    1.4904989245509890e+01 -6.4452854921102332e-01
    2.1969381577228678e+01 -7.6200949372956350e-01
    1.1386597095125730e+01 -1.3545665177116022e+00
    7.6107919331226705e+00 -1.9585124442487374e+00
    9.4840818589258102e+00 -1.7690585845052926e+00
    9.9321203041750969e+00 -1.0805088227536783e+00
    8.9725614118294352e+00 -7.3566564115406774e-01
    7.3950098975426286e+00 -5.9811443123217278e-01
    1.3478251588381164e+01 -5.4818903454258983e-01
    2.0558094074371805e+01 -6.1098061988036989e-01
    2.2976355372515535e+01 -8.0908248120757353e-01
    3.0907949452258023e+01 -7.3154880522862786e-01
    2.1095475770612094e+01 -6.8790057717202813e-01
    1.7701152751408120e+01 -7.9482746497458456e-01
    7.9450759940807982e+00 -1.0649856558016462e+00
    1.1090470699588197e+01 -1.6166249160645882e+00
    8.2051617700626593e+00 -2.3738241441442325e+00
    1.1178079826646291e+01 -1.7724382348488845e+00
    1.9956215421557236e+01 -1.0110395117033855e+00
    1.4166802388154188e+01 -8.5697714403162140e-01
    1.9479524101166330e+01 -7.0505441449226314e-01
    1.6126806948975926e+01 -7.1029487555725868e-01
    1.3389085887103830e+01 -7.3772477852885443e-01
    8.2173739270925079e+00 -1.0069484835337130e+00
    9.8186669000501468e+00 -1.6879160884594004e+00
    1.1973881635083142e+01 -4.0268106293297183e+00
    9.9270258023110678e+00 -3.1750737244044624e+00
    1.0355275181891047e+01 -1.1558867008823115e+00
    2.1330816513772685e+01 -7.8523027315776595e-01
    2.8511049147232523e+01 -7.0534794217113317e-01
    2.1110023397696008e+01 -7.2169097488818623e-01
    1.5326366042137117e+01 -7.5934915071175135e-01
    7.6421906786604348e+00 -1.1368946263575803e+00
    1.3046273423767685e+01 -1.0848856440497638e+00
    9.5447454739834647e+00 -1.5396893319562150e+00
    1.0520612984743343e+01 -1.1985414105073533e+00
    1.8879268730079808e+01 -9.6389536058737146e-01
    1.4395029376694030e+01 -8.6813697695972969e-01
    1.9501997045120280e+01 -6.9610418603468149e-01
    1.5897430118366541e+01 -7.0017654935328577e-01
    1.1557943238277609e+01 -6.7878820737845280e-01
    7.1937215553408791e+00 -1.0568089252963706e+00
    1.0988563275110515e+01 -1.1746887942197093e+00
    8.3360750861150752e+00 -2.3856114782814366e+00
    7.7594750458116222e+00 -2.1214770072146591e+00
    1.0140462411404098e+01 -1.1567398724286977e+00
    1.4235804502497020e+01 -7.7537766451785650e-01
    2.9898951766410459e+01 -6.6501262706684650e-01
    3.5417002226987854e+01 -6.8941345140651489e-01
    2.4318811025736817e+01 -6.1148634183615880e-01
    1.4594889424951326e+01 -7.9950080625839626e-01
    1.3929145609978075e+01 -1.2172280156312729e+00
    1.1208364649792628e+01 -3.2470617677989866e+00
    1.0644450379231566e+01 -2.8477469133006870e+00
    9.0390194247354678e+00 -9.9027659518873623e-01
    8.8143000068958042e+00 -9.7732603777507110e-01
    1.6719181708288374e+01 -8.0143413018098730e-01
    2.4435657678092863e+01 -7.7352906561286883e-01
    2.0334660136428113e+01 -7.5429041888566950e-01
    9.5719355489509308e+00 -8.4623002694549165e-01
    7.8608292763359291e+00 -9.0095075455745610e-01
    7.9928942793711926e+00 -2.1223105180008766e+00
    9.9150642537307512e+00 -2.8561233881521133e+00
    9.1635395734377791e+00 -1.5041553879610143e+00
    1.2754061852792484e+01 -7.2989706977543578e-01
    3.2345765071683481e+01 -6.5830983482511407e-01
    3.3063265930142016e+01 -6.3178408825008125e-01
    2.0250540917000261e+01 -5.8098660757494180e-01
    1.0267133095664736e+01 -8.0508499285113144e-01
    1.6475655002286253e+01 -9.2687971103950184e-01
    8.5363449752807430e+00 -1.7891155368913760e+00
    8.4005783697747596e+00 -2.0162878113480844e+00
    9.2264293630680179e+00 -1.0656375135836043e+00
    9.2831519114073817e+00 -9.9531189016990174e-01
    2.1984188734978051e+01 -8.4289620421525646e-01
    2.5797352299701789e+01 -7.4115648477851215e-01
    1.7617267608178011e+01 -6.4556073045860507e-01
    1.0643043100004736e+01 -8.6627136951502193e-01
    1.0742753839971369e+01 -8.8198830457409971e-01
    7.6158449198015532e+00 -1.8389709122033220e+00
    9.6478455226146522e+00 -2.4780888599670430e+00
    9.9526601304740403e+00 -2.0821915206575268e+00
    8.4466472441684779e+00 -1.1757645124770761e+00
    1.3232875977460736e+01 -1.0214145956238052e+00
    1.7080450486484462e+01 -9.7613306132182354e-01
    1.5182474993206997e+01 -7.7292429648883132e-01
    9.8003277981443393e+00 -7.6097640557098767e-01
    1.1992973687270901e+01 -9.4833931002604366e-01
    7.8336324557714736e+00 -1.4664073342313249e+00
    9.1515180824640829e+00 -1.8781426871627005e+00
    8.8656179456271396e+00 -1.5760240527996401e+00
    8.3514516441210862e+00 -1.4078664180476197e+00
    9.9473475157306339e+00 -1.1976159212690771e+00
    9.4130889778215874e+00 -1.0522754222601514e+00
    1.2175886935667616e+01 -9.7595738448051617e-01
    9.8618587410586844e+00 -9.4139736949734854e-01
    8.7767957324573835e+00 -8.0571712856086874e-01
    7.5986883948224300e+00 -9.6292416514881796e-01
    9.6070185050450707e+00 -1.5074164817697751e+00
    8.6580862281466366e+00 -1.5906674673757446e+00
    8.8709965737025076e+00 -1.2354136244553231e+00
    1.9131222453038010e+01 -1.0255074160213826e+00
    2.8469580219247433e+01 -9.3502667375981685e-01
    2.3049916976920624e+01 -7.5719737273780208e-01
    1.5316788303645160e+01 -9.2760576599011701e-01
    1.4095671151637504e+01 -9.1772086781362161e-01
    8.8833046669605800e+00 -1.4839622256675842e+00
    8.7570691604200999e+00 -1.8287645660255429e+00
    8.4335245116427178e+00 -2.0517030363985818e+00
    8.7744044569075754e+00 -1.6304362559169472e+00
    1.6673700291993526e+01 -1.1850674350724697e+00
    2.2898417765450130e+01 -1.0883216200455794e+00
    1.6625881811532675e+01 -7.6566538741226464e-01
    1.0626769192390739e+01 -8.5290693178532484e-01
    8.4893909041618691e+00 -7.3302069798716174e-01
    7.8491107086139777e+00 -1.0079486085284792e+00
    9.0459885715090316e+00 -1.8697908272630577e+00
    8.7361844400218907e+00 -2.2030275287530259e+00
    8.0838619137335908e+00 -1.6205496566697950e+00
    8.0935375530834737e+00 -1.2163004726734146e+00
    8.4651574774476916e+00 -9.8700684312346010e-01
    1.1934348292749723e+01 -9.2277579804663590e-01
    1.0065037833768329e+01 -9.0511781681974057e-01
    9.2093158208748100e+00 -7.9928860427729609e-01
    8.2353171228030853e+00 -7.6530575410605017e-01
    1.2191025450501389e+01 -1.0759840223026211e+00
    8.8049496347850411e+00 -1.5678384578881863e+00
    7.6521927681417692e+00 -1.5619989228987374e+00
    8.9301015154061272e+00 -1.3502630154069055e+00
    1.2124425516874899e+01 -1.0795760240862164e+00
    1.3513459712631336e+01 -7.6001381322911765e-01
    1.1573852846108808e+01 -7.7945611263775505e-01
    1.1809324362307564e+01 -7.1979030524799370e-01
    9.5000897992020104e+00 -6.8601686713905752e-01
    1.5161273712196833e+01 -8.5346253273645412e-01
    8.6106616085641736e+00 -1.3066719202704855e+00
    7.8362907937991029e+00 -1.9800995098397782e+00
    1.4899108093303344e+01 -1.2242626370186789e+00
    2.1790992824829303e+01 -1.0067528511640071e+00
    1.8115125122640208e+01 -7.7293695917562033e-01
    9.9322405457029532e+00 -8.1397287092561166e-01
    8.7089426015301221e+00 -6.9547905760686679e-01
    8.6739980279644993e+00 -8.3338118183272136e-01
    1.0353251835297899e+01 -1.5193274443211000e+00
    8.3712531601652316e+00 -2.1848565039933785e+00
    7.7622140526506858e+00 -2.0066636774158231e+00
    9.1131545396400924e+00 -1.5092069256974148e+00
    2.0022209928906854e+01 -9.7997561816820844e-01
    1.8781827188215019e+01 -8.0510388032679447e-01
    9.3359677972574033e+00 -8.0605174543960345e-01
    8.9817092665450406e+00 -6.7541907148386671e-01
    9.9770289313693823e+00 -7.2067936219829354e-01
    1.4627382679678327e+01 -1.0574327248701609e+00
    8.2761847350953861e+00 -2.0351954030036143e+00
    7.3155918980053611e+00 -1.3379433846458626e+00
    8.9662555441309202e+00 -1.2830719965970891e+00
    1.6582653081252957e+01 -1.0757033132978397e+00
    1.9361986412809284e+01 -8.3484798458330256e-01
    1.3599255495484936e+01 -8.0338922046160544e-01
    9.8858700392089798e+00 -6.3294418772448247e-01
    8.7017946868009943e+00 -6.2805908237868424e-01
    1.6115336596658093e+01 -7.6064318642673800e-01
    9.9219199000930693e+00 -1.0924539709311010e+00
    7.8318223722399516e+00 -1.6356543004641719e+00
    7.1795761170137533e+00 -1.6865240857526924e+00
    8.6850703808429550e+00 -1.2733967544325362e+00
    2.0400842008200243e+01 -9.6160318779160792e-01
    1.5408348437581935e+01 -8.7329243554692915e-01
    8.1763797392230586e+00 -6.6146304071268036e-01
    7.7245881522884803e+00 -6.6350381851894691e-01
    1.3139081813279670e+01 -7.9946391997785726e-01
    1.1313902056187393e+01 -1.1624804729703886e+00
    7.2370437121925573e+00 -1.9950878805070071e+00
    7.1874866448692885e+00 -1.6367945228604797e+00
    1.4988104123205879e+01 -1.1860536334170537e+00
    1.6238766339322478e+01 -8.3937500670542486e-01
    8.7538925789346642e+00 -7.7875202687245393e-01
    8.8526436602388472e+00 -6.3677236098994450e-01
    1.1186805025585674e+01 -6.5266529040037902e-01
    1.6803594361948033e+01 -8.1646576183250597e-01
    1.0467797637282779e+01 -1.4931147590650173e+00
    7.2853956491205993e+00 -1.9491338481835143e+00
    7.2464324855371816e+00 -1.8078746038071325e+00
    7.3965026168219170e+00 -1.2949859539152260e+00
    1.5111303514983907e+01 -1.0106949713303763e+00
    9.9214288599123428e+00 -9.0946309876114495e-01
    9.1841185862074273e+00 -6.8306011097525832e-01
    9.4744968865251344e+00 -6.5591682015478647e-01
    1.8928794235984981e+01 -8.5476634738834778e-01
    1.1204501785605443e+01 -1.1740372957062060e+00
    8.0302425256259315e+00 -1.2039099717302759e+00
    7.5218275349012078e+00 -1.8492616719264212e+00
    7.1876943286157298e+00 -1.4264961874331474e+00
    2.0966797310054130e+01 -9.3248155543667477e-01
    2.1526205404928401e+01 -7.7631338874897060e-01
    9.4942195590898528e+00 -6.2592709660328150e-01
    7.6129852207741697e+00 -6.0946630327586482e-01
    1.5812374770109194e+01 -6.7120848947624112e-01
    1.4326525698701321e+01 -9.0793550656023603e-01
    8.6087654376859355e+00 -9.2817785854551482e-01
    7.6566953534603339e+00 -2.0362800966797976e+00
    7.5440284369619155e+00 -1.8644853613886032e+00
    1.3776216641476617e+01 -1.0615678103737267e+00
    1.3792116967874279e+01 -7.5479572029364050e-01
    7.9656780292398111e+00 -6.4346514484825179e-01
    7.3158983526732042e+00 -6.0790008051293254e-01
    1.1429519504348459e+01 -6.0187884728950447e-01
    1.7236089147660412e+01 -7.5456134587824630e-01
    8.8350942126439431e+00 -1.3886390043292141e+00
    7.4387289203455049e+00 -1.8416534789273293e+00
    7.2786704524488259e+00 -1.3544408358090443e+00
    1.5689006554363955e+01 -8.4186411275704542e-01
    1.0040329769483877e+01 -7.7124560772286033e-01
    1.0252020676343426e+01 -6.4012080505056268e-01
    9.9485544465667477e+00 -6.1061260870206391e-01
    2.3867550144580964e+01 -7.5375595650711502e-01
    1.4210253882641274e+01 -8.5793677053895967e-01
    8.7856817833022873e+00 -9.5654255192999971e-01
    7.5724032607440757e+00 -1.8159070112685118e+00
    7.4799380828409232e+00 -1.4949595230840576e+00
    1.2659245853131194e+01 -9.3197228873459770e-01
    8.8466876492129156e+00 -9.1875357053841589e-01
    7.8868253575750096e+00 -6.8316214927195773e-01
    7.5657060669477119e+00 -6.1574504191104307e-01
    1.3711143162424245e+01 -6.3372772576304914e-01
    1.6402733705519374e+01 -7.7966833845627392e-01
    1.0623170417513327e+01 -9.1258529419009493e-01
    6.5934431690501070e+00 -1.8561272576085495e+00
    6.6003178719147781e+00 -1.9102410029932342e+00
    8.6916246670591857e+00 -1.2788866079974555e+00
    9.2182795799232249e+00 -8.4340890442091954e-01
    8.9871535353831113e+00 -7.5568097725255368e-01
    8.3397774717620905e+00 -6.6437713104841023e-01
    1.3279297662181786e+01 -6.5605042297100102e-01
    1.9131624403613721e+01 -7.6696270201803629e-01
    2.0411025606157178e+01 -8.4186584107762685e-01
    9.1846576178293002e+00 -1.3636367965839158e+00
    6.5474620594285664e+00 -1.6789634655197767e+00
    9.5417332661869327e+00 -1.4190841440895725e+00
    9.0179893884993838e+00 -1.0152576221182230e+00
    9.5900923562394578e+00 -7.7076263237440090e-01
    8.9435824232583023e+00 -6.4712854023127897e-01
    1.6866334749310465e+01 -6.2736061350114480e-01
    2.6463257962932225e+01 -7.5600999415352543e-01
    1.0144152364627109e+01 -9.2983318683659122e-01
    6.8462350304148032e+00 -1.5897195333286438e+00
    6.7196507455458629e+00 -1.5695581564372150e+00
    1.1708906480377753e+01 -1.1672663677401913e+00
    7.7969160900001837e+00 -1.0512560312905270e+00
    8.3694683837170700e+00 -7.9596963511382279e-01
    8.6354846650477004e+00 -6.8473493297029542e-01
    1.3587915453202333e+01 -6.7442544084880052e-01
    1.8163788953435166e+01 -8.1263487338651874e-01
    1.9818830633268419e+01 -8.7379383667374189e-01
    1.2300021573260466e+01 -1.1222444391862503e+00
    8.6718977841072693e+00 -1.1694122907717741e+00
    1.1488295514109478e+01 -1.1711155731456304e+00
    7.6206865242554844e+00 -1.1668746322979786e+00
    8.4643527728397743e+00 -8.0692501189530108e-01
    9.2295614406259894e+00 -6.7526148207483416e-01
    1.5569082179219421e+01 -6.3062687396521189e-01
    2.3385241840184467e+01 -7.6021727376554393e-01</input_scale>
  <output_scale>
    5.2631578947368418e-01 4.9999999999999994e-01 5.2631578947368418e-01
    4.9999999999999994e-01 5.2631578947368418e-01 4.9999999999999994e-01
    5.2631578947368418e-01 4.9999999999999994e-01 5.2631578947368418e-01
    4.9999999999999994e-01</output_scale>
  <inv_output_scale>
    1.8999999999999999e+00 -9.4999999999999996e-01
    1.8999999999999999e+00 -9.4999999999999996e-01
    1.8999999999999999e+00 -9.4999999999999996e-01
    1.8999999999999999e+00 -9.4999999999999996e-01
    1.8999999999999999e+00 -9.4999999999999996e-01</inv_output_scale>
  <weights>
    <_>
      1.2372685235615121e-02 2.8032415257915822e-02
      4.0691403417471933e-02 -5.0193630465290347e-03
      1.4103744532997608e-02 2.1716360686060691e-02
      2.4942986456384718e-03 3.1111393422006330e-02
      2.5245560536734071e-02 5.2368755481823091e-02
      -2.4019861782896446e-02 -2.5848293054332550e-02
      -2.8396649496681766e-03 -6.8044912879803077e-02
      9.5647368316601721e-03 4.4623105444129847e-02
      4.4782481013742673e-02 2.2463208646814052e-02
      5.0758931122109767e-02 6.7405318330688484e-03
      -2.6759255461730688e-02 -8.3375203998313122e-02
      -2.7573272910300616e-03 -4.3254106931013229e-03
      -3.8323271392920646e-02 -1.0378635208053960e-03
      -2.8032397916889090e-02 -1.9022148567209737e-02
      -1.7467672395162372e-02 8.5105139432502287e-03
      4.7924938541673966e-03 7.2280554685780268e-03
      -5.5261211513821262e-04 -3.0074223519144020e-02
      -2.3380530242581656e-02 -1.0317349760007131e-01
      -3.1898555341542213e-02 5.0650044347119762e-03
      3.9810867225991739e-02 -2.9102180872514632e-02
      2.1461648621389988e-02 -2.9400857591007305e-02
      5.6350161293303745e-02 7.5731225256355558e-03
      6.4986210450209271e-04 -1.7322739745701060e-02
      -4.0237346984844116e-02 -3.3211598798852583e-02
      2.5280970515052667e-02 -4.2985849800584869e-02
      6.2767132189540539e-02 8.2474623048133262e-03
      -1.0690935317697969e-02 9.4614016724520869e-02
      2.0695595511536075e-02 2.0059751886026048e-02
      5.4030473043561622e-02 6.9146929537708790e-02
      -5.4616539290120496e-02 -5.2240781386708110e-02
      5.7162145004461175e-03 -9.6167615815510019e-02
      -3.6323049294594040e-02 4.5253314156766491e-02
      2.9349015529839517e-01 4.0677124713447914e-02
      7.5420109206543087e-02 -2.4658618186234166e-03
      -5.0960983721039695e-02 -1.1027782999488756e-01
      5.2768462807824823e-03 2.0275129960016239e-02
      -5.0535085776327968e-02 -1.3579210070633318e-02
      -5.2345685182676877e-02 -1.9432272480482484e-02
      5.0283268462595426e-02 2.2932446468574886e-02
      1.7630449697153699e-02 2.9808650762363113e-02
      2.3112303113938842e-02 -4.7429283429360668e-02
      -7.4470331348522018e-02 -1.8427663786132178e-01
      -4.0774405748131945e-02 -4.6999193275729510e-02
      7.2056984961696227e-02 -6.7280489507754518e-02
      7.1020968422828379e-04 1.0683521342419941e-02
      7.3276123955618416e-02 1.5158846908237251e-02
      -3.7620079007540906e-02 -4.6515163711343982e-02
      -4.4996833092764955e-02 -4.2644983694988071e-02
      3.4045295942764363e-02 -6.9470724257633135e-02
      9.3249114962832974e-02 2.4154999344495314e-02
      -1.8551506883717626e-02 9.5559177345302906e-02
      3.4308166439918991e-02 6.9314476399132277e-03
      7.6363980750440097e-02 5.1333466745063790e-02
      -9.0214024935574760e-02 -5.9747215081843920e-02
      -3.1203512217089314e-02 -1.4914264015138315e-01
      -4.6938110548475187e-02 6.4220027873128083e-02
      2.2575789134073349e-01 5.6346711197955555e-02
      1.0789271935933534e-01 9.1220249010405194e-03
      -5.9959374920174315e-02 -1.4611376436301060e-01
      4.1143105617821223e-04 -1.2397941592628157e-02
      1.3636444391619719e-02 -2.5736387482756327e-02
      -6.4111095892533790e-02 1.6843295701224410e-02
      4.0521953651329962e-02 4.5575991387485651e-02
      2.0814343755806573e-02 4.0494844874782880e-02
      2.9615431379533302e-02 -6.3630187387311993e-02
      -6.8675212249279693e-02 -1.3107798883701063e-01
      -6.1319791003505188e-02 -3.7006569547174496e-02
      8.8930261920682582e-02 -3.6685863090187489e-02
      -1.8338652031747275e-02 3.2381000728153184e-02
      9.4351610919178069e-02 2.9820849343491791e-02
      -3.7130018988177436e-02 -6.1980877421235155e-02
      -4.8401612331475510e-02 -5.9325785562082907e-02
      3.9238124263877197e-02 -5.9635616408356303e-02
      6.6321456072210822e-02 1.8556921269282361e-02
      -1.0072763787915969e-02 3.2000493175741343e-02
      3.0407705658573782e-02 2.9753892526735687e-02
      5.1597588551665130e-02 4.8454318345448388e-02
      -5.4695060204344292e-03 -3.6383205746620469e-02
      2.2808224924084373e-02 -4.6276734976818501e-02
      1.6293263285603165e-02 3.9451070490023318e-02
      5.8071096575940333e-02 3.9659375489956121e-02
      7.2465896096450891e-02 1.1118114915790412e-02
      -3.7732232942013638e-02 -1.0578814507510399e-01
      -5.9479624085830608e-03 -3.1242741481973653e-02
      4.6846946451191744e-02 -2.6608874333084294e-02
      -4.2033408013956490e-02 8.3244128014392672e-03
      2.6847044309001616e-02 2.3910481893456414e-02
      1.6157696638671084e-02 2.7821189546503710e-02
      1.9153309604898749e-02 -4.0840621777866334e-02
      -2.4336830032486243e-02 3.5757924956412832e-03
      -4.6839663886229080e-02 -4.3664266648166472e-02
      4.4032272313515163e-02 3.3639611001579903e-02
      4.8155229229008200e-03 4.7540811923507106e-02
      4.7914863340777276e-02 2.9025355252969724e-02
      -2.5570335007613954e-02 -4.5679908781863711e-02
      -2.7918139455042356e-02 -3.8889607696113077e-02
      3.4638687689323377e-02 -3.5634679495111031e-02
      6.0194320030350967e-02 -2.8237159030130191e-02
      1.5701749812196224e-02 -2.9351788289715165e-02
      2.8522428370005636e-02 -9.5244807226374430e-03
      4.9068869163786916e-02 -8.3172372261010718e-03
      2.7682796335801958e-02 -2.7667886147228690e-03
      8.7228686675155820e-02 1.4663405635454643e-02
      1.2707947922502402e-02 1.8871817749679533e-02
      8.3820628632964814e-02 1.4256896814921909e-02
      6.9125448787063032e-02 9.9003545157995542e-03
      -5.3735853400218745e-03 -9.2195546108717413e-02
      -3.7272602584671355e-02 -1.1865683957974386e-02
      1.0156196706611592e-01 -2.8235814232720469e-02
      -5.0627011796246194e-02 -1.9422913639484964e-03
      -6.2847320552403177e-02 6.2467942895247960e-04
      -8.7537122238804128e-03 3.4995639221107412e-02
      -1.0334512510358457e-02 -1.4089096565506568e-02
      2.3093072963788729e-02 -2.0046806444942680e-02
      -4.7812415224527560e-02 2.9035934761304488e-02
      3.8923809431459047e-03 4.7894479170344090e-02
      -1.7969095505166274e-02 -1.8935161823855080e-02
      2.0303331829352740e-02 8.3291929461744678e-03
      -3.1124673932524192e-02 -9.9617394261905419e-03
      -5.1162882780683129e-02 -8.5269318817243010e-03
      2.1373519075600641e-02 -2.3183152375271944e-02
      3.0782859369923730e-02 -6.5265974044448463e-02
      -1.0873410178265968e-02 -3.2628036719061849e-04
      5.2859978127643885e-03 8.2816323402973527e-02
      2.3074573592755228e-02 4.6750226789538690e-02
      -2.9499102750790145e-02 -1.3253661234333032e-02
      1.8141492682040326e-02 -3.6647379912495184e-02
      2.7533534494919954e-02 8.3546990057944276e-03
      8.1451857004884130e-03 1.5221555271634936e-02
      3.3840774271051123e-02 3.5192674487953803e-02
      -1.4946177853470438e-02 -4.9727188861997229e-02
      1.2032921936012639e-02 -6.3016188876553705e-02
      9.1841488413017994e-02 -8.6969228615565441e-03
      -1.6967422445127008e-02 2.8592973086023692e-02
      -6.6535915331990950e-02 3.0885703206835029e-02
      6.1813491245304632e-03 1.8957312520926861e-02
      6.8054628956949409e-03 -5.8212432121894841e-03
      2.4175050368427718e-03 6.3683542202740487e-02
      -2.4627785172148472e-02 3.4145610324294215e-03
      -4.2641658056276118e-03 5.2248858527308255e-02
      -8.7041924955103130e-04 -8.9360706504787325e-03
      -5.7437371793584241e-05 1.2662667877611956e-02
      -1.7562622749474944e-02 -1.2321115070343615e-02
      -2.6013490992779369e-02 -1.6603408709086623e-02
      -5.9914956613507358e-03 2.1413673433730570e-02
      -2.0888567015510198e-02 -1.3248080318734668e-02
      2.4039366125547287e-02 -5.2528757155951997e-02
      -1.4608592316480696e-02 6.6964906721458462e-03
      -1.7600887571433757e-02 -2.5135538739475473e-02
      1.2038712084610456e-02 3.8027630996264737e-02
      -5.6499516481685282e-02 5.1747163613211095e-03
      -2.2023288022521119e-02 -4.0633534433960623e-02
      6.0716619670380154e-02 -3.0770043595962158e-02
      -2.9560965645997167e-02 4.6740525195008865e-03
      3.5361521460683554e-02 3.9628321846848759e-02
      -4.7524582125249510e-03 1.3650668880932986e-03
      8.4261071850939548e-02 1.2428534234986105e-02
      2.0670418065396198e-02 -2.5052101291880423e-02
      5.6711855851217042e-03 -1.1299754919248360e-02
      -2.2801799310709046e-02 -6.2886089677628267e-03
      -2.6388270233359622e-02 3.9460333273581630e-02
      5.1215977742389431e-02 1.8202525922012946e-02
      1.0183443846918126e-02 -5.7607012757695489e-02
      -6.3569512261011249e-02 1.4353503181854922e-02
